309 128
279 0.248982 0.093054 -0.418151 0.302540 -0.030878 -0.055437 0.088339 0.099569 0.317889 0.124391 -0.025027 -0.033512 0.379735 -0.203446 -0.207528 -0.106596 -0.111069 0.262478 -0.005612 -0.142635 -0.041584 -0.112507 0.295910 0.004972 0.513996 0.065807 -0.289305 0.333373 -0.233220 -0.095887 -0.018362 0.204632 0.079859 -0.326865 -0.112483 0.136762 -0.339189 -0.169698 0.124992 0.239497 0.120994 0.224084 -0.007992 -0.118888 -0.352738 -0.024411 0.009597 0.253881 0.079209 0.201368 0.189142 -0.084515 0.185437 -0.123365 -0.416887 -0.113532 0.039104 -0.148889 0.071960 -0.036212 -0.317327 0.283772 -0.214186 -0.309629 -0.505103 0.153033 0.152190 0.402465 -0.285335 0.318886 0.062684 0.169488 0.371085 -0.253034 -0.148960 -0.448395 -0.182249 0.127229 -0.006144 -0.288586 0.178563 -0.022505 0.063606 0.440501 0.407145 0.148612 0.393960 -0.185797 -0.121475 -0.118227 0.134487 0.080419 0.201870 -0.156223 -0.391248 -0.106828 -0.006653 -0.265085 -0.004040 0.032953 -0.059536 0.121895 0.000416 -0.099835 -0.128674 -0.083087 0.378904 0.613377 0.209056 0.596758 -0.174679 0.404818 0.122043 -0.026695 -0.359224 -0.087634 -0.232423 0.065700 0.031543 0.110891 0.185914 0.186613 -0.221944 -0.223062 0.134257 0.079163 -0.160148 -0.157240
230 0.202892 -0.274257 -0.212344 -0.302712 0.002003 0.050122 -0.123688 0.307886 0.006458 0.085160 -0.136479 -0.161616 -0.070177 -0.237299 -0.075104 -0.416703 0.339334 -0.020813 -0.087941 0.243593 0.499171 -0.252255 0.006382 0.288395 -0.578357 0.181255 -0.505979 0.084342 -0.416323 -0.466421 0.098591 0.180955 -0.417451 -0.085469 -0.155445 0.208822 0.316968 -0.335173 0.352952 -0.077421 -0.028746 0.479419 -0.137933 -0.354807 -0.239025 -0.321106 -0.089469 0.019255 -0.049840 0.117390 -0.054460 0.439748 0.281679 0.066816 -0.165023 0.010942 -0.387786 0.078858 0.024991 -0.097108 -0.175362 -0.233609 -0.084785 -0.199027 -0.251986 0.215953 0.011388 0.028103 -0.404024 0.000013 -0.062104 0.060167 0.523245 -0.201190 0.164349 -0.134085 -0.087147 0.272929 0.338970 -0.024771 0.518791 -0.064831 0.070199 0.060828 -0.071723 -0.218098 -0.002916 -0.259737 0.112302 0.149291 0.189167 0.223952 0.045998 -0.282983 -0.238251 0.445705 0.100600 -0.626942 0.274533 0.058656 -0.291172 -0.470239 0.569728 -0.268064 0.142064 -0.092617 0.059512 0.875865 -0.246424 0.387222 -0.458825 0.297947 0.109175 -0.045954 -0.351960 0.125486 -0.583238 -0.184103 -0.202345 -0.221279 -0.366779 -0.002425 0.384349 0.271110 0.138412 0.290810 0.201413 -0.206097
26 -0.163462 -0.247164 -0.333571 0.100668 0.130378 0.141552 0.131075 -0.117583 -0.087779 -0.116270 0.071098 0.205806 0.150754 -0.403978 -0.219414 -0.506854 0.116452 0.133961 -0.029558 0.043837 0.166111 -0.004739 0.573460 -0.248329 0.040931 -0.011041 0.279031 -0.217410 -0.063376 -0.141710 0.139466 -0.039972 -0.253478 -0.286156 0.289733 -0.338249 -0.203335 -0.412541 0.280310 0.234693 -0.034191 0.032203 -0.082558 -0.267812 -0.485613 -0.046233 -0.165238 -0.343937 0.135485 0.292932 -0.127302 0.002714 0.549951 0.283339 -0.313534 -0.250229 -0.640222 -0.260173 0.121480 0.480505 0.037273 -0.785804 -0.148808 -0.120030 0.027436 -0.230920 -0.021252 -0.027096 -0.481286 0.039385 0.158581 0.502026 0.571870 -0.358567 0.336039 -0.177695 0.131724 0.376092 -0.167468 -0.362587 -0.048513 -0.104366 0.184817 -0.079268 0.203767 0.308433 0.335026 -0.034986 -0.192270 0.278428 0.392840 -0.206471 0.048617 -0.252625 -0.363690 0.034052 -0.130506 -0.702226 0.242507 0.077407 -0.344527 0.052638 0.232542 -0.032133 0.387147 -0.079050 0.520524 0.342041 0.214086 -0.258576 -0.480008 0.154174 -0.088564 -0.196203 0.014954 -0.254076 -0.440890 -0.126653 -0.536720 -0.415587 -0.382602 0.169197 -0.199255 -0.404932 -0.092201 -0.071697 -0.161359 -0.414317
234 0.241526 0.101068 -0.422570 0.298281 -0.035092 -0.059774 0.083456 0.093751 0.329256 0.122277 -0.020956 -0.025140 0.394858 -0.197789 -0.201059 -0.093294 -0.105985 0.262211 0.006824 -0.127563 -0.026505 -0.125469 0.310821 0.014913 0.485630 0.064732 -0.304915 0.337711 -0.244057 -0.114339 -0.005113 0.201771 0.096915 -0.338445 -0.125588 0.148601 -0.337252 -0.158927 0.124179 0.248541 0.116777 0.230255 -0.008471 -0.126444 -0.335976 -0.028108 -0.005943 0.266518 0.084818 0.190739 0.200261 -0.083595 0.182105 -0.128044 -0.412187 -0.102319 0.025324 -0.135866 0.056478 -0.025330 -0.331565 0.262778 -0.176851 -0.315312 -0.501718 0.168486 0.142594 0.399861 -0.298459 0.342351 0.053045 0.168548 0.363366 -0.231891 -0.161231 -0.450039 -0.185011 0.110040 0.002852 -0.281149 0.170759 -0.018121 0.072478 0.422923 0.403671 0.138777 0.376710 -0.185943 -0.120329 -0.113522 0.112931 0.073488 0.210465 -0.149503 -0.382097 -0.103420 -0.002739 -0.277962 -0.007638 0.040461 -0.055066 0.109934 -0.005345 -0.086900 -0.154157 -0.079017 0.391924 0.641831 0.202752 0.610675 -0.174445 0.422773 0.142119 -0.023996 -0.374907 -0.077440 -0.222947 0.067513 0.035617 0.122579 0.186075 0.187851 -0.212663 -0.225329 0.149291 0.075399 -0.168577 -0.146850
90 0.208678 -0.263580 -0.159539 -0.304839 0.015996 0.056845 -0.123839 0.282676 -0.005357 0.084411 -0.113137 -0.186556 -0.081517 -0.227949 -0.074653 -0.439503 0.344935 -0.006923 -0.087385 0.245101 0.473772 -0.266030 0.032059 0.299465 -0.614930 0.216696 -0.523595 0.060197 -0.448738 -0.478876 0.109389 0.178461 -0.404097 -0.044419 -0.132886 0.212446 0.312907 -0.314646 0.354324 -0.106645 -0.061997 0.469043 -0.165447 -0.335239 -0.237983 -0.315961 -0.087460 0.032457 -0.030119 0.139944 -0.074156 0.445231 0.259232 0.057272 -0.164681 0.004855 -0.402341 0.081712 0.027045 -0.109423 -0.160752 -0.233342 -0.094745 -0.180333 -0.268451 0.227657 -0.016710 0.029168 -0.410551 0.001616 -0.092157 0.060636 0.512005 -0.191266 0.146939 -0.133636 -0.067814 0.256346 0.356347 -0.018468 0.523786 -0.077845 0.063585 0.111498 -0.077841 -0.206771 -0.015289 -0.285690 0.122074 0.126931 0.183450 0.255743 0.037090 -0.273936 -0.238603 0.457268 0.061753 -0.629548 0.256182 0.057190 -0.278698 -0.451836 0.551702 -0.269599 0.155523 -0.072365 0.085408 0.875157 -0.242345 0.368228 -0.458482 0.286685 0.126427 -0.040704 -0.347836 0.119637 -0.523569 -0.192137 -0.183845 -0.197307 -0.359588 0.010973 0.344072 0.253376 0.132373 0.319191 0.169323 -0.200738
150 0.194481 -0.248981 -0.179391 -0.267958 0.018495 0.040323 -0.110229 0.287939 0.006952 0.077699 -0.112611 -0.176839 -0.074376 -0.243077 -0.066272 -0.420037 0.334277 0.005834 -0.096797 0.256740 0.473918 -0.255248 0.014385 0.278087 -0.593854 0.212980 -0.511300 0.088460 -0.392046 -0.488489 0.110532 0.179482 -0.428029 -0.082910 -0.143431 0.230560 0.308692 -0.317390 0.344870 -0.097834 -0.049740 0.472420 -0.135512 -0.361173 -0.231579 -0.322668 -0.079680 0.028021 -0.037473 0.119567 -0.039562 0.449896 0.239272 0.050667 -0.155662 0.000234 -0.388438 0.058976 0.037384 -0.112996 -0.169479 -0.223478 -0.088285 -0.197787 -0.252858 0.232671 0.004221 0.045246 -0.396870 0.006074 -0.079635 0.046456 0.521191 -0.211184 0.158768 -0.128283 -0.076140 0.269886 0.343381 -0.026040 0.546841 -0.060163 0.090455 0.046567 -0.062744 -0.226589 -0.004912 -0.264859 0.106664 0.156218 0.202194 0.257343 0.059643 -0.264012 -0.251215 0.480133 0.114036 -0.633327 0.287042 0.069628 -0.297135 -0.494611 0.600170 -0.282512 0.141818 -0.100090 0.046857 0.901951 -0.257399 0.401727 -0.442511 0.322343 0.114417 -0.049467 -0.362206 0.142172 -0.588938 -0.187965 -0.194208 -0.230355 -0.374735 -0.007632 0.376329 0.276789 0.128540 0.303767 0.197390 -0.210708
228 0.229153 0.117485 -0.466507 0.316162 -0.060432 -0.077813 0.063889 0.124867 0.349664 0.077631 -0.045232 0.005163 0.381080 -0.175612 -0.161941 -0.070155 -0.129267 0.293969 -0.015977 -0.192691 -0.028770 -0.142149 0.267995 -0.011911 0.513099 0.020038 -0.289382 0.273686 -0.210583 -0.085452 -0.017325 0.247925 0.090384 -0.354349 -0.084678 0.088344 -0.340556 -0.135730 0.123281 0.252579 0.169565 0.211314 -0.030516 -0.109212 -0.339864 -0.032311 0.012689 0.262586 0.092811 0.247797 0.203210 -0.080543 0.179915 -0.099533 -0.422560 -0.119445 0.009518 -0.146527 0.032402 -0.014914 -0.345054 0.283326 -0.178487 -0.332872 -0.498283 0.182221 0.150324 0.387491 -0.329243 0.373246 0.023767 0.216034 0.393356 -0.225705 -0.172402 -0.429144 -0.206962 0.131955 -0.021825 -0.304054 0.196838 0.001476 0.066762 0.451936 0.339540 0.128823 0.423776 -0.172063 -0.111680 -0.092888 0.126024 0.059738 0.213770 -0.184789 -0.369230 -0.053853 -0.000743 -0.255176 -0.054033 0.021366 -0.041219 0.153836 0.004954 -0.045271 -0.170399 -0.070033 0.366517 0.574375 0.204221 0.586158 -0.176983 0.418584 0.093402 -0.090743 -0.377376 -0.095648 -0.257102 0.053740 -0.003290 0.084834 0.232640 0.208142 -0.191224 -0.231262 0.118097 0.082529 -0.153816 -0.145852
28 -0.168596 -0.229592 -0.306397 0.097313 0.123537 0.146907 0.125586 -0.119777 -0.094454 -0.106499 0.085596 0.220107 0.141804 -0.397091 -0.216407 -0.508794 0.131962 0.123126 -0.012074 0.044807 0.138200 -0.002868 0.566936 -0.251652 0.050324 -0.004304 0.297709 -0.214160 -0.068354 -0.120739 0.124975 -0.040383 -0.236902 -0.263504 0.315445 -0.337992 -0.202424 -0.410963 0.280661 0.228999 -0.046846 0.013163 -0.067593 -0.237806 -0.477757 -0.047092 -0.178000 -0.352528 0.148464 0.266137 -0.151622 -0.015185 0.559029 0.313746 -0.303781 -0.246740 -0.627225 -0.267732 0.138027 0.482265 0.040273 -0.793482 -0.169623 -0.126106 0.031828 -0.235776 -0.007153 -0.014771 -0.487387 0.023291 0.150895 0.504024 0.572966 -0.366530 0.353755 -0.171320 0.147946 0.394819 -0.164139 -0.355403 -0.064350 -0.135878 0.164538 -0.069373 0.203543 0.320729 0.332752 -0.056374 -0.181110 0.265181 0.397126 -0.221897 0.035669 -0.281592 -0.347339 0.024012 -0.135566 -0.687560 0.245223 0.066311 -0.359577 0.078101 0.217548 -0.045406 0.421632 -0.075033 0.518850 0.332312 0.211610 -0.279839 -0.492721 0.129529 -0.095750 -0.208990 0.026972 -0.264588 -0.462675 -0.114457 -0.544426 -0.420670 -0.381280 0.168488 -0.204765 -0.395449 -0.086437 -0.098645 -0.154323 -0.403773
299 0.203490 0.094811 -0.423015 0.252678 -0.042568 -0.061724 0.051508 0.127346 0.330357 0.082227 -0.026567 0.038914 0.378093 -0.162876 -0.160727 -0.056628 -0.095371 0.282003 -0.002834 -0.188892 -0.023607 -0.153111 0.255072 -0.026922 0.475497 0.055054 -0.318397 0.241452 -0.207306 -0.084467 -0.018210 0.249159 0.094239 -0.321659 -0.090061 0.085790 -0.364246 -0.088554 0.123200 0.231726 0.171458 0.207308 -0.066475 -0.109404 -0.324325 -0.016041 -0.023542 0.264034 0.099599 0.215586 0.237787 -0.086359 0.183044 -0.089826 -0.417632 -0.112619 0.018497 -0.151448 -0.002502 -0.006647 -0.356527 0.291297 -0.186774 -0.308136 -0.494593 0.193641 0.162853 0.389290 -0.324042 0.402562 0.004854 0.242979 0.374562 -0.219573 -0.157411 -0.416387 -0.186333 0.122079 -0.029703 -0.312599 0.174632 -0.047163 0.074135 0.449848 0.332499 0.135762 0.404550 -0.180785 -0.102615 -0.059751 0.101177 0.059729 0.176129 -0.180195 -0.364820 -0.016286 -0.002150 -0.274638 -0.032955 0.019444 -0.037640 0.138133 -0.041178 -0.022980 -0.143629 -0.087159 0.379484 0.613502 0.201971 0.581000 -0.187316 0.396878 0.095717 -0.131716 -0.385909 -0.096799 -0.258581 0.044525 -0.010572 0.098807 0.246447 0.185544 -0.211361 -0.178059 0.126226 0.102423 -0.159980 -0.136071
127 -0.160024 -0.226192 -0.300284 0.097808 0.133424 0.150132 0.123417 -0.110998 -0.095755 -0.088400 0.105008 0.215951 0.136251 -0.396038 -0.208400 -0.509373 0.129318 0.127160 -0.001322 0.041596 0.139518 -0.006801 0.560707 -0.234709 0.048274 -0.009143 0.279818 -0.200382 -0.074096 -0.125128 0.115889 -0.041768 -0.236658 -0.246769 0.299079 -0.314441 -0.203960 -0.403868 0.257044 0.228992 -0.048374 0.023416 -0.067627 -0.235643 -0.480797 -0.042284 -0.164048 -0.342120 0.155992 0.255969 -0.149065 -0.020578 0.538307 0.317051 -0.316708 -0.247185 -0.619146 -0.264842 0.134470 0.465164 0.034664 -0.774976 -0.179929 -0.123019 0.016933 -0.228163 -0.007419 -0.006643 -0.482990 0.020944 0.151638 0.491297 0.565024 -0.363288 0.355792 -0.170856 0.137948 0.386238 -0.148582 -0.354179 -0.058298 -0.121842 0.156490 -0.069604 0.212024 0.292057 0.330809 -0.059035 -0.179855 0.253186 0.396867 -0.215914 0.053704 -0.277790 -0.366900 0.030078 -0.137108 -0.694155 0.256173 0.070699 -0.372270 0.088049 0.222780 -0.038487 0.416569 -0.075818 0.506654 0.337835 0.206435 -0.268861 -0.488127 0.136930 -0.081118 -0.207291 0.034001 -0.253335 -0.451741 -0.109424 -0.538900 -0.416091 -0.380543 0.162983 -0.206355 -0.388783 -0.078927 -0.085105 -0.162261 -0.397387
278 0.223787 0.111100 -0.490034 0.332431 -0.071584 -0.091157 0.095598 0.125645 0.357826 0.061499 -0.031841 0.006180 0.404193 -0.206741 -0.188583 -0.086197 -0.093157 0.317226 -0.037684 -0.172197 -0.030371 -0.146028 0.270124 -0.043591 0.569363 0.009803 -0.334461 0.312908 -0.192914 -0.084203 -0.004684 0.234793 0.074602 -0.343790 -0.081757 0.116062 -0.290947 -0.120274 0.146855 0.265127 0.145979 0.212773 -0.055905 -0.135384 -0.354154 -0.090256 0.046091 0.226057 0.050672 0.249945 0.202294 -0.082574 0.174995 -0.119127 -0.414818 -0.119455 0.004765 -0.175655 0.046845 -0.020345 -0.315575 0.304584 -0.166140 -0.320350 -0.475204 0.145145 0.175373 0.367675 -0.323147 0.358492 0.045730 0.178746 0.398814 -0.247130 -0.158846 -0.430484 -0.217595 0.135386 -0.011444 -0.258025 0.221516 0.018046 0.057974 0.374859 0.383292 0.092102 0.415478 -0.148005 -0.137122 -0.107017 0.134628 0.056065 0.254755 -0.161645 -0.369671 -0.083715 -0.017834 -0.195050 -0.043800 0.034006 -0.052827 0.120699 0.011709 -0.074851 -0.150034 -0.114600 0.274999 0.585652 0.175655 0.606625 -0.170822 0.413658 0.080936 -0.058807 -0.391278 -0.125154 -0.294574 0.008396 0.010513 0.044053 0.181617 0.258114 -0.167356 -0.229698 0.085984 0.061343 -0.114896 -0.180201
7 0.203864 0.125202 -0.478296 0.262658 -0.088593 -0.080232 0.054476 0.153651 0.358911 0.076333 -0.017295 0.019850 0.398098 -0.204980 -0.166252 -0.063001 -0.099999 0.321114 -0.023164 -0.195436 -0.030642 -0.163448 0.250325 -0.053018 0.533522 0.028410 -0.326239 0.282788 -0.186161 -0.079411 -0.002207 0.264640 0.082631 -0.315846 -0.087453 0.103692 -0.352157 -0.084282 0.135861 0.244830 0.168552 0.225794 -0.092427 -0.137734 -0.340515 -0.055837 0.001685 0.246265 0.076857 0.239192 0.218307 -0.094169 0.204793 -0.100875 -0.425064 -0.098569 0.013729 -0.194460 0.028274 -0.019673 -0.316761 0.304852 -0.199296 -0.317514 -0.484170 0.177159 0.203746 0.396977 -0.319258 0.386107 0.014304 0.204559 0.382349 -0.231885 -0.153469 -0.426163 -0.196343 0.145032 -0.001012 -0.300996 0.205804 -0.051289 0.055531 0.418564 0.357134 0.128912 0.417456 -0.169363 -0.124120 -0.078826 0.124313 0.052514 0.198146 -0.191981 -0.387298 -0.056255 -0.014487 -0.255378 -0.051365 0.018319 -0.049746 0.127892 -0.025116 -0.062065 -0.103829 -0.134554 0.294614 0.580105 0.190775 0.568682 -0.189893 0.399783 0.074336 -0.121260 -0.395982 -0.119179 -0.306633 0.025047 -0.022680 0.069653 0.212965 0.235178 -0.191332 -0.183734 0.079658 0.071221 -0.121483 -0.157382
57 0.194199 0.120950 -0.464152 0.239000 -0.074092 -0.094432 0.059001 0.119417 0.352947 0.089311 0.021554 -0.010523 0.374529 -0.212783 -0.207914 -0.087667 -0.054987 0.278648 0.033001 -0.126639 -0.066128 -0.150728 0.275984 -0.071498 0.520373 0.072133 -0.326894 0.361401 -0.190215 -0.105320 -0.024012 0.282014 0.103821 -0.289742 -0.157951 0.141212 -0.325661 -0.111013 0.156010 0.218149 0.164446 0.225817 -0.088856 -0.176810 -0.319080 -0.071359 0.020287 0.220945 0.053508 0.151535 0.210238 -0.140513 0.245804 -0.170802 -0.367256 -0.088168 0.064696 -0.178318 0.027995 -0.039515 -0.270081 0.288915 -0.227006 -0.306949 -0.416097 0.143422 0.181464 0.403199 -0.286950 0.346390 0.022872 0.161144 0.406556 -0.209177 -0.130384 -0.465657 -0.150733 0.107314 -0.008282 -0.284499 0.190113 -0.099455 0.079448 0.373962 0.450197 0.187930 0.427499 -0.160026 -0.144324 -0.050243 0.085271 0.070656 0.165136 -0.158750 -0.395154 -0.144990 0.039741 -0.275350 0.001998 0.037600 0.010689 0.050858 -0.003382 -0.079960 -0.046732 -0.106653 0.315758 0.645841 0.205929 0.613736 -0.207258 0.401769 0.100280 -0.090689 -0.405493 -0.141354 -0.239096 0.076173 -0.013853 0.090935 0.224593 0.171405 -0.213205 -0.209679 0.069832 0.084504 -0.132461 -0.149627
241 0.238919 0.125788 -0.456390 0.270375 -0.065750 -0.091095 0.073460 0.123145 0.342475 0.091725 -0.014067 -0.005737 0.383565 -0.215253 -0.179309 -0.073702 -0.078560 0.273588 0.004922 -0.161242 -0.034792 -0.134305 0.257560 -0.039334 0.524422 0.051190 -0.322590 0.321860 -0.204470 -0.094425 -0.026748 0.242134 0.067949 -0.306997 -0.108613 0.126899 -0.332409 -0.141893 0.138049 0.230742 0.164539 0.222901 -0.061204 -0.131913 -0.329121 -0.048628 0.005517 0.232157 0.065743 0.189094 0.213177 -0.092291 0.218126 -0.128089 -0.397234 -0.085008 0.042640 -0.177830 0.037232 -0.027980 -0.301525 0.301374 -0.224807 -0.306399 -0.473074 0.161881 0.186301 0.403647 -0.298751 0.353752 0.034805 0.184735 0.387028 -0.243990 -0.135139 -0.436461 -0.177446 0.123367 -0.018128 -0.279656 0.180705 -0.070870 0.057622 0.391747 0.388750 0.133169 0.423599 -0.161410 -0.114621 -0.065217 0.126208 0.056581 0.189266 -0.175909 -0.383979 -0.099632 0.015819 -0.246344 -0.015394 0.011214 -0.034206 0.099840 -0.026914 -0.078520 -0.087157 -0.101885 0.325024 0.629529 0.192145 0.594027 -0.182446 0.391733 0.089712 -0.087631 -0.383655 -0.119943 -0.272526 0.055472 -0.002434 0.079887 0.211971 0.183929 -0.197066 -0.217535 0.105753 0.081681 -0.145314 -0.149747
93 0.170446 -0.242041 -0.206684 -0.273576 0.058700 0.076706 -0.094754 0.312056 0.002427 0.101099 -0.132590 -0.187819 -0.057560 -0.237399 -0.082951 -0.413272 0.291955 0.021880 -0.102355 0.247705 0.525813 -0.259058 0.047828 0.292951 -0.585376 0.191004 -0.509908 0.124024 -0.381774 -0.499993 0.136151 0.168068 -0.407809 -0.086761 -0.169180 0.226653 0.301972 -0.335990 0.326737 -0.049276 -0.011498 0.519861 -0.132462 -0.396217 -0.248265 -0.326875 -0.066847 0.050405 -0.024272 0.146417 -0.044559 0.436307 0.271543 0.096162 -0.173927 -0.038647 -0.422749 0.058606 0.031918 -0.120693 -0.198334 -0.222204 -0.065706 -0.208974 -0.285670 0.228224 0.031417 0.058871 -0.395299 -0.001684 -0.060482 0.065880 0.540964 -0.222180 0.160071 -0.118094 -0.056022 0.278186 0.349032 -0.017062 0.530695 -0.048332 0.081185 0.045491 -0.053638 -0.246105 -0.016801 -0.226931 0.107548 0.173196 0.212031 0.228423 0.065512 -0.279155 -0.246680 0.450653 0.090660 -0.665695 0.227757 0.073887 -0.313686 -0.437164 0.550027 -0.303194 0.131082 -0.082511 0.046389 0.830087 -0.291677 0.351566 -0.428264 0.316679 0.139448 -0.014657 -0.361588 0.119109 -0.553798 -0.193637 -0.202102 -0.201011 -0.352508 0.011207 0.368300 0.292968 0.150533 0.288349 0.173356 -0.199118
242 0.191989 0.101759 -0.481303 0.267277 -0.074121 -0.080531 0.047403 0.142166 0.361165 0.068146 -0.026094 0.028328 0.384023 -0.181421 -0.162696 -0.064286 -0.106052 0.314964 -0.022776 -0.190352 -0.018548 -0.169894 0.253055 -0.052416 0.518976 0.021307 -0.326945 0.265360 -0.191670 -0.095297 -0.011321 0.266807 0.078127 -0.299548 -0.086451 0.089226 -0.335625 -0.093263 0.135159 0.244218 0.188220 0.206788 -0.084404 -0.130132 -0.336670 -0.071691 0.011895 0.243980 0.069716 0.254492 0.223172 -0.107624 0.198047 -0.112442 -0.400684 -0.109675 0.005706 -0.169341 0.006420 -0.028629 -0.320106 0.296163 -0.175176 -0.309180 -0.468566 0.179878 0.179626 0.372946 -0.325293 0.382179 0.008924 0.203934 0.380130 -0.212876 -0.166062 -0.413243 -0.188101 0.120221 -0.028595 -0.290285 0.209156 -0.033953 0.065884 0.404536 0.343731 0.118541 0.416154 -0.147241 -0.117060 -0.055635 0.115942 0.058147 0.186639 -0.166640 -0.382406 -0.055884 -0.010383 -0.244148 -0.052235 0.034784 -0.031714 0.127144 -0.012532 -0.036531 -0.115914 -0.121015 0.317856 0.604772 0.187185 0.583627 -0.201051 0.421656 0.070473 -0.126312 -0.381099 -0.123916 -0.273231 0.024451 -0.023730 0.080140 0.235849 0.219505 -0.179727 -0.192973 0.086271 0.092980 -0.138838 -0.154659
108 0.238044 0.085592 -0.398411 0.217658 -0.016062 -0.030712 0.076272 0.121980 0.294173 0.145219 -0.007152 0.008145 0.393642 -0.165269 -0.152637 -0.063879 -0.114150 0.277894 0.015714 -0.165912 0.006936 -0.148572 0.269874 0.021985 0.413737 0.088459 -0.324587 0.238435 -0.256345 -0.087707 -0.038834 0.253473 0.076031 -0.299206 -0.086166 0.090801 -0.415606 -0.119832 0.110646 0.210113 0.149301 0.223603 -0.058173 -0.090047 -0.339940 0.042681 -0.075035 0.286966 0.145988 0.212404 0.243700 -0.059636 0.192016 -0.065147 -0.447666 -0.086674 0.013809 -0.149844 -0.009463 -0.013299 -0.379016 0.284884 -0.236271 -0.316400 -0.562473 0.220066 0.166995 0.417184 -0.321333 0.393649 0.006529 0.269762 0.353821 -0.222160 -0.138429 -0.411949 -0.193001 0.108103 -0.008571 -0.318810 0.144448 -0.080756 0.059206 0.513502 0.313109 0.137643 0.374414 -0.235581 -0.060707 -0.077103 0.142071 0.062840 0.154839 -0.181752 -0.384127 0.005186 -0.014618 -0.317426 -0.016726 -0.004426 -0.074275 0.178818 -0.052067 -0.018970 -0.126546 -0.072703 0.466838 0.658123 0.189225 0.574530 -0.192193 0.366495 0.124651 -0.141682 -0.363641 -0.054328 -0.246767 0.070183 0.002328 0.148866 0.251215 0.130542 -0.258629 -0.160318 0.186659 0.113089 -0.202941 -0.134000
135 0.195451 0.108718 -0.448756 0.265750 -0.066771 -0.078912 0.074896 0.106942 0.348665 0.120193 0.008053 -0.012411 0.393676 -0.224088 -0.200286 -0.080031 -0.083795 0.279262 -0.003243 -0.117226 -0.032278 -0.115622 0.291903 -0.031547 0.510471 0.062730 -0.310612 0.341311 -0.205780 -0.104881 0.012890 0.222587 0.108475 -0.316644 -0.116607 0.166121 -0.361528 -0.117469 0.116675 0.247228 0.133068 0.257500 -0.058525 -0.156616 -0.337254 -0.035739 0.012132 0.233857 0.065546 0.185484 0.214827 -0.110426 0.204500 -0.150440 -0.425663 -0.083467 0.057718 -0.173218 0.042646 -0.030366 -0.306032 0.279893 -0.196896 -0.312877 -0.464262 0.126850 0.173081 0.391639 -0.292170 0.340784 0.030107 0.160649 0.366095 -0.223879 -0.127514 -0.445142 -0.192482 0.109830 0.012686 -0.266312 0.167422 -0.048095 0.076457 0.384461 0.415157 0.159229 0.387283 -0.162601 -0.125401 -0.097405 0.109090 0.067172 0.192150 -0.152425 -0.390474 -0.120559 -0.005561 -0.262511 0.007661 0.037042 -0.049819 0.097924 -0.022931 -0.091538 -0.100059 -0.128429 0.310905 0.635236 0.203039 0.595812 -0.181388 0.392327 0.137167 -0.044539 -0.383428 -0.085406 -0.259416 0.064682 0.016257 0.106335 0.176387 0.188216 -0.218748 -0.201839 0.107814 0.065045 -0.135181 -0.150041
91 -0.323309 -0.168317 -0.181044 0.028687 0.232193 0.308968 -0.323709 -0.378822 0.208211 0.226539 -0.168922 -0.244307 0.075902 -0.185411 -0.299131 -0.512926 -0.229370 0.134413 -0.253711 -0.070402 0.471126 -0.035066 0.371251 0.165981 -0.693325 0.111591 0.015484 -0.327982 -0.472011 -0.526385 0.465683 0.035252 0.271420 -0.226738 0.094297 0.143019 -0.672280 -0.160278 -0.205538 0.199761 -0.240244 0.775841 -0.066139 -0.359821 -0.617707 -0.019698 0.242955 0.208774 0.349429 0.801226 -0.275164 -0.109664 -0.014261 0.264191 -0.555500 -0.627464 -0.630238 0.240093 -0.073355 0.286165 -0.260841 -0.616799 0.436359 -0.258216 -0.472223 -0.033716 -0.422507 -0.125103 -0.469882 -0.096479 -0.293555 0.146581 0.509611 -0.011457 0.076966 0.054205 0.077570 0.264758 0.201824 -0.347592 0.297299 0.230878 0.116376 0.854094 -0.190368 0.024361 0.166016 -0.269226 -0.008941 -0.051952 0.218523 0.018113 -0.139330 -0.170296 -0.442559 0.258552 -0.517693 -1.145912 0.190425 0.324562 -0.183548 0.317454 0.152090 -0.280503 -0.629362 -0.013835 0.928351 0.443436 0.186006 -0.052583 -0.543628 0.610406 0.369890 0.277876 -0.200379 0.340601 0.300053 -0.229759 -0.164345 0.607413 -0.275277 0.240691 -0.107824 -0.186031 0.188491 0.424155 -0.483531 -0.049175
202 0.245901 0.110250 -0.471292 0.211370 -0.064532 -0.078955 0.086681 0.152678 0.337725 0.124920 0.004329 0.018888 0.428876 -0.227092 -0.162164 -0.067984 -0.087873 0.311993 0.021138 -0.157158 -0.023121 -0.149342 0.239771 -0.062516 0.503897 0.069446 -0.344684 0.298969 -0.174317 -0.051991 -0.023211 0.293238 0.056153 -0.289514 -0.063248 0.096444 -0.369645 -0.098536 0.120217 0.212327 0.179102 0.240477 -0.100094 -0.128825 -0.322470 -0.016150 -0.042825 0.228375 0.085456 0.198988 0.237542 -0.082652 0.243411 -0.087518 -0.412621 -0.045153 0.045097 -0.202130 0.017852 -0.030176 -0.336250 0.327290 -0.269830 -0.324380 -0.495351 0.174811 0.233476 0.424464 -0.291319 0.398346 0.017340 0.225868 0.378282 -0.247714 -0.103713 -0.434143 -0.187659 0.149953 0.008315 -0.285450 0.167883 -0.115348 0.056568 0.416168 0.355744 0.151385 0.406579 -0.188081 -0.098289 -0.059857 0.150161 0.040352 0.164855 -0.199627 -0.388145 -0.036167 0.002362 -0.252776 -0.024675 -0.019681 -0.072148 0.119477 -0.037879 -0.074340 -0.034806 -0.112591 0.327085 0.627056 0.170996 0.566021 -0.177996 0.352038 0.080969 -0.142350 -0.358505 -0.104609 -0.325592 0.045371 -0.029242 0.062549 0.203008 0.171831 -0.243735 -0.170353 0.111109 0.074489 -0.131093 -0.154934
225 -0.159282 -0.228442 -0.310696 0.100245 0.145718 0.139740 0.139481 -0.103156 -0.094948 -0.094958 0.112541 0.211826 0.156818 -0.414503 -0.211128 -0.522311 0.134896 0.113781 -0.017940 0.034365 0.158653 -0.008167 0.574507 -0.227356 0.054005 -0.000098 0.282321 -0.209262 -0.051854 -0.127229 0.111155 -0.039114 -0.250355 -0.249291 0.297274 -0.331358 -0.208257 -0.425376 0.263158 0.248250 -0.058323 0.012901 -0.053366 -0.244058 -0.483143 -0.055883 -0.168927 -0.351514 0.165488 0.256596 -0.133852 -0.015926 0.550687 0.334881 -0.338565 -0.243862 -0.637052 -0.274834 0.138970 0.475952 0.044995 -0.773826 -0.192582 -0.127470 0.017146 -0.234194 0.000493 0.013900 -0.484330 0.019867 0.148807 0.490370 0.570396 -0.362277 0.358680 -0.169992 0.134734 0.385240 -0.140572 -0.346274 -0.063037 -0.119651 0.161537 -0.101637 0.217228 0.285559 0.316096 -0.050819 -0.163935 0.252154 0.391939 -0.208731 0.054796 -0.269886 -0.365980 0.018310 -0.122944 -0.698941 0.264274 0.081652 -0.385998 0.073116 0.222728 -0.049036 0.425583 -0.078771 0.497238 0.328838 0.186661 -0.272300 -0.480173 0.139076 -0.077480 -0.179048 0.033946 -0.238492 -0.458165 -0.112010 -0.545580 -0.433259 -0.383891 0.156979 -0.199568 -0.399681 -0.070716 -0.094208 -0.163567 -0.409328
132 0.256107 -0.421834 -0.403439 -0.123906 -0.079643 -0.475179 -0.207905 0.177064 0.298710 0.183061 -0.542098 -0.019658 -0.028210 -0.368002 0.003943 -0.634042 -0.175175 -0.082527 -0.086125 -0.193825 0.277506 0.139848 -0.179899 -0.056826 -0.260342 0.226594 0.160866 -0.099650 0.078181 -0.169892 0.300478 -0.260111 -0.492930 -0.567551 -0.032708 0.288706 -0.286891 -0.264909 -0.211627 -0.125426 0.049171 0.515397 0.291347 -0.101675 -0.465154 0.121299 0.182500 -0.267724 -0.056004 0.400572 -0.320715 0.125211 -0.147636 0.154223 -0.404797 -0.268755 -0.099427 0.121018 0.156208 0.041302 -0.203949 -0.078139 -0.335182 -0.297154 -0.195414 0.160065 -0.492055 0.286066 -0.097496 -0.117462 -0.167815 0.076591 0.348607 -0.258869 0.215539 -0.073889 0.011897 0.101662 -0.152771 -0.604207 0.163046 0.046918 0.340604 0.101248 0.204922 0.273252 0.677883 -0.026468 -0.264504 -0.073555 0.317485 0.054360 -0.206266 0.109973 -0.494543 0.338526 0.480321 -0.366555 0.577339 -0.165956 -0.313455 -0.199907 0.466376 -0.129031 -0.228048 -0.049593 0.012254 0.246325 0.057955 0.221379 0.068012 0.200361 -0.016650 0.023971 0.291920 0.082070 -0.262542 0.402928 -0.113710 0.022529 -0.224067 -0.216535 -0.171140 -0.547693 -0.309646 0.317353 -0.119138 -0.263491
183 0.213832 -0.250646 -0.207847 -0.271570 0.051868 0.056641 -0.114207 0.310622 -0.030244 0.114378 -0.124943 -0.193362 -0.072019 -0.246382 -0.062440 -0.454806 0.303921 0.001767 -0.070118 0.232549 0.492408 -0.247877 0.026656 0.325206 -0.586134 0.209139 -0.505429 0.096914 -0.410120 -0.472293 0.107888 0.164957 -0.417385 -0.049832 -0.142502 0.217983 0.296787 -0.348537 0.344019 -0.078234 -0.039640 0.488020 -0.141857 -0.345408 -0.241929 -0.297271 -0.097586 0.047347 -0.019950 0.136707 -0.058358 0.466100 0.266216 0.096580 -0.172398 0.006445 -0.400770 0.049762 0.042908 -0.132577 -0.186783 -0.182161 -0.122672 -0.199776 -0.295823 0.232759 0.025863 0.080964 -0.385566 -0.003543 -0.076596 0.066442 0.517353 -0.226136 0.159703 -0.109539 -0.074137 0.284670 0.387968 -0.007252 0.528059 -0.070655 0.045079 0.092516 -0.080784 -0.230673 -0.037224 -0.270033 0.122939 0.148132 0.215619 0.238325 0.025481 -0.285176 -0.250694 0.450100 0.090802 -0.642803 0.254350 0.042756 -0.335284 -0.431009 0.557032 -0.299703 0.171527 -0.088001 0.044261 0.847442 -0.284617 0.366130 -0.441269 0.284410 0.122589 -0.030987 -0.345488 0.120734 -0.566673 -0.186084 -0.205850 -0.212538 -0.363304 -0.001346 0.348263 0.267470 0.169080 0.302665 0.159954 -0.212976
3 0.259436 -0.434906 -0.411354 -0.119323 -0.073139 -0.491989 -0.206693 0.179492 0.301659 0.196067 -0.543795 -0.026744 -0.038948 -0.381902 0.001279 -0.648128 -0.165118 -0.092945 -0.092805 -0.192274 0.282580 0.132736 -0.175016 -0.053183 -0.260905 0.220930 0.158488 -0.095147 0.073642 -0.169846 0.299850 -0.261102 -0.483829 -0.556421 -0.034777 0.275993 -0.286510 -0.258683 -0.213589 -0.125003 0.048495 0.513219 0.288468 -0.100609 -0.471029 0.116029 0.190139 -0.264408 -0.055548 0.412772 -0.313492 0.123175 -0.148270 0.147241 -0.401032 -0.264742 -0.101192 0.133254 0.163920 0.042938 -0.205072 -0.086903 -0.322021 -0.292200 -0.195149 0.151727 -0.497895 0.286108 -0.095837 -0.131576 -0.162195 0.081135 0.353289 -0.255205 0.224753 -0.066907 0.014841 0.102382 -0.140799 -0.610270 0.163782 0.056447 0.346254 0.110541 0.202895 0.268150 0.677514 -0.021533 -0.271142 -0.080886 0.315502 0.060004 -0.214605 0.118148 -0.501627 0.349514 0.472789 -0.370871 0.591003 -0.160259 -0.321966 -0.201725 0.459939 -0.123275 -0.224744 -0.038325 0.015982 0.247306 0.061902 0.212750 0.078471 0.209236 -0.015776 0.027862 0.292049 0.090968 -0.265465 0.405745 -0.102402 0.031055 -0.225363 -0.224878 -0.169855 -0.552703 -0.310222 0.327007 -0.118222 -0.267280
161 0.292319 -0.432648 -0.413176 -0.122309 -0.078998 -0.499919 -0.220010 0.196742 0.303609 0.203104 -0.560218 -0.029467 -0.029822 -0.378191 0.012517 -0.651402 -0.187206 -0.089073 -0.090798 -0.198707 0.298716 0.148591 -0.187861 -0.055170 -0.280730 0.225905 0.160188 -0.098127 0.066518 -0.172063 0.309269 -0.264115 -0.496833 -0.575207 -0.040614 0.304279 -0.300701 -0.269427 -0.228594 -0.130856 0.064618 0.543487 0.310638 -0.097707 -0.464402 0.138763 0.178646 -0.275558 -0.043153 0.415230 -0.340812 0.140763 -0.141614 0.165711 -0.416009 -0.245383 -0.079769 0.115505 0.186264 0.037559 -0.222106 -0.065758 -0.368469 -0.318151 -0.211500 0.171745 -0.513405 0.306175 -0.104421 -0.130288 -0.182366 0.088126 0.359613 -0.288507 0.230494 -0.071320 0.005952 0.110559 -0.142905 -0.621564 0.157042 0.046810 0.351823 0.120673 0.209252 0.287359 0.694633 -0.035726 -0.259929 -0.086031 0.329050 0.064424 -0.236213 0.107464 -0.523009 0.355102 0.513086 -0.368287 0.593257 -0.191491 -0.338839 -0.201829 0.481775 -0.144684 -0.228014 -0.044298 0.004615 0.249595 0.043160 0.221386 0.066123 0.186028 -0.021072 0.022318 0.301672 0.085630 -0.276954 0.430492 -0.110729 0.025901 -0.230998 -0.225070 -0.184493 -0.573441 -0.305284 0.343588 -0.110495 -0.279935
252 0.287809 0.052640 -0.322928 0.240812 0.023425 -0.028003 0.072333 0.116234 0.292595 0.108186 -0.060978 0.024622 0.343080 -0.069035 -0.114875 -0.031780 -0.120937 0.215669 0.033922 -0.184645 0.005204 -0.153040 0.257059 0.084993 0.328698 0.116293 -0.285500 0.182352 -0.309460 -0.089319 -0.097652 0.202288 0.088257 -0.341690 -0.165578 0.060805 -0.349067 -0.147809 0.126029 0.181589 0.148877 0.165087 0.029635 0.000916 -0.265277 0.087009 -0.085540 0.327995 0.170441 0.141798 0.254417 -0.012028 0.124611 -0.044394 -0.381105 -0.135197 0.047102 -0.069939 -0.027041 0.006652 -0.414827 0.280252 -0.206387 -0.296749 -0.573298 0.276364 0.066575 0.429440 -0.337454 0.404904 0.000020 0.314071 0.368787 -0.202278 -0.163600 -0.417614 -0.167522 0.080177 -0.083361 -0.369897 0.131067 -0.057261 0.100841 0.570997 0.292033 0.129483 0.383252 -0.300866 -0.024132 -0.031678 0.113223 0.108003 0.149243 -0.169863 -0.318960 0.044370 0.072219 -0.345550 -0.028147 -0.001888 -0.022299 0.166438 -0.053475 0.041334 -0.191783 0.022750 0.557362 0.674618 0.208475 0.562577 -0.189548 0.367458 0.105460 -0.165487 -0.379705 -0.052878 -0.148621 0.112361 0.011141 0.219190 0.318997 0.081082 -0.239395 -0.148088 0.222681 0.179834 -0.232773 -0.065585
298 -0.145174 -0.230052 -0.329656 0.110999 0.118050 0.153088 0.135168 -0.125537 -0.084231 -0.071956 0.086253 0.208050 0.140714 -0.387174 -0.218342 -0.508241 0.134505 0.156219 -0.001220 0.070713 0.136901 -0.000357 0.565849 -0.254378 0.034470 -0.021173 0.289969 -0.202582 -0.096980 -0.153756 0.138190 -0.058676 -0.255381 -0.263133 0.311972 -0.308103 -0.228788 -0.405116 0.256031 0.232876 -0.061901 0.058501 -0.054165 -0.253036 -0.487812 -0.029690 -0.157852 -0.345139 0.152735 0.281607 -0.140997 -0.015499 0.548312 0.296358 -0.319250 -0.231938 -0.602693 -0.267942 0.144606 0.467090 0.040501 -0.781961 -0.157965 -0.136232 0.010884 -0.233253 -0.012858 -0.038710 -0.476666 0.009866 0.165609 0.487763 0.565188 -0.368312 0.350588 -0.169710 0.142066 0.361532 -0.153664 -0.337229 -0.056833 -0.119811 0.172299 -0.052803 0.211294 0.303856 0.336102 -0.064952 -0.187622 0.236972 0.406226 -0.220274 0.052119 -0.278778 -0.373889 0.045866 -0.136342 -0.684406 0.256720 0.059346 -0.369476 0.093706 0.224765 -0.042800 0.412893 -0.111733 0.519443 0.355873 0.234997 -0.255908 -0.483634 0.144756 -0.085154 -0.204215 0.029455 -0.255800 -0.461527 -0.101424 -0.521109 -0.405683 -0.390977 0.150547 -0.191300 -0.386232 -0.055711 -0.108762 -0.154570 -0.398551
6 0.282784 -0.428299 -0.406367 -0.121575 -0.063299 -0.490360 -0.210913 0.190480 0.294773 0.224362 -0.550448 -0.036186 -0.037017 -0.392454 0.007734 -0.671379 -0.183486 -0.103949 -0.081854 -0.204342 0.288959 0.147306 -0.186488 -0.050075 -0.259821 0.231081 0.166095 -0.095103 0.070586 -0.155934 0.297151 -0.267447 -0.489748 -0.563790 -0.038828 0.289985 -0.305166 -0.268524 -0.228218 -0.138254 0.047649 0.534000 0.312683 -0.092698 -0.481441 0.139644 0.172258 -0.265612 -0.034703 0.415779 -0.324871 0.132194 -0.152944 0.168349 -0.405872 -0.249878 -0.084634 0.121484 0.183090 0.026086 -0.210824 -0.060075 -0.352011 -0.306832 -0.211147 0.171296 -0.511487 0.304944 -0.088562 -0.141064 -0.166106 0.076678 0.350280 -0.268482 0.240384 -0.064843 0.010287 0.118135 -0.137299 -0.604939 0.156808 0.047855 0.338739 0.128140 0.210530 0.267993 0.689768 -0.037709 -0.266960 -0.099016 0.338404 0.045848 -0.226594 0.112257 -0.510571 0.341049 0.489812 -0.378401 0.607248 -0.183546 -0.331388 -0.196674 0.461992 -0.137860 -0.221634 -0.036119 0.009568 0.243717 0.053053 0.216154 0.085689 0.194722 -0.011905 0.032414 0.306011 0.097032 -0.269892 0.417859 -0.107085 0.030335 -0.233796 -0.237502 -0.178830 -0.570108 -0.303168 0.331343 -0.127987 -0.277603
274 0.192573 -0.266210 -0.191990 -0.281106 0.010471 0.038238 -0.116297 0.314816 0.012911 0.069118 -0.124195 -0.165196 -0.072954 -0.236077 -0.061272 -0.423112 0.342665 -0.005499 -0.109345 0.247116 0.496400 -0.270419 -0.002601 0.295201 -0.581650 0.187183 -0.526272 0.069976 -0.393329 -0.504962 0.117561 0.188860 -0.426445 -0.085125 -0.163283 0.214540 0.330162 -0.315423 0.345704 -0.069564 -0.037953 0.468105 -0.133923 -0.360641 -0.252858 -0.326656 -0.058278 0.025269 -0.044149 0.121066 -0.034561 0.427333 0.247421 0.044031 -0.148841 -0.013762 -0.407874 0.090070 -0.007758 -0.092067 -0.168718 -0.232208 -0.063283 -0.196274 -0.249277 0.226019 -0.009192 0.022299 -0.397978 0.004126 -0.048881 0.037523 0.519013 -0.198004 0.156528 -0.134456 -0.083164 0.272173 0.316555 -0.034347 0.542847 -0.041670 0.079195 0.050323 -0.050990 -0.237406 0.001653 -0.240088 0.097889 0.156441 0.191786 0.248982 0.067620 -0.267988 -0.260364 0.461607 0.103122 -0.629491 0.281150 0.074520 -0.273809 -0.489244 0.597204 -0.254255 0.107160 -0.095353 0.056665 0.900744 -0.263661 0.412850 -0.455104 0.334236 0.109616 -0.047809 -0.367154 0.130640 -0.581946 -0.205598 -0.190894 -0.221834 -0.362597 -0.009888 0.389819 0.283563 0.116184 0.302737 0.212463 -0.207323
33 0.214865 -0.251438 -0.163674 -0.281010 0.013104 0.045719 -0.118163 0.291764 -0.005608 0.098828 -0.104122 -0.183230 -0.070482 -0.243487 -0.066091 -0.430639 0.351840 -0.002315 -0.095945 0.255175 0.471484 -0.248046 0.027197 0.293527 -0.612253 0.218806 -0.526746 0.072203 -0.434315 -0.485864 0.109690 0.183714 -0.421870 -0.052551 -0.133088 0.217554 0.304300 -0.323323 0.351680 -0.107622 -0.068953 0.479091 -0.159635 -0.357621 -0.247027 -0.308814 -0.100516 0.019744 -0.034446 0.128500 -0.066055 0.463938 0.261214 0.050537 -0.173541 0.017973 -0.399016 0.074190 0.043138 -0.109151 -0.163740 -0.233711 -0.114011 -0.187829 -0.268835 0.228492 -0.000532 0.045745 -0.410708 0.002122 -0.082087 0.055125 0.523423 -0.199292 0.167005 -0.132549 -0.069928 0.271805 0.376512 -0.013582 0.543860 -0.088976 0.061204 0.096639 -0.068114 -0.203619 -0.010396 -0.296550 0.115621 0.126310 0.202962 0.252388 0.043353 -0.279272 -0.248846 0.471155 0.074289 -0.644004 0.288738 0.051934 -0.299193 -0.468824 0.571026 -0.275736 0.168189 -0.095745 0.074996 0.904100 -0.235204 0.387182 -0.470227 0.290017 0.127973 -0.049307 -0.355431 0.136094 -0.568557 -0.194377 -0.188339 -0.217757 -0.376179 0.004463 0.348500 0.265353 0.141503 0.304645 0.181984 -0.218066
286 -0.404063 -0.310970 -0.253074 -0.040285 0.083585 0.197132 -0.389655 -0.368418 0.120319 0.248651 -0.322065 -0.207884 0.112258 -0.089604 -0.167061 -0.378009 -0.208337 0.215003 -0.014769 0.007797 0.285742 0.040515 0.360606 0.337032 -0.686597 0.001917 0.138523 -0.277141 -0.472943 -0.498423 0.550553 -0.053608 0.354217 -0.051821 0.043162 0.042620 -0.707339 -0.068446 -0.233171 0.124198 -0.240357 0.740843 -0.044998 -0.427426 -0.713593 -0.062941 0.094356 0.206029 0.321549 0.856180 -0.339586 -0.144258 -0.194777 0.230687 -0.525939 -0.518332 -0.659694 0.313114 -0.231275 0.325181 -0.065779 -0.730221 0.466888 -0.478379 -0.341073 0.079084 -0.469726 -0.358593 -0.460474 -0.103993 -0.249927 0.367239 0.395391 0.151621 -0.022019 0.039241 0.163544 0.412053 0.221273 -0.512583 0.366886 0.276343 0.362724 0.813658 -0.320181 0.145160 0.188786 -0.304312 -0.081128 -0.022011 0.129096 -0.060912 -0.158370 -0.088633 -0.660556 0.360102 -0.373452 -1.150734 0.223110 0.305763 -0.075212 0.087672 0.136014 0.145485 -0.676595 0.015793 0.914518 0.466130 0.058578 0.071190 -0.509283 0.679507 0.310825 0.318353 -0.132588 0.256580 0.185933 -0.080562 -0.173776 0.542123 -0.172210 0.080903 -0.151005 -0.261463 0.132680 0.292389 -0.511555 -0.130665
281 0.251812 -0.256599 -0.117485 -0.226778 -0.072871 0.019595 -0.142089 0.211618 -0.049285 0.073551 -0.062726 -0.181584 -0.105423 -0.238358 -0.047372 -0.508871 0.435167 0.002791 -0.070024 0.219998 0.307299 -0.227627 0.042483 0.299329 -0.656289 0.306712 -0.539202 -0.070121 -0.547773 -0.466363 0.100696 0.179511 -0.411771 0.033413 -0.028785 0.196884 0.274888 -0.276975 0.432724 -0.228396 -0.202484 0.363640 -0.272582 -0.241708 -0.241059 -0.256214 -0.146091 -0.032450 -0.050480 0.120175 -0.099996 0.475547 0.208193 -0.023832 -0.180463 0.061282 -0.360674 0.090083 0.047005 -0.120595 -0.067974 -0.219706 -0.186538 -0.107013 -0.260825 0.213225 -0.096479 0.042801 -0.427143 0.012443 -0.171804 0.084076 0.471174 -0.158332 0.135090 -0.159167 -0.054302 0.206391 0.389244 -0.021943 0.530148 -0.167889 0.033275 0.235995 -0.092649 -0.101107 -0.002051 -0.411704 0.125986 0.034023 0.179505 0.310719 0.000448 -0.230258 -0.264026 0.457377 0.027457 -0.592213 0.329079 0.018217 -0.243174 -0.453335 0.569752 -0.209159 0.231230 -0.094159 0.143104 0.949709 -0.093412 0.409882 -0.518549 0.226890 0.102506 -0.096950 -0.326069 0.127272 -0.462676 -0.161680 -0.130383 -0.191380 -0.378567 0.036517 0.195074 0.138197 0.092903 0.356033 0.149977 -0.232690
112 0.275663 -0.438216 -0.410103 -0.125557 -0.084353 -0.492585 -0.205284 0.187426 0.302220 0.185050 -0.547110 -0.024955 -0.031265 -0.383214 0.012001 -0.638062 -0.175856 -0.079604 -0.084999 -0.182684 0.291244 0.121203 -0.162670 -0.059372 -0.262856 0.223481 0.159029 -0.094548 0.062196 -0.183514 0.299626 -0.261420 -0.487581 -0.560892 -0.039110 0.287946 -0.282600 -0.270304 -0.213691 -0.127685 0.045747 0.522258 0.287153 -0.092142 -0.473651 0.109350 0.184984 -0.256143 -0.044534 0.408070 -0.326349 0.135395 -0.138812 0.154002 -0.414140 -0.248559 -0.095863 0.122772 0.159142 0.039221 -0.211632 -0.081969 -0.338949 -0.304173 -0.206243 0.162741 -0.494039 0.298987 -0.103619 -0.125792 -0.167092 0.082719 0.359142 -0.277002 0.212286 -0.064486 0.012690 0.106744 -0.137032 -0.626062 0.168450 0.041583 0.355319 0.108650 0.211824 0.275716 0.692007 -0.022389 -0.270390 -0.086645 0.322118 0.068763 -0.219927 0.117855 -0.514023 0.351676 0.489213 -0.377390 0.589642 -0.161832 -0.331012 -0.205707 0.480951 -0.114710 -0.220988 -0.051373 0.024050 0.258739 0.049737 0.224073 0.073857 0.205985 -0.024567 0.021987 0.293507 0.077104 -0.272570 0.408311 -0.120414 0.018223 -0.232572 -0.230467 -0.166452 -0.558792 -0.304629 0.337818 -0.121552 -0.278183
250 0.170927 0.093035 -0.430797 0.247076 -0.070578 -0.063617 0.055004 0.110813 0.348965 0.084098 -0.016317 0.024680 0.377683 -0.173460 -0.159092 -0.054085 -0.102307 0.308653 -0.017170 -0.175660 -0.004783 -0.152540 0.245332 -0.062859 0.472964 0.017144 -0.333331 0.252627 -0.198882 -0.090823 -0.007676 0.245924 0.092876 -0.298789 -0.074602 0.085347 -0.369902 -0.065361 0.104579 0.239618 0.159186 0.211168 -0.080500 -0.140199 -0.347062 -0.043336 0.006839 0.250323 0.095365 0.269836 0.221448 -0.099490 0.173854 -0.095713 -0.429490 -0.111191 -0.013889 -0.156758 -0.009960 -0.007054 -0.313110 0.281903 -0.163202 -0.318619 -0.489368 0.151860 0.171757 0.369339 -0.326270 0.378492 0.009550 0.234582 0.375895 -0.217618 -0.152520 -0.403794 -0.198068 0.107973 -0.018872 -0.282903 0.191485 -0.015437 0.057094 0.422471 0.353251 0.117944 0.414651 -0.155462 -0.113580 -0.075177 0.115586 0.044769 0.211510 -0.162926 -0.379714 -0.025498 -0.032152 -0.232977 -0.053663 0.024899 -0.045580 0.155515 -0.039959 -0.038242 -0.147389 -0.131389 0.350099 0.583754 0.175234 0.572914 -0.172452 0.402718 0.068318 -0.116427 -0.379032 -0.092807 -0.265901 0.013923 0.001177 0.095066 0.229729 0.210774 -0.180930 -0.190163 0.095782 0.080393 -0.165584 -0.156551
82 0.211998 -0.277646 -0.193694 -0.265992 0.027000 0.063302 -0.122738 0.277365 -0.026784 0.090080 -0.107006 -0.173763 -0.077303 -0.230866 -0.067976 -0.459464 0.322738 -0.000031 -0.088909 0.217729 0.465145 -0.267842 0.038373 0.318608 -0.585211 0.193083 -0.506028 0.038283 -0.436141 -0.482161 0.101751 0.188236 -0.394489 -0.040947 -0.141842 0.198151 0.284815 -0.318647 0.347262 -0.093800 -0.060804 0.465387 -0.166830 -0.321910 -0.256259 -0.304442 -0.068873 0.044840 -0.029067 0.147173 -0.054215 0.433201 0.241959 0.064276 -0.167160 -0.018113 -0.413298 0.078591 0.002782 -0.090158 -0.165254 -0.219660 -0.075381 -0.182605 -0.283608 0.227859 -0.015827 0.036623 -0.400674 -0.013045 -0.075706 0.055041 0.503560 -0.204060 0.144701 -0.125591 -0.074262 0.271009 0.350743 -0.033388 0.514205 -0.066957 0.049147 0.113722 -0.076125 -0.224648 -0.027946 -0.264514 0.106353 0.128360 0.199440 0.249457 0.034986 -0.257436 -0.265963 0.443676 0.058189 -0.643632 0.269315 0.062416 -0.290554 -0.431714 0.553453 -0.258477 0.140939 -0.073160 0.108151 0.864451 -0.252169 0.386914 -0.454694 0.305596 0.120826 -0.037426 -0.332061 0.114264 -0.517283 -0.220155 -0.189759 -0.185355 -0.367928 0.003381 0.338669 0.246009 0.137540 0.313103 0.149286 -0.205941
157 -0.348518 -0.124542 -0.170599 0.039216 0.148734 0.329444 -0.313682 -0.368565 0.143387 0.308339 -0.198759 -0.303318 0.134242 -0.251257 -0.337706 -0.472637 -0.229387 0.223104 -0.206648 -0.045369 0.405139 0.018077 0.354691 0.241318 -0.702715 0.172320 0.015279 -0.240022 -0.489703 -0.490521 0.520611 0.016156 0.262367 -0.175792 0.045910 0.166563 -0.733855 -0.133003 -0.199989 0.193276 -0.230118 0.820383 -0.044978 -0.343128 -0.675816 0.001965 0.143451 0.210740 0.342396 0.800056 -0.268357 -0.165422 -0.068396 0.253858 -0.603214 -0.546414 -0.673028 0.205834 -0.083285 0.257556 -0.185242 -0.612750 0.370347 -0.313926 -0.454846 0.042989 -0.434637 -0.156562 -0.473291 -0.095475 -0.286903 0.160059 0.535944 0.031454 0.024950 0.060097 0.142102 0.301381 0.207636 -0.406479 0.324369 0.161028 0.190809 0.871043 -0.175794 0.038635 0.156521 -0.293172 -0.029853 -0.118479 0.213948 0.012342 -0.141520 -0.162522 -0.440408 0.298051 -0.516706 -1.144787 0.205172 0.323645 -0.130178 0.267139 0.142433 -0.142269 -0.521905 -0.026873 0.930924 0.404661 0.169252 -0.004070 -0.480439 0.547706 0.329419 0.312350 -0.158404 0.296183 0.172378 -0.185480 -0.147493 0.580982 -0.283681 0.144589 -0.145471 -0.172129 0.222867 0.405547 -0.527107 -0.092259
25 0.201828 0.157582 -0.503380 0.308553 -0.093100 -0.112779 0.061751 0.114224 0.351576 0.071223 0.014356 -0.055543 0.340366 -0.249552 -0.261040 -0.126302 -0.039792 0.257867 0.023371 -0.102418 -0.084046 -0.123383 0.307056 -0.048095 0.618009 0.055505 -0.283924 0.429175 -0.181779 -0.123175 0.002976 0.236655 0.103068 -0.317679 -0.193984 0.194084 -0.269591 -0.159243 0.183840 0.238971 0.134897 0.248031 -0.058224 -0.208106 -0.333161 -0.114808 0.067094 0.201080 -0.004808 0.115355 0.155642 -0.128462 0.269499 -0.199589 -0.355379 -0.104642 0.086358 -0.208163 0.094865 -0.055556 -0.235516 0.285461 -0.226305 -0.305445 -0.395619 0.107367 0.180182 0.406261 -0.271465 0.284511 0.068543 0.062713 0.430925 -0.244123 -0.139311 -0.496281 -0.143726 0.136608 0.011719 -0.279538 0.207105 -0.092477 0.063035 0.294677 0.502075 0.192498 0.419059 -0.144774 -0.189168 -0.087232 0.066916 0.079534 0.188405 -0.163872 -0.408928 -0.249979 0.046628 -0.264868 0.014478 0.070997 0.003735 0.002239 0.031356 -0.150714 -0.030816 -0.126316 0.242775 0.629531 0.226248 0.624008 -0.224142 0.419769 0.126757 -0.012036 -0.425805 -0.178869 -0.263920 0.083699 -0.003364 0.058921 0.151555 0.232503 -0.181121 -0.249010 0.029698 0.061325 -0.100414 -0.173063
79 0.272907 -0.446511 -0.407635 -0.122838 -0.077818 -0.501821 -0.205315 0.181326 0.300726 0.197899 -0.544591 -0.036228 -0.023494 -0.380134 -0.000259 -0.630355 -0.168410 -0.083193 -0.087514 -0.185934 0.282158 0.137412 -0.180548 -0.060387 -0.274039 0.223223 0.160655 -0.097613 0.071900 -0.178524 0.309863 -0.263416 -0.482509 -0.564373 -0.041429 0.291574 -0.291511 -0.248207 -0.231441 -0.134714 0.042151 0.529601 0.291861 -0.097175 -0.479675 0.121887 0.198563 -0.269015 -0.048304 0.403169 -0.332718 0.122480 -0.158032 0.144280 -0.415579 -0.267691 -0.081447 0.128342 0.158959 0.044234 -0.210067 -0.089201 -0.331020 -0.305236 -0.196424 0.148004 -0.517389 0.284045 -0.089589 -0.132018 -0.174400 0.077527 0.337845 -0.259664 0.218547 -0.055697 0.013420 0.092055 -0.153519 -0.608721 0.164791 0.059716 0.357985 0.101939 0.204602 0.262302 0.685154 -0.024820 -0.266034 -0.080548 0.321100 0.065333 -0.215950 0.134000 -0.511284 0.350116 0.488194 -0.370733 0.589836 -0.162903 -0.318458 -0.205218 0.473077 -0.119359 -0.236129 -0.046251 0.012420 0.248820 0.056004 0.219922 0.074688 0.204933 -0.010524 0.034417 0.303516 0.096127 -0.249520 0.409841 -0.102007 0.037711 -0.227776 -0.230664 -0.182731 -0.560402 -0.310730 0.331434 -0.121312 -0.274418
199 0.193821 -0.252442 -0.199349 -0.259129 0.048597 0.049237 -0.106505 0.295292 -0.011594 0.094709 -0.133691 -0.193657 -0.071037 -0.234955 -0.076718 -0.440551 0.315155 0.014965 -0.078316 0.237646 0.487678 -0.250567 0.049069 0.301600 -0.613000 0.227825 -0.517838 0.093223 -0.425115 -0.488534 0.130883 0.160609 -0.423832 -0.056908 -0.145296 0.224404 0.285446 -0.334861 0.339101 -0.082073 -0.042216 0.497013 -0.164348 -0.370943 -0.243906 -0.305657 -0.094750 0.038612 -0.034600 0.143375 -0.061347 0.469371 0.263047 0.082376 -0.180083 -0.009017 -0.414694 0.050452 0.045707 -0.144685 -0.179352 -0.208565 -0.106934 -0.182942 -0.295239 0.223712 0.025882 0.072043 -0.391767 0.001823 -0.096111 0.085318 0.532072 -0.215224 0.156905 -0.105795 -0.054201 0.260727 0.377509 -0.009389 0.535338 -0.080728 0.070092 0.076599 -0.066285 -0.213894 -0.030510 -0.255111 0.116539 0.166242 0.211719 0.253383 0.036415 -0.271133 -0.245059 0.468291 0.098187 -0.657222 0.236701 0.054024 -0.326181 -0.435676 0.561877 -0.293885 0.178461 -0.091736 0.035631 0.854541 -0.268513 0.356337 -0.440651 0.295875 0.138957 -0.027255 -0.341217 0.118447 -0.549104 -0.180583 -0.202720 -0.215018 -0.346821 0.013737 0.340103 0.261081 0.161926 0.315410 0.159859 -0.207858
158 0.187987 0.110905 -0.469299 0.301603 -0.070381 -0.068069 0.079560 0.129747 0.338956 0.067620 -0.019904 -0.006463 0.391187 -0.187621 -0.197593 -0.056914 -0.098811 0.322382 -0.018859 -0.174289 -0.028129 -0.160839 0.267328 -0.041311 0.502118 0.024497 -0.302249 0.274231 -0.189878 -0.094225 -0.014943 0.236025 0.095383 -0.316345 -0.096787 0.094896 -0.352554 -0.080556 0.133987 0.244396 0.154626 0.198004 -0.063245 -0.126732 -0.342800 -0.058720 0.006464 0.232314 0.077040 0.233855 0.210674 -0.111954 0.182444 -0.119901 -0.386637 -0.138814 0.002830 -0.158622 0.019055 -0.021186 -0.313643 0.270241 -0.167231 -0.305773 -0.459281 0.161472 0.152773 0.370564 -0.307781 0.364714 0.020982 0.192047 0.376473 -0.210048 -0.177620 -0.411347 -0.178675 0.103017 -0.028054 -0.295821 0.214530 -0.018690 0.065633 0.401349 0.367231 0.120388 0.402243 -0.160520 -0.125630 -0.081229 0.110329 0.069837 0.213078 -0.155628 -0.381151 -0.063764 -0.015761 -0.263882 -0.047902 0.049516 -0.024320 0.139686 0.012944 -0.045196 -0.158008 -0.118882 0.339636 0.576800 0.193672 0.582360 -0.186936 0.413932 0.095777 -0.087098 -0.373381 -0.115050 -0.246715 0.040800 0.005780 0.103036 0.220111 0.207502 -0.194143 -0.199233 0.103499 0.074639 -0.145132 -0.158075
231 0.267311 -0.433052 -0.410810 -0.128267 -0.067149 -0.493632 -0.209637 0.183775 0.307268 0.198119 -0.546584 -0.023864 -0.035906 -0.375484 0.009294 -0.640534 -0.185997 -0.093010 -0.086033 -0.195581 0.294845 0.138798 -0.179819 -0.056899 -0.260720 0.228727 0.162550 -0.096624 0.069085 -0.178133 0.308002 -0.260945 -0.496144 -0.575211 -0.044253 0.285458 -0.295239 -0.270861 -0.213076 -0.120527 0.048389 0.535396 0.303442 -0.092049 -0.479314 0.123521 0.182121 -0.265374 -0.039695 0.423710 -0.332702 0.129067 -0.142696 0.163441 -0.416425 -0.255561 -0.090774 0.134201 0.169210 0.036789 -0.217292 -0.076670 -0.329709 -0.311460 -0.204463 0.179142 -0.506582 0.296531 -0.095743 -0.126817 -0.171942 0.080710 0.352355 -0.261613 0.214790 -0.056482 0.016428 0.110774 -0.144276 -0.609665 0.161139 0.048646 0.343811 0.109051 0.199997 0.267275 0.681208 -0.018133 -0.260968 -0.084656 0.318881 0.049817 -0.218716 0.118488 -0.503423 0.340266 0.488776 -0.381016 0.591493 -0.173107 -0.313392 -0.201635 0.470403 -0.123925 -0.232576 -0.050873 0.022671 0.239760 0.056123 0.213367 0.080074 0.203366 -0.024092 0.022105 0.296153 0.078264 -0.256952 0.402554 -0.117974 0.022995 -0.226081 -0.234934 -0.175151 -0.551502 -0.301099 0.323280 -0.122650 -0.266414
45 0.181128 0.068552 -0.481375 0.092050 -0.093763 -0.091581 0.047490 0.184286 0.367457 0.065639 0.010061 0.126723 0.441871 -0.142869 -0.083575 0.007765 -0.066244 0.357926 0.027895 -0.203272 0.006931 -0.255110 0.190686 -0.142038 0.397683 0.081349 -0.450661 0.162321 -0.157309 -0.053124 -0.042514 0.397991 0.040152 -0.217796 -0.051779 0.011069 -0.422778 0.014169 0.139952 0.173880 0.273222 0.209815 -0.206149 -0.140107 -0.314275 -0.034733 -0.099777 0.267627 0.152115 0.232774 0.329963 -0.141713 0.265993 -0.058861 -0.408764 -0.030836 0.001052 -0.214891 -0.125149 0.008017 -0.359254 0.334382 -0.236329 -0.311219 -0.492325 0.269039 0.243610 0.414789 -0.375747 0.532669 -0.090765 0.374620 0.398166 -0.165693 -0.107467 -0.373493 -0.166257 0.109591 -0.029935 -0.308774 0.182513 -0.186946 0.084403 0.425657 0.258884 0.123993 0.434025 -0.173969 -0.034036 0.050884 0.104825 0.020746 0.102492 -0.217824 -0.372729 0.105773 0.049242 -0.279915 -0.039705 -0.030151 -0.006796 0.141269 -0.101599 0.083599 -0.004452 -0.140647 0.356309 0.695818 0.147927 0.564188 -0.241923 0.335906 0.012807 -0.341376 -0.389974 -0.126689 -0.319384 0.010009 -0.095418 0.080536 0.349973 0.107283 -0.242647 -0.084944 0.094373 0.129055 -0.152227 -0.124515
47 0.232212 0.074894 -0.420408 0.253961 -0.028160 -0.061134 0.066779 0.094764 0.324980 0.124475 -0.025495 0.015196 0.384121 -0.161383 -0.145998 -0.049698 -0.111740 0.264055 0.007277 -0.162150 -0.006684 -0.141655 0.263129 0.010595 0.444400 0.054226 -0.316202 0.254450 -0.253077 -0.092224 -0.032990 0.237972 0.097871 -0.316332 -0.108148 0.096634 -0.373014 -0.109633 0.096376 0.227104 0.159424 0.223759 -0.046809 -0.090822 -0.327541 0.007708 -0.036435 0.282069 0.117841 0.226707 0.241448 -0.066804 0.171584 -0.089933 -0.428491 -0.097204 0.014069 -0.137641 -0.000263 -0.011477 -0.360952 0.297107 -0.185983 -0.307207 -0.535842 0.190290 0.151014 0.406518 -0.328041 0.382904 0.001156 0.242579 0.368787 -0.207400 -0.152579 -0.424555 -0.217282 0.098213 -0.015252 -0.302479 0.167798 -0.033129 0.064191 0.480338 0.338996 0.129165 0.382738 -0.194415 -0.073751 -0.083181 0.130861 0.063701 0.184160 -0.170276 -0.371102 -0.021335 -0.001185 -0.278035 -0.023585 0.004414 -0.067463 0.166555 -0.052607 -0.017570 -0.155469 -0.063461 0.414597 0.643321 0.187238 0.589853 -0.176906 0.394415 0.112112 -0.102178 -0.376009 -0.076775 -0.218131 0.047239 0.002178 0.144461 0.249296 0.165488 -0.228385 -0.206888 0.152732 0.115773 -0.194025 -0.116725
123 -0.156809 -0.180404 -0.252029 0.058191 0.348532 0.210794 -0.267897 -0.301938 0.371787 0.057465 -0.091870 -0.112093 -0.065103 -0.141179 -0.278823 -0.606733 -0.206058 -0.027592 -0.384816 -0.114291 0.574434 -0.153853 0.347096 -0.069849 -0.629876 0.063040 -0.029252 -0.422317 -0.398276 -0.575766 0.321155 0.075933 0.164647 -0.409541 0.161786 0.154846 -0.547430 -0.248948 -0.226809 0.212504 -0.215636 0.671751 -0.058835 -0.328208 -0.487553 -0.053144 0.456774 0.210611 0.338550 0.785188 -0.224680 0.002628 0.087138 0.261678 -0.523810 -0.798808 -0.535387 0.222731 0.058662 0.335417 -0.448072 -0.575598 0.454138 -0.112500 -0.523262 -0.168122 -0.408831 0.028528 -0.457901 -0.019289 -0.290271 0.069555 0.497170 -0.172070 0.180946 -0.000082 -0.035510 0.078566 0.174770 -0.236569 0.190891 0.286475 -0.037027 0.774400 -0.053899 -0.048340 0.243785 -0.192349 0.031794 0.043615 0.233670 0.051855 -0.134404 -0.161541 -0.351742 0.197586 -0.519279 -1.023185 0.240867 0.306261 -0.296705 0.423999 0.167970 -0.593856 -0.713592 -0.050540 0.819172 0.467203 0.254989 -0.117085 -0.512107 0.634785 0.380911 0.202893 -0.216792 0.387208 0.472869 -0.294234 -0.198256 0.594350 -0.272498 0.419808 -0.029228 -0.227140 0.137229 0.466455 -0.374750 0.037397
83 0.188629 0.058704 -0.417333 0.109192 -0.068154 -0.067160 0.049774 0.176457 0.347862 0.077885 -0.002700 0.130258 0.414880 -0.137341 -0.064851 0.002104 -0.101262 0.325674 0.020515 -0.237337 0.024074 -0.228156 0.172411 -0.113130 0.380439 0.068018 -0.404213 0.142541 -0.177638 -0.038829 -0.059928 0.354067 0.028898 -0.258951 -0.036448 0.000449 -0.398973 -0.008128 0.125522 0.169815 0.263166 0.186957 -0.164929 -0.093762 -0.299199 0.003980 -0.105440 0.269428 0.166799 0.246591 0.314418 -0.099238 0.218599 -0.020572 -0.406573 -0.041600 -0.009068 -0.180684 -0.104745 0.010064 -0.370322 0.330438 -0.254230 -0.310463 -0.514057 0.267496 0.227117 0.418565 -0.365040 0.511765 -0.070110 0.391931 0.391554 -0.194795 -0.114599 -0.371656 -0.172648 0.112540 -0.048550 -0.316974 0.163986 -0.146340 0.083082 0.453362 0.243280 0.107720 0.437231 -0.200193 -0.028593 0.046886 0.139046 0.015311 0.119709 -0.225483 -0.348513 0.136541 0.040911 -0.253950 -0.053444 -0.068897 -0.045344 0.172128 -0.096286 0.077597 -0.034863 -0.105090 0.366192 0.646814 0.135256 0.528130 -0.199611 0.308892 0.000745 -0.335098 -0.361572 -0.111563 -0.318648 0.023480 -0.079607 0.069385 0.329026 0.107000 -0.232503 -0.094741 0.112241 0.133545 -0.168106 -0.117258
13 0.212117 0.125141 -0.467298 0.317680 -0.074471 -0.058256 0.088300 0.104079 0.353175 0.120574 -0.012702 -0.028655 0.417314 -0.227665 -0.207548 -0.077098 -0.108556 0.323308 -0.036459 -0.171800 -0.020159 -0.128729 0.272420 -0.037619 0.530762 0.025137 -0.329646 0.317748 -0.199401 -0.096246 0.007854 0.238072 0.100058 -0.301705 -0.080301 0.121576 -0.379182 -0.069412 0.104626 0.255550 0.130379 0.233573 -0.074104 -0.144462 -0.376200 -0.044718 0.021408 0.240665 0.085951 0.270969 0.206213 -0.108491 0.176152 -0.121830 -0.436772 -0.119603 0.003134 -0.191324 0.040394 -0.026027 -0.283239 0.294904 -0.179280 -0.316491 -0.478543 0.123765 0.170059 0.375706 -0.299504 0.339137 0.025278 0.166494 0.369641 -0.238885 -0.154389 -0.441666 -0.212107 0.117007 0.002913 -0.264884 0.208339 -0.015753 0.037067 0.410788 0.393840 0.126436 0.402089 -0.157763 -0.145326 -0.127619 0.143396 0.048854 0.236130 -0.164155 -0.407709 -0.089019 -0.066736 -0.240079 -0.039546 0.043468 -0.056281 0.154864 -0.022764 -0.074405 -0.142974 -0.152453 0.323901 0.582450 0.193418 0.593407 -0.166551 0.401802 0.109909 -0.039705 -0.378924 -0.096497 -0.268517 0.032945 0.038442 0.096684 0.183873 0.241987 -0.206099 -0.210974 0.106432 0.054455 -0.149694 -0.164118
120 0.269045 -0.429161 -0.410672 -0.115680 -0.083596 -0.493441 -0.205488 0.188496 0.311349 0.206407 -0.546595 -0.025713 -0.024460 -0.385041 0.003890 -0.646699 -0.167634 -0.091374 -0.081276 -0.187825 0.283699 0.138829 -0.181433 -0.060916 -0.262506 0.227098 0.165803 -0.087688 0.076435 -0.165521 0.302556 -0.265715 -0.490519 -0.572716 -0.032375 0.290585 -0.292841 -0.269114 -0.223432 -0.133039 0.049578 0.525704 0.299621 -0.100604 -0.469565 0.128607 0.180239 -0.269936 -0.054419 0.405309 -0.328546 0.129811 -0.143330 0.148730 -0.409050 -0.257956 -0.083674 0.122820 0.173858 0.037955 -0.207202 -0.073749 -0.345329 -0.308558 -0.196478 0.159117 -0.497566 0.300749 -0.095831 -0.126432 -0.167013 0.082259 0.348075 -0.265362 0.223484 -0.067361 0.009787 0.108912 -0.147044 -0.611382 0.154157 0.049216 0.347249 0.112360 0.202248 0.275026 0.683080 -0.024444 -0.264824 -0.083880 0.323712 0.047114 -0.218727 0.116487 -0.500959 0.343231 0.487484 -0.361775 0.590810 -0.177712 -0.325160 -0.198589 0.467831 -0.133738 -0.218557 -0.044998 -0.001785 0.242615 0.062584 0.214413 0.073750 0.193492 -0.019357 0.022559 0.295158 0.083257 -0.277976 0.419532 -0.102723 0.026012 -0.225127 -0.228538 -0.174816 -0.560601 -0.299744 0.319570 -0.113890 -0.272800
134 0.262048 -0.420533 -0.394916 -0.116476 -0.069261 -0.466921 -0.206853 0.174620 0.302245 0.209269 -0.541286 -0.036046 -0.027395 -0.374422 -0.004071 -0.630616 -0.181034 -0.084971 -0.085163 -0.189535 0.294679 0.144235 -0.180559 -0.057095 -0.276215 0.223932 0.160038 -0.089491 0.074909 -0.170539 0.307370 -0.264806 -0.479959 -0.568293 -0.032694 0.293204 -0.306511 -0.269423 -0.229292 -0.123737 0.050346 0.537234 0.298240 -0.098957 -0.476160 0.135082 0.179966 -0.265130 -0.038961 0.414286 -0.324198 0.117848 -0.144181 0.161065 -0.414126 -0.263109 -0.099786 0.126317 0.173356 0.036434 -0.208105 -0.074900 -0.335284 -0.303875 -0.206413 0.165450 -0.503948 0.293630 -0.089145 -0.138976 -0.177301 0.078324 0.341434 -0.261082 0.222493 -0.062613 0.008156 0.106563 -0.142786 -0.599009 0.157066 0.050780 0.340988 0.118487 0.203304 0.270126 0.673426 -0.025907 -0.257941 -0.084031 0.323952 0.041933 -0.220394 0.117631 -0.498600 0.343857 0.477771 -0.375831 0.589809 -0.172431 -0.324816 -0.189207 0.465405 -0.140917 -0.236612 -0.053728 0.015311 0.231657 0.047873 0.207052 0.070808 0.194592 -0.008591 0.031452 0.301721 0.089103 -0.249749 0.407696 -0.099057 0.037601 -0.224286 -0.226859 -0.178759 -0.546852 -0.285823 0.328287 -0.126590 -0.268218
116 0.208623 0.090956 -0.446882 0.277848 -0.045646 -0.079246 0.069602 0.106038 0.348332 0.080448 -0.031252 0.019044 0.372120 -0.183623 -0.176262 -0.077452 -0.102016 0.287437 -0.001706 -0.186444 -0.016384 -0.140991 0.252019 -0.034987 0.516657 0.035954 -0.317175 0.295065 -0.218582 -0.083702 -0.021843 0.241099 0.079908 -0.328087 -0.093698 0.106535 -0.320685 -0.108688 0.133739 0.235565 0.170224 0.206321 -0.059006 -0.115818 -0.336441 -0.046922 0.001564 0.248397 0.075241 0.226008 0.209412 -0.093381 0.198113 -0.100762 -0.408556 -0.098778 0.023768 -0.146205 0.025762 -0.036884 -0.333653 0.313400 -0.207426 -0.316891 -0.499436 0.176357 0.180215 0.396428 -0.317127 0.358809 0.030907 0.204714 0.393540 -0.236523 -0.158201 -0.427956 -0.191087 0.111549 -0.016096 -0.294533 0.193407 -0.034746 0.051740 0.445715 0.370081 0.137794 0.419611 -0.158501 -0.101211 -0.087470 0.133412 0.056520 0.191462 -0.166168 -0.374112 -0.062913 0.002785 -0.233932 -0.031901 0.016167 -0.060486 0.118507 -0.012456 -0.055629 -0.114068 -0.084269 0.344826 0.593256 0.186653 0.583488 -0.179394 0.406554 0.079045 -0.082235 -0.365852 -0.119840 -0.258115 0.046172 -0.009376 0.079748 0.223438 0.188557 -0.187735 -0.229755 0.088454 0.092857 -0.155548 -0.159163
38 0.282005 -0.437386 -0.390288 -0.131489 -0.079107 -0.494582 -0.223828 0.178747 0.292364 0.198720 -0.547333 -0.026947 -0.032637 -0.370170 0.001773 -0.634315 -0.178326 -0.091495 -0.080095 -0.188127 0.280176 0.140934 -0.181068 -0.051284 -0.279270 0.226214 0.169519 -0.103045 0.068454 -0.168513 0.299919 -0.267890 -0.487325 -0.563585 -0.039677 0.284526 -0.291441 -0.274489 -0.221915 -0.137438 0.048323 0.527805 0.305539 -0.088849 -0.473155 0.135458 0.179307 -0.272171 -0.037760 0.407483 -0.333756 0.126258 -0.153801 0.156342 -0.416001 -0.258334 -0.085326 0.127484 0.166133 0.039581 -0.214544 -0.076129 -0.340733 -0.310369 -0.200956 0.175095 -0.496193 0.290401 -0.097480 -0.129507 -0.178237 0.075457 0.339670 -0.267612 0.213363 -0.058975 0.014385 0.112952 -0.139043 -0.605480 0.157003 0.044318 0.335651 0.117274 0.187927 0.271236 0.675660 -0.036093 -0.258509 -0.089574 0.324137 0.047487 -0.230588 0.113455 -0.506736 0.337151 0.479063 -0.370232 0.584226 -0.172193 -0.325750 -0.195521 0.468270 -0.136462 -0.230202 -0.046541 0.013378 0.241185 0.045314 0.212502 0.064486 0.193561 -0.015679 0.023145 0.296508 0.081189 -0.264864 0.408979 -0.118833 0.034843 -0.230288 -0.231453 -0.176561 -0.553145 -0.300828 0.337111 -0.126302 -0.271829
258 0.207231 -0.280709 -0.116210 -0.259946 -0.082164 0.039687 -0.138599 0.225805 -0.011083 0.036047 -0.050487 -0.167002 -0.123492 -0.206064 -0.063757 -0.446648 0.414982 -0.033099 -0.124686 0.237878 0.350471 -0.250705 0.011045 0.283274 -0.643762 0.225878 -0.542645 -0.082508 -0.498510 -0.496994 0.093196 0.225120 -0.382657 -0.002563 -0.083812 0.204393 0.303048 -0.249055 0.390210 -0.197303 -0.163571 0.382684 -0.235941 -0.280983 -0.251916 -0.310101 -0.071460 -0.029153 -0.059234 0.141633 -0.070877 0.429426 0.182432 -0.052268 -0.137958 0.013459 -0.400888 0.139673 -0.008213 -0.078092 -0.088296 -0.280260 -0.076931 -0.111603 -0.213467 0.227883 -0.124887 -0.042331 -0.432143 -0.021507 -0.118537 0.022421 0.453772 -0.127738 0.135239 -0.161842 -0.056227 0.217696 0.318801 -0.045273 0.538506 -0.109070 0.064816 0.149449 -0.094125 -0.157243 0.005490 -0.348005 0.093029 0.054664 0.140281 0.311455 0.042358 -0.207015 -0.271452 0.460638 0.000045 -0.603091 0.333988 0.081452 -0.172610 -0.497630 0.582498 -0.165500 0.138310 -0.087339 0.169588 0.957147 -0.129741 0.444620 -0.515348 0.281078 0.100027 -0.088704 -0.349839 0.145361 -0.460585 -0.231354 -0.131803 -0.168976 -0.395204 0.006806 0.274299 0.215468 0.052636 0.342398 0.194637 -0.208420
223 -0.168054 -0.248545 -0.319759 0.095307 0.117054 0.154774 0.133959 -0.112169 -0.082476 -0.118006 0.070282 0.205350 0.140318 -0.389266 -0.211218 -0.502048 0.132035 0.127858 -0.021950 0.058966 0.158712 -0.002274 0.557173 -0.251937 0.060780 -0.015383 0.297714 -0.203425 -0.062916 -0.134602 0.124422 -0.043001 -0.264524 -0.271399 0.304839 -0.329241 -0.180773 -0.404499 0.296897 0.236175 -0.031060 0.035721 -0.078039 -0.267469 -0.460988 -0.049726 -0.159192 -0.347502 0.141559 0.284611 -0.143139 -0.001674 0.562882 0.294108 -0.290811 -0.236261 -0.625943 -0.265395 0.143414 0.485798 0.047419 -0.791155 -0.153047 -0.141427 0.044011 -0.235030 -0.012056 -0.042148 -0.477919 0.037341 0.174870 0.509478 0.580737 -0.361426 0.344924 -0.169345 0.144724 0.372818 -0.168440 -0.358322 -0.048552 -0.119059 0.177532 -0.085587 0.198217 0.316738 0.336574 -0.034069 -0.191958 0.286327 0.403218 -0.228154 0.044347 -0.270000 -0.372086 0.042130 -0.133062 -0.692018 0.223693 0.074355 -0.345549 0.047609 0.231408 -0.040193 0.403396 -0.082106 0.514890 0.350511 0.197456 -0.269211 -0.482016 0.141473 -0.091788 -0.217768 0.011936 -0.267100 -0.466468 -0.126716 -0.547958 -0.426270 -0.395918 0.172431 -0.189481 -0.394111 -0.081149 -0.089985 -0.138619 -0.421979
78 0.283091 -0.438657 -0.413720 -0.128574 -0.065945 -0.494916 -0.209882 0.191106 0.300666 0.221617 -0.561695 -0.038832 -0.029954 -0.394011 0.007794 -0.670496 -0.187421 -0.096186 -0.089085 -0.202500 0.298278 0.143359 -0.176072 -0.049443 -0.265816 0.237217 0.157197 -0.091540 0.068251 -0.176345 0.308463 -0.260223 -0.494301 -0.577913 -0.044569 0.297840 -0.307765 -0.272678 -0.223954 -0.122389 0.048689 0.552473 0.304970 -0.095984 -0.481049 0.127906 0.175968 -0.258664 -0.035895 0.423969 -0.328540 0.136885 -0.143600 0.176072 -0.423244 -0.258159 -0.090011 0.121404 0.179365 0.037995 -0.222783 -0.072975 -0.345296 -0.314820 -0.214035 0.171424 -0.511795 0.308205 -0.093827 -0.130426 -0.173095 0.082498 0.359868 -0.277801 0.226311 -0.066883 0.009295 0.111247 -0.134803 -0.604431 0.160635 0.053503 0.340602 0.130170 0.210989 0.274216 0.687210 -0.028829 -0.262674 -0.099443 0.330559 0.048983 -0.224808 0.107095 -0.517243 0.344599 0.487567 -0.389731 0.597563 -0.180188 -0.335819 -0.197173 0.468303 -0.142579 -0.226952 -0.047805 0.022794 0.239697 0.043911 0.218346 0.078442 0.201422 -0.018362 0.029967 0.298158 0.090711 -0.268083 0.408163 -0.107207 0.030043 -0.227097 -0.231950 -0.176205 -0.560608 -0.295175 0.332474 -0.125523 -0.270669
12 -0.172739 -0.223834 -0.314656 0.096493 0.138330 0.154403 0.125916 -0.118641 -0.105086 -0.075420 0.116773 0.229432 0.145597 -0.405324 -0.221691 -0.513420 0.129816 0.131108 0.000509 0.039999 0.148195 0.000453 0.588341 -0.238247 0.038136 -0.007816 0.294541 -0.207486 -0.078260 -0.122967 0.119766 -0.044386 -0.243788 -0.246072 0.313012 -0.320325 -0.221307 -0.412678 0.257194 0.245544 -0.057925 0.025550 -0.053763 -0.235776 -0.502722 -0.038184 -0.163909 -0.346882 0.164680 0.261884 -0.152624 -0.023924 0.546673 0.332652 -0.336033 -0.259964 -0.627029 -0.273665 0.142251 0.482101 0.037453 -0.794454 -0.189735 -0.135257 0.007790 -0.231397 0.000879 -0.008224 -0.493541 0.013130 0.155807 0.506403 0.576120 -0.364307 0.370066 -0.163712 0.149068 0.400103 -0.141234 -0.343712 -0.066740 -0.125201 0.150602 -0.062713 0.210508 0.300927 0.323592 -0.065365 -0.171248 0.237833 0.402057 -0.214599 0.052880 -0.290350 -0.368262 0.021308 -0.136295 -0.713035 0.273259 0.068940 -0.395494 0.101778 0.214856 -0.049978 0.431932 -0.090104 0.516953 0.332846 0.213827 -0.281576 -0.505213 0.141178 -0.073203 -0.192411 0.037773 -0.245183 -0.466977 -0.101913 -0.547659 -0.416167 -0.384890 0.158867 -0.208399 -0.388119 -0.061728 -0.101044 -0.176128 -0.404240
136 0.181579 0.117684 -0.498946 0.373930 -0.084937 -0.087046 0.076869 0.102752 0.359687 0.072380 -0.032021 -0.013813 0.372627 -0.230315 -0.209169 -0.102159 -0.106314 0.312842 -0.059688 -0.164668 -0.049955 -0.118245 0.294692 -0.051215 0.614209 -0.034818 -0.307893 0.347049 -0.174909 -0.100534 0.025093 0.215459 0.086728 -0.338293 -0.071788 0.141583 -0.299640 -0.119719 0.122620 0.290978 0.129884 0.221973 -0.047955 -0.178370 -0.398318 -0.113293 0.089061 0.211592 0.028904 0.300646 0.170439 -0.122521 0.164623 -0.159419 -0.441537 -0.143896 -0.014653 -0.175105 0.076982 -0.033059 -0.267075 0.279126 -0.119314 -0.318805 -0.450509 0.092923 0.170696 0.344812 -0.299710 0.308643 0.057878 0.113810 0.392283 -0.240602 -0.187479 -0.442457 -0.230822 0.118795 0.009387 -0.249935 0.238774 0.065393 0.041667 0.356808 0.425707 0.111472 0.419596 -0.102957 -0.171465 -0.158972 0.125810 0.050793 0.270297 -0.145897 -0.401776 -0.139309 -0.060042 -0.180690 -0.042269 0.066195 -0.056144 0.123996 0.041313 -0.109433 -0.181673 -0.144192 0.248488 0.546572 0.201857 0.623958 -0.177324 0.453281 0.094737 0.014655 -0.376925 -0.125680 -0.279940 0.007761 0.031394 0.037755 0.146410 0.298619 -0.149119 -0.271664 0.054381 0.033315 -0.112048 -0.196629
307 -0.184133 -0.212750 -0.318690 0.097764 0.166687 0.123829 0.134210 -0.092114 -0.086142 -0.113916 0.137493 0.247129 0.177286 -0.424950 -0.212014 -0.531439 0.138489 0.110101 -0.007857 0.029464 0.144694 -0.035614 0.602294 -0.231826 0.062253 0.007366 0.277072 -0.209403 -0.036965 -0.126111 0.116141 -0.033498 -0.256138 -0.253836 0.312872 -0.347940 -0.204043 -0.438155 0.284244 0.256909 -0.064757 -0.043872 -0.069634 -0.222097 -0.502444 -0.081851 -0.168179 -0.355775 0.156952 0.232463 -0.137883 -0.031693 0.545958 0.348304 -0.337498 -0.257566 -0.634894 -0.273819 0.126259 0.495711 0.027099 -0.806089 -0.193720 -0.122926 0.027742 -0.232966 0.010732 0.044417 -0.528758 0.026389 0.116050 0.509230 0.578241 -0.349447 0.377344 -0.173872 0.132981 0.389857 -0.143942 -0.346242 -0.066067 -0.125778 0.156893 -0.111146 0.232806 0.280859 0.331868 -0.047843 -0.146464 0.246960 0.374063 -0.194407 0.080586 -0.283287 -0.373399 0.013739 -0.114725 -0.699133 0.291864 0.084515 -0.419878 0.102609 0.247479 -0.062274 0.428559 -0.066313 0.484253 0.325860 0.202593 -0.276198 -0.493293 0.157077 -0.077715 -0.168940 0.014701 -0.232430 -0.458778 -0.093692 -0.544566 -0.448233 -0.375488 0.161766 -0.205855 -0.409626 -0.085811 -0.103584 -0.173890 -0.405958
262 0.193415 -0.259634 -0.176719 -0.277709 -0.001689 0.052509 -0.130777 0.273319 -0.000915 0.078174 -0.098284 -0.173767 -0.094514 -0.224822 -0.067280 -0.443165 0.347769 -0.024029 -0.101897 0.227228 0.457866 -0.256295 -0.004155 0.299746 -0.597251 0.195892 -0.520649 0.020819 -0.434822 -0.477078 0.090047 0.200144 -0.393439 -0.043667 -0.146632 0.207502 0.305718 -0.316981 0.354501 -0.113614 -0.066007 0.472606 -0.171194 -0.327601 -0.258744 -0.323114 -0.068714 0.022790 -0.038950 0.149203 -0.067436 0.436231 0.242974 0.051941 -0.143786 -0.005621 -0.413656 0.101651 -0.001553 -0.107195 -0.156779 -0.238164 -0.071548 -0.175084 -0.265196 0.237289 -0.036801 0.007022 -0.412401 -0.009089 -0.089808 0.050579 0.501579 -0.182528 0.157542 -0.136887 -0.067781 0.267226 0.334668 -0.042421 0.531915 -0.062448 0.062081 0.098450 -0.075063 -0.220325 -0.007651 -0.290826 0.107597 0.117664 0.181825 0.270138 0.030067 -0.262053 -0.264202 0.461856 0.057394 -0.645483 0.297560 0.071672 -0.256303 -0.472374 0.577085 -0.248861 0.133133 -0.080638 0.108920 0.900988 -0.239779 0.409379 -0.479427 0.302750 0.104928 -0.053656 -0.350282 0.132884 -0.531385 -0.223454 -0.187850 -0.193257 -0.386210 -0.005942 0.361883 0.265847 0.107599 0.338283 0.188255 -0.207193
143 0.204439 -0.255854 -0.202638 -0.258999 0.059859 0.052319 -0.091066 0.304503 -0.009816 0.095265 -0.133389 -0.177689 -0.048558 -0.247913 -0.078171 -0.436138 0.304385 0.027567 -0.080449 0.242840 0.499726 -0.259550 0.055757 0.298175 -0.572971 0.217101 -0.504200 0.123374 -0.394244 -0.487268 0.127905 0.154084 -0.441908 -0.082538 -0.159937 0.217191 0.291024 -0.334637 0.333083 -0.066279 -0.040116 0.473542 -0.134492 -0.369402 -0.241594 -0.295019 -0.086471 0.036885 -0.030835 0.130148 -0.036878 0.453918 0.262717 0.083921 -0.182869 -0.010148 -0.404677 0.032735 0.041646 -0.128737 -0.180842 -0.210862 -0.111039 -0.187970 -0.272430 0.209249 0.036250 0.078894 -0.386816 0.005536 -0.058685 0.081672 0.532920 -0.226423 0.156474 -0.113019 -0.074111 0.257379 0.360727 -0.006401 0.530825 -0.062471 0.078288 0.050634 -0.042221 -0.232427 -0.019803 -0.224534 0.109758 0.178431 0.214824 0.243993 0.067843 -0.265274 -0.240688 0.464027 0.110350 -0.640188 0.241077 0.056912 -0.335779 -0.445172 0.578050 -0.288179 0.167354 -0.103932 0.017447 0.854906 -0.269693 0.361269 -0.418692 0.310874 0.129689 -0.024386 -0.351034 0.119103 -0.569233 -0.181371 -0.204332 -0.229944 -0.341109 -0.000224 0.351246 0.259810 0.155829 0.287936 0.168608 -0.216818
233 -0.181620 -0.218020 -0.586677 -0.356658 0.044524 -0.334310 -0.595481 0.351687 0.340864 -0.479156 -0.350489 0.462726 -0.302321 0.056343 0.182248 -0.398961 -0.183414 -0.026002 0.035369 -0.534629 0.157883 -0.483567 -0.071249 -0.238022 -0.179574 -0.053904 0.164883 -0.377076 -0.101745 -0.165744 0.100645 0.363837 -0.012049 -0.645887 -0.020921 -0.146894 0.320052 -0.339171 0.377718 0.064158 0.644281 0.324995 -0.193512 -0.239111 0.005455 -0.415896 0.260683 0.075061 -0.203191 0.366251 -0.322745 0.020244 0.431810 0.301812 -0.115218 -0.493722 -0.396687 0.327442 -0.022813 0.070959 -0.462938 -0.288135 0.024547 -0.416186 -0.154344 0.368915 -0.021858 0.029236 -0.615989 0.332771 -0.318429 0.478898 0.929291 -0.216746 -0.200978 -0.066402 0.205459 0.506607 -0.216834 -0.854286 0.340607 -0.040276 0.251565 0.451981 -0.306322 0.263337 0.802096 -0.137570 -0.099554 0.647430 -0.135165 0.097009 -0.492027 -0.512965 -0.206367 0.263647 0.480806 -0.797797 -0.130295 -0.005950 0.157446 -0.334103 0.376639 -0.123311 -0.170602 0.334735 0.360949 0.282233 0.031189 0.041509 -0.527650 0.632601 -0.347207 -0.580722 -0.452756 -0.320470 -0.257078 -0.105276 -0.867197 -0.244233 0.219595 0.278703 0.354304 -0.274012 -0.514618 0.695833 0.030302 -0.015024
208 -0.176445 -0.210846 -0.322583 0.097347 0.151122 0.112478 0.130952 -0.096105 -0.079790 -0.110415 0.117221 0.224967 0.162323 -0.418449 -0.217455 -0.511502 0.131587 0.111091 -0.018312 0.027602 0.149869 -0.034935 0.595260 -0.242736 0.056186 0.010372 0.270481 -0.214765 -0.043575 -0.122662 0.120924 -0.037218 -0.236137 -0.274030 0.305351 -0.341993 -0.202145 -0.421801 0.277378 0.252875 -0.044187 -0.016173 -0.061893 -0.229843 -0.483819 -0.075729 -0.156242 -0.350970 0.165733 0.242379 -0.135365 -0.026833 0.535409 0.326309 -0.333668 -0.265658 -0.624810 -0.261569 0.129361 0.485218 0.033163 -0.788842 -0.178926 -0.137604 0.020956 -0.228944 -0.000558 0.020392 -0.502729 0.038785 0.123581 0.498081 0.568398 -0.349322 0.348589 -0.165011 0.138381 0.392240 -0.147084 -0.354969 -0.052438 -0.121600 0.175832 -0.100931 0.208251 0.281219 0.330611 -0.047143 -0.163727 0.259119 0.373488 -0.194852 0.066647 -0.276151 -0.361753 0.015774 -0.119482 -0.699939 0.262082 0.091256 -0.385240 0.078796 0.233161 -0.053391 0.410571 -0.067824 0.487058 0.316360 0.190539 -0.264459 -0.480174 0.153283 -0.084180 -0.183569 0.019010 -0.244255 -0.458053 -0.104662 -0.547541 -0.427228 -0.359896 0.175435 -0.197631 -0.407611 -0.083749 -0.082510 -0.172097 -0.400444
273 -0.154366 -0.193415 -0.588152 -0.359902 0.043315 -0.338102 -0.591926 0.363042 0.332854 -0.457110 -0.343586 0.455498 -0.289036 0.040602 0.181620 -0.398297 -0.185437 -0.032950 0.048149 -0.534928 0.143247 -0.478431 -0.072230 -0.237563 -0.162912 -0.055799 0.161618 -0.348839 -0.105075 -0.152418 0.083072 0.369881 -0.022405 -0.644711 -0.013251 -0.148871 0.326637 -0.351041 0.381548 0.057242 0.658426 0.324393 -0.192192 -0.229853 0.014621 -0.403360 0.243105 0.078220 -0.209139 0.343579 -0.329537 0.033804 0.447485 0.310683 -0.125996 -0.479084 -0.380933 0.316007 -0.018740 0.064461 -0.473629 -0.254754 -0.011587 -0.433350 -0.169809 0.384869 -0.003062 0.051599 -0.615375 0.343984 -0.315295 0.484877 0.929242 -0.224719 -0.198807 -0.069918 0.195045 0.519219 -0.199076 -0.853522 0.336716 -0.053303 0.237466 0.468451 -0.294782 0.269875 0.810654 -0.150773 -0.094574 0.632388 -0.125250 0.081970 -0.497368 -0.526244 -0.206999 0.257321 0.496287 -0.781476 -0.128039 -0.023910 0.146721 -0.337018 0.373747 -0.141616 -0.138181 0.346233 0.352156 0.288529 0.036045 0.045576 -0.534425 0.608470 -0.361254 -0.593394 -0.455928 -0.329833 -0.287872 -0.089094 -0.863218 -0.262916 0.224533 0.277632 0.349804 -0.276442 -0.509223 0.690522 0.026564 -0.026119
81 -0.165372 -0.281042 -0.336640 0.101334 0.090234 0.170216 0.141416 -0.121479 -0.082061 -0.115274 0.039723 0.190015 0.132414 -0.368016 -0.216257 -0.474745 0.124376 0.156126 -0.019180 0.098896 0.159176 0.018616 0.558787 -0.286461 0.067829 -0.031781 0.308422 -0.204537 -0.081290 -0.151738 0.139826 -0.062691 -0.294195 -0.287542 0.310772 -0.345294 -0.180476 -0.392228 0.311529 0.238768 -0.019250 0.066116 -0.089437 -0.296146 -0.450085 -0.032127 -0.175929 -0.352127 0.121976 0.313472 -0.121754 0.028869 0.576766 0.235965 -0.262683 -0.199817 -0.624940 -0.286075 0.146278 0.478812 0.070018 -0.783065 -0.122817 -0.131503 0.060549 -0.253549 -0.026917 -0.088033 -0.449717 0.033650 0.218970 0.519256 0.575201 -0.376239 0.326263 -0.168520 0.145278 0.361557 -0.178978 -0.343000 -0.042418 -0.112785 0.202108 -0.097578 0.191865 0.336657 0.339940 -0.025969 -0.223950 0.317528 0.417334 -0.255339 0.037071 -0.258882 -0.372649 0.056161 -0.140656 -0.678211 0.192473 0.061098 -0.321805 0.015179 0.229688 -0.015536 0.400344 -0.110481 0.533593 0.370842 0.213728 -0.272443 -0.461420 0.142878 -0.104264 -0.244276 -0.010936 -0.292852 -0.482855 -0.135910 -0.552322 -0.427591 -0.413633 0.177752 -0.184565 -0.398607 -0.078544 -0.091751 -0.124797 -0.440427
263 0.210389 0.096801 -0.493178 0.305687 -0.061124 -0.081180 0.068323 0.135137 0.337426 0.079760 -0.016306 -0.001184 0.373468 -0.186107 -0.174704 -0.070440 -0.101712 0.303343 -0.023646 -0.170070 -0.039916 -0.163364 0.260607 -0.033993 0.526092 0.008542 -0.314214 0.289006 -0.199979 -0.108854 -0.014977 0.234732 0.070393 -0.296337 -0.108303 0.092916 -0.334591 -0.102398 0.132159 0.233758 0.155140 0.199749 -0.054859 -0.130819 -0.357287 -0.060693 0.032327 0.238874 0.064675 0.250083 0.212466 -0.098916 0.176138 -0.140230 -0.388844 -0.115433 0.001718 -0.162946 0.024784 -0.010372 -0.290138 0.282874 -0.166877 -0.307501 -0.455774 0.166269 0.154383 0.364982 -0.315404 0.350767 0.020853 0.176896 0.373032 -0.217905 -0.177209 -0.409818 -0.202541 0.102809 -0.030024 -0.293602 0.224105 -0.018101 0.044868 0.400880 0.382037 0.108864 0.423109 -0.156208 -0.137978 -0.098385 0.115498 0.053098 0.230384 -0.151327 -0.376713 -0.085323 -0.004779 -0.242407 -0.036619 0.040897 -0.033944 0.136096 -0.001251 -0.042007 -0.143414 -0.100226 0.333699 0.594640 0.191394 0.608394 -0.189789 0.434569 0.090081 -0.085349 -0.383358 -0.128068 -0.231562 0.039942 0.013342 0.096207 0.218885 0.216332 -0.173955 -0.225047 0.091606 0.085009 -0.150171 -0.146734
194 -0.141842 -0.595499 -0.698969 0.246644 -0.229070 -0.211079 0.204238 0.257549 0.561743 -0.586035 -0.283521 0.212612 0.138479 -0.174782 -0.218120 -0.242061 0.150380 0.354722 -0.374975 -0.018194 0.189512 -0.405732 0.316541 -0.305420 -0.023887 0.004430 -0.459751 -0.137647 0.052482 -0.605127 0.351151 0.146161 -0.455346 -0.624390 -0.279523 0.066628 0.189639 -0.021512 0.340619 0.253579 0.102766 0.069042 -0.182406 -0.438091 -0.563492 -0.540864 0.521014 -0.385516 -0.333879 0.350311 0.232064 -0.000306 0.091463 -0.511991 -0.289754 -0.571819 -0.661605 0.094879 -0.312398 0.213836 0.063655 -0.617865 0.306260 -0.060943 0.077426 -0.061680 -0.272411 -0.170971 -0.569957 0.305269 0.052844 0.263957 0.607957 -0.135518 -0.113605 -0.404941 -0.023551 -0.170997 -0.670533 -0.591712 0.591115 0.193033 0.672064 -0.573003 0.517101 0.018297 0.652172 0.437639 -0.405013 0.519725 0.008090 0.533785 0.552038 0.263184 -0.511001 0.446724 0.321025 -0.514094 0.129894 0.397444 0.201408 -0.593429 0.811697 0.375409 -0.356768 -0.241256 0.096208 0.973446 0.156879 0.677639 -0.198482 0.977359 -0.076006 -0.242897 -0.331889 -0.208068 -0.249358 -0.198309 -0.204680 -0.363216 -0.014171 0.049407 0.185312 -0.201478 -0.472235 0.280948 0.244884 -0.205478
173 0.204827 0.121987 -0.486735 0.283524 -0.084162 -0.094074 0.072677 0.130162 0.362903 0.094505 -0.011210 -0.005302 0.375408 -0.222965 -0.194165 -0.092518 -0.092199 0.313343 -0.002735 -0.169282 -0.031617 -0.135886 0.264447 -0.060828 0.579761 0.033483 -0.325791 0.347142 -0.179885 -0.090918 0.002656 0.265779 0.082555 -0.326283 -0.094278 0.137761 -0.323467 -0.120592 0.137703 0.250832 0.181178 0.235885 -0.071890 -0.166335 -0.360602 -0.082066 0.028650 0.234387 0.052880 0.222257 0.206572 -0.117802 0.230536 -0.130137 -0.409430 -0.083639 0.034655 -0.187188 0.043321 -0.046273 -0.297744 0.318628 -0.221004 -0.330916 -0.469875 0.142794 0.209258 0.406848 -0.307512 0.342993 0.037062 0.165749 0.409103 -0.251238 -0.141931 -0.437902 -0.188966 0.137469 0.005653 -0.272473 0.206042 -0.048177 0.051117 0.385801 0.409159 0.152255 0.427193 -0.134754 -0.132669 -0.091735 0.132965 0.047150 0.189829 -0.177973 -0.396797 -0.108914 0.005707 -0.224966 -0.029719 0.025784 -0.054629 0.091239 -0.002083 -0.096377 -0.072446 -0.127420 0.273330 0.593705 0.192644 0.605235 -0.177488 0.392640 0.086568 -0.076880 -0.377127 -0.135192 -0.299162 0.052933 -0.010302 0.052811 0.190747 0.220270 -0.180416 -0.219616 0.063614 0.064265 -0.119772 -0.174178
184 0.279495 -0.425299 -0.416439 -0.123838 -0.065655 -0.491976 -0.222116 0.182334 0.302020 0.212645 -0.548887 -0.018865 -0.037696 -0.385505 -0.000966 -0.669085 -0.194290 -0.099347 -0.089726 -0.206616 0.293933 0.145796 -0.169306 -0.047602 -0.274239 0.231660 0.173143 -0.103490 0.078470 -0.166856 0.299330 -0.263104 -0.492423 -0.573277 -0.044065 0.282727 -0.302057 -0.288534 -0.225517 -0.132448 0.056544 0.535433 0.305885 -0.094388 -0.486480 0.130544 0.182868 -0.262524 -0.043334 0.425238 -0.326966 0.123940 -0.143378 0.168412 -0.408284 -0.255831 -0.106606 0.131194 0.178116 0.033241 -0.211924 -0.074558 -0.338548 -0.304619 -0.214411 0.179958 -0.503993 0.293913 -0.090022 -0.133399 -0.161306 0.078490 0.368153 -0.284713 0.232095 -0.065169 0.018844 0.123480 -0.149795 -0.628558 0.163264 0.039071 0.340996 0.125807 0.198446 0.285813 0.683932 -0.021769 -0.271634 -0.086388 0.337688 0.054183 -0.226673 0.106407 -0.507984 0.334637 0.481243 -0.384621 0.590303 -0.168151 -0.332673 -0.190994 0.468929 -0.136744 -0.226459 -0.035230 0.013403 0.239313 0.048705 0.213222 0.080945 0.206502 -0.016069 0.027028 0.306300 0.084240 -0.273748 0.419074 -0.115988 0.037815 -0.234587 -0.230478 -0.176544 -0.570593 -0.307550 0.345301 -0.134562 -0.276692
18 -0.164418 -0.214936 -0.318833 0.087285 0.161934 0.128410 0.122969 -0.088871 -0.082874 -0.090398 0.121084 0.223081 0.158050 -0.407629 -0.207690 -0.520803 0.125294 0.113818 -0.017359 0.033457 0.160665 -0.031586 0.587987 -0.223000 0.055688 0.006551 0.268344 -0.205733 -0.049550 -0.119090 0.111907 -0.029207 -0.234335 -0.246853 0.300882 -0.336098 -0.206191 -0.425355 0.262080 0.262819 -0.052209 0.003652 -0.064967 -0.230261 -0.487281 -0.068961 -0.157314 -0.340005 0.170376 0.244543 -0.139847 -0.030086 0.539297 0.346686 -0.331483 -0.255209 -0.626714 -0.265171 0.122448 0.470434 0.027950 -0.780154 -0.177614 -0.132605 0.013498 -0.225715 0.008193 0.023703 -0.495905 0.031114 0.130266 0.498235 0.576423 -0.364949 0.366106 -0.158734 0.136274 0.388169 -0.137284 -0.352934 -0.057962 -0.111266 0.159173 -0.094585 0.211216 0.278191 0.328466 -0.045041 -0.160598 0.257513 0.383897 -0.204879 0.072644 -0.284998 -0.377689 0.019043 -0.130899 -0.701031 0.265569 0.086182 -0.404289 0.098047 0.222339 -0.057640 0.418523 -0.064487 0.494368 0.325698 0.179478 -0.277664 -0.491662 0.152272 -0.075316 -0.183901 0.027378 -0.245599 -0.451055 -0.116064 -0.545368 -0.429610 -0.371522 0.164424 -0.199923 -0.401168 -0.068209 -0.088775 -0.181082 -0.408148
283 0.266643 -0.427907 -0.393637 -0.137699 -0.070020 -0.488988 -0.221632 0.190457 0.295728 0.216189 -0.551857 -0.037678 -0.036530 -0.377674 0.014207 -0.655246 -0.190967 -0.096887 -0.080392 -0.201401 0.301986 0.147121 -0.189742 -0.055775 -0.272071 0.224912 0.169188 -0.093407 0.073515 -0.165513 0.306289 -0.261645 -0.491554 -0.580209 -0.032669 0.302743 -0.302535 -0.276472 -0.220563 -0.125967 0.056866 0.537866 0.305615 -0.095449 -0.473298 0.125575 0.181744 -0.262890 -0.037001 0.408212 -0.339871 0.135746 -0.140304 0.170925 -0.410520 -0.247668 -0.091622 0.125693 0.176956 0.036858 -0.220478 -0.072125 -0.339738 -0.313059 -0.205520 0.177333 -0.508830 0.301854 -0.093785 -0.136163 -0.181726 0.080330 0.348522 -0.269415 0.222262 -0.062285 0.011540 0.119583 -0.137473 -0.603044 0.159092 0.047328 0.349406 0.126472 0.197668 0.277969 0.694042 -0.027011 -0.258788 -0.093798 0.322840 0.042368 -0.232810 0.106193 -0.501599 0.340981 0.500836 -0.379510 0.602422 -0.187075 -0.328185 -0.198149 0.477721 -0.141796 -0.232324 -0.048185 0.008424 0.225561 0.046057 0.213000 0.076111 0.202228 -0.020396 0.026419 0.297339 0.091099 -0.261292 0.420557 -0.115188 0.024714 -0.226031 -0.231593 -0.167034 -0.564901 -0.292827 0.330027 -0.120173 -0.261981
304 0.219750 0.086300 -0.395126 0.241138 -0.024351 -0.046017 0.076637 0.093979 0.310052 0.126475 -0.027196 0.014830 0.391114 -0.159519 -0.159949 -0.056205 -0.111184 0.282505 0.000928 -0.189590 0.008164 -0.143628 0.256483 0.011918 0.427818 0.061865 -0.301998 0.245002 -0.244854 -0.061036 -0.016119 0.228466 0.112935 -0.312061 -0.065377 0.076753 -0.377098 -0.091172 0.091303 0.228255 0.149159 0.217745 -0.042036 -0.074859 -0.325036 0.016694 -0.063627 0.276824 0.134062 0.227357 0.221313 -0.059383 0.167496 -0.044615 -0.422344 -0.099716 0.009500 -0.131321 0.007091 -0.008915 -0.367056 0.288526 -0.205527 -0.323642 -0.540936 0.192561 0.162069 0.404987 -0.303891 0.389556 0.002968 0.253701 0.352461 -0.219574 -0.153429 -0.402793 -0.196367 0.124844 -0.000903 -0.307931 0.160430 -0.043370 0.043740 0.504635 0.308012 0.133677 0.376569 -0.201810 -0.073921 -0.088653 0.142774 0.055108 0.170252 -0.191263 -0.363115 0.011750 -0.034688 -0.279250 -0.037294 -0.001725 -0.088463 0.177792 -0.048770 -0.037394 -0.155247 -0.066127 0.431834 0.581911 0.182045 0.535253 -0.151684 0.368801 0.111721 -0.104837 -0.349104 -0.051852 -0.248817 0.059898 -0.005450 0.114451 0.230843 0.166669 -0.227826 -0.185220 0.162068 0.110504 -0.186646 -0.133837
253 0.191041 0.143822 -0.496932 0.304678 -0.081222 -0.095244 0.072833 0.122617 0.363690 0.086894 -0.000442 -0.006745 0.360095 -0.254874 -0.227954 -0.104258 -0.075118 0.303379 -0.001656 -0.164378 -0.046988 -0.119985 0.280015 -0.061545 0.609565 0.040630 -0.294554 0.369759 -0.183674 -0.106287 0.014983 0.247373 0.105632 -0.314657 -0.111882 0.147391 -0.312080 -0.114566 0.158026 0.253339 0.179063 0.234127 -0.066067 -0.185605 -0.354999 -0.103183 0.030934 0.215404 0.034461 0.195383 0.184301 -0.127259 0.248723 -0.147838 -0.395271 -0.094659 0.055491 -0.194990 0.070278 -0.056966 -0.262374 0.309804 -0.233923 -0.319495 -0.447255 0.111169 0.215985 0.408634 -0.316293 0.319759 0.049470 0.131538 0.418440 -0.265759 -0.150546 -0.462841 -0.177711 0.137384 0.005994 -0.279116 0.208914 -0.052953 0.038338 0.372936 0.434330 0.184471 0.423176 -0.116155 -0.149956 -0.095405 0.116514 0.048347 0.194605 -0.190961 -0.408941 -0.158518 0.003254 -0.227315 -0.015281 0.042725 -0.046969 0.073206 -0.000991 -0.110240 -0.049368 -0.136076 0.267372 0.594681 0.206672 0.611484 -0.199513 0.404312 0.098073 -0.046485 -0.399187 -0.152031 -0.307083 0.057620 -0.009537 0.024962 0.178902 0.244320 -0.180787 -0.243205 0.041710 0.052495 -0.106758 -0.177223
204 -0.594130 0.276730 -0.050538 -0.034347 -0.268827 0.031583 -0.168046 0.006548 0.728719 -0.032940 -0.328874 -0.038324 0.297086 -0.314848 -0.174560 0.204004 0.136115 0.233481 -0.210127 0.368864 0.243619 0.141570 -0.040783 -0.450351 -0.522124 0.227486 0.217101 0.195142 -0.127137 -0.551656 0.755656 -0.040262 0.051964 -0.881486 0.309243 0.474252 -0.126369 0.071702 0.234819 0.172922 0.039748 0.437035 0.163588 -0.755053 -0.033443 -0.089849 0.049214 -0.033937 0.019129 0.173685 -0.284962 -0.148466 0.066732 -0.107011 -0.307302 -0.418016 0.146408 0.045914 0.275862 0.277061 -0.179224 -0.622359 0.024022 -0.455699 0.269175 -0.093973 -0.164231 0.116117 -0.577461 0.235046 -0.339763 0.164171 0.856038 0.098704 0.194028 -0.225577 0.196739 0.367558 -0.033898 -0.308681 0.394253 -0.039446 0.480622 0.356544 0.059775 0.380367 0.693283 -0.525542 -0.037333 0.180885 0.007367 -0.279901 0.031276 -0.301537 -0.185983 0.346538 0.161972 -0.496564 0.168664 0.203657 0.231201 -0.297758 0.478691 -0.361521 -0.448778 -0.233291 0.072818 0.488701 0.533824 -0.030349 -0.507101 0.539922 0.102076 -0.015632 -0.723913 0.277765 -0.671147 0.453341 -0.254409 0.022308 -0.233355 0.355763 -0.030156 -0.108016 -0.146832 -0.118334 0.402846 -0.080257
53 -0.163326 -0.207829 -0.325044 0.078429 0.151546 0.137065 0.113992 -0.079342 -0.095222 -0.088527 0.118860 0.238234 0.137390 -0.402630 -0.209081 -0.508971 0.142266 0.126119 0.007586 0.041176 0.140413 -0.017358 0.554018 -0.228890 0.041868 -0.010720 0.282681 -0.205072 -0.071436 -0.122604 0.106240 -0.040082 -0.236077 -0.247052 0.300833 -0.313076 -0.188879 -0.417767 0.258170 0.236505 -0.056644 0.003043 -0.058285 -0.213468 -0.484678 -0.062150 -0.165485 -0.333080 0.150276 0.228543 -0.145829 -0.033385 0.542221 0.351539 -0.306908 -0.255123 -0.613671 -0.272822 0.135139 0.465137 0.028277 -0.779845 -0.188788 -0.128223 0.007820 -0.216254 0.018662 0.005424 -0.509429 -0.000255 0.137864 0.498428 0.562336 -0.358743 0.368693 -0.161772 0.141236 0.385286 -0.144519 -0.343834 -0.061671 -0.132626 0.141919 -0.058832 0.225090 0.288660 0.336660 -0.063745 -0.147588 0.239532 0.384220 -0.210534 0.064415 -0.299689 -0.357941 0.019807 -0.118934 -0.687736 0.268013 0.054189 -0.406365 0.106335 0.220797 -0.045881 0.442186 -0.070418 0.482192 0.318893 0.208172 -0.275585 -0.494176 0.143348 -0.081230 -0.200582 0.028424 -0.247405 -0.461922 -0.097998 -0.531128 -0.426351 -0.366796 0.150784 -0.197652 -0.388229 -0.066758 -0.101042 -0.161107 -0.395290
101 0.200256 0.108190 -0.469715 0.292132 -0.054737 -0.066375 0.064004 0.123275 0.347299 0.085789 -0.020044 0.005929 0.407750 -0.186430 -0.175059 -0.062314 -0.097015 0.315841 -0.021124 -0.168915 -0.002577 -0.150881 0.266821 -0.021585 0.474512 0.035623 -0.311467 0.263603 -0.212396 -0.093721 -0.009214 0.241070 0.081606 -0.306661 -0.084754 0.091771 -0.367762 -0.083458 0.123275 0.233882 0.152725 0.218808 -0.070781 -0.122899 -0.345331 -0.027779 -0.011933 0.243446 0.096489 0.238046 0.225559 -0.091461 0.184293 -0.112091 -0.415209 -0.118893 0.007215 -0.160530 0.010057 -0.000491 -0.320902 0.270046 -0.179588 -0.311681 -0.474847 0.158282 0.160057 0.372729 -0.328030 0.370286 0.019384 0.213007 0.362819 -0.213610 -0.147477 -0.406210 -0.195970 0.110874 -0.016103 -0.288332 0.187774 -0.034770 0.061685 0.428767 0.345252 0.114010 0.398092 -0.170218 -0.111576 -0.076905 0.126549 0.039760 0.207224 -0.162050 -0.374325 -0.040741 -0.031709 -0.271121 -0.038082 0.038824 -0.056637 0.147686 -0.012535 -0.029925 -0.134972 -0.118144 0.349783 0.593710 0.191590 0.562159 -0.186006 0.405624 0.101433 -0.093417 -0.380102 -0.092115 -0.266543 0.044762 -0.000830 0.104481 0.217107 0.199459 -0.201239 -0.192778 0.123277 0.075856 -0.151288 -0.148866
300 0.188803 -0.269569 -0.194841 -0.273500 0.012291 0.059723 -0.108636 0.293659 0.019995 0.080614 -0.104510 -0.181326 -0.075974 -0.236283 -0.089526 -0.417549 0.332482 -0.014171 -0.129156 0.268046 0.494891 -0.252443 0.010387 0.288156 -0.599655 0.176801 -0.530808 0.064536 -0.403627 -0.503693 0.113480 0.185099 -0.409878 -0.072705 -0.167608 0.227871 0.309007 -0.312104 0.335321 -0.087969 -0.062769 0.486268 -0.141235 -0.375289 -0.273703 -0.333276 -0.049848 0.028840 -0.030880 0.144138 -0.049325 0.433242 0.244196 0.042318 -0.150595 -0.026374 -0.417758 0.089327 -0.008045 -0.082032 -0.159461 -0.259307 -0.049151 -0.175923 -0.250302 0.226058 -0.034684 0.009391 -0.410927 -0.015583 -0.059963 0.037945 0.495987 -0.189877 0.165368 -0.129782 -0.075350 0.257049 0.322778 -0.021966 0.535151 -0.042569 0.085212 0.046186 -0.047170 -0.240578 -0.001104 -0.242713 0.096556 0.130288 0.183719 0.251064 0.074830 -0.250973 -0.259802 0.471734 0.056284 -0.645050 0.284034 0.081655 -0.262924 -0.484495 0.588155 -0.257539 0.104149 -0.098787 0.086570 0.889503 -0.259075 0.406502 -0.448593 0.321756 0.117921 -0.035300 -0.354773 0.137040 -0.549436 -0.222784 -0.174993 -0.195432 -0.379333 -0.005027 0.370810 0.285779 0.112485 0.287263 0.198664 -0.198154
159 -0.589929 0.284793 -0.043491 -0.031478 -0.251967 0.050657 -0.162874 0.004218 0.705588 -0.044184 -0.315170 -0.041684 0.302856 -0.303037 -0.181869 0.209369 0.136994 0.238552 -0.210043 0.367791 0.245791 0.132519 -0.030042 -0.457412 -0.517819 0.233107 0.225885 0.204242 -0.135266 -0.551466 0.756933 -0.032520 0.074314 -0.886726 0.315066 0.463263 -0.122354 0.070058 0.244677 0.182231 0.046451 0.436577 0.167839 -0.771323 -0.027465 -0.090936 0.043959 -0.023296 0.022583 0.163668 -0.297080 -0.155695 0.091592 -0.100275 -0.307312 -0.429912 0.147913 0.038375 0.281391 0.282160 -0.189733 -0.636597 0.036355 -0.459249 0.276755 -0.104904 -0.150731 0.125811 -0.583806 0.242856 -0.334332 0.169026 0.873687 0.100256 0.194106 -0.232756 0.198666 0.383139 -0.026569 -0.308593 0.389952 -0.056904 0.464940 0.370077 0.049355 0.383059 0.681959 -0.542452 -0.018789 0.198213 0.003891 -0.289221 0.027109 -0.322390 -0.178313 0.338543 0.142932 -0.503139 0.155737 0.210473 0.231320 -0.286407 0.466485 -0.387421 -0.440863 -0.233915 0.089702 0.484891 0.541744 -0.053408 -0.528808 0.546792 0.099069 -0.020843 -0.745626 0.269769 -0.680507 0.451074 -0.268669 0.018625 -0.222444 0.373916 -0.032471 -0.089167 -0.143528 -0.136806 0.400903 -0.080915
280 -0.154704 -0.250535 -0.323125 0.087568 0.111195 0.168464 0.122745 -0.108337 -0.090124 -0.087836 0.072908 0.201568 0.122267 -0.358906 -0.213561 -0.492523 0.116564 0.145642 -0.001376 0.070535 0.143298 -0.000249 0.549570 -0.243492 0.048061 -0.023738 0.279193 -0.204047 -0.102788 -0.139031 0.117846 -0.051586 -0.249675 -0.256414 0.306358 -0.318570 -0.199282 -0.384489 0.261451 0.232621 -0.036638 0.064257 -0.075903 -0.237994 -0.460544 -0.032826 -0.158771 -0.341645 0.150380 0.293420 -0.146574 -0.000409 0.555879 0.293437 -0.283865 -0.228671 -0.602810 -0.281601 0.148148 0.459085 0.045922 -0.770221 -0.146084 -0.146223 0.022072 -0.232528 -0.013964 -0.053450 -0.464176 0.006908 0.177207 0.506185 0.574694 -0.378193 0.338158 -0.156713 0.147670 0.378218 -0.156366 -0.347626 -0.049145 -0.122623 0.174252 -0.051897 0.202709 0.307343 0.335148 -0.058734 -0.192152 0.279928 0.414948 -0.241591 0.035758 -0.287182 -0.381169 0.049667 -0.153875 -0.693848 0.218442 0.053215 -0.368640 0.081259 0.218562 -0.034395 0.420159 -0.097324 0.530761 0.358519 0.208224 -0.282890 -0.482159 0.142312 -0.087852 -0.230603 0.013840 -0.280649 -0.465460 -0.119563 -0.539460 -0.405621 -0.390591 0.165476 -0.192847 -0.393454 -0.057830 -0.077462 -0.154006 -0.418256
220 0.197892 -0.258389 -0.191901 -0.273852 0.040696 0.043050 -0.112349 0.299182 -0.004574 0.096067 -0.128673 -0.184422 -0.076054 -0.229305 -0.063978 -0.436330 0.324361 0.003476 -0.080803 0.247624 0.489663 -0.261827 0.043011 0.297951 -0.598439 0.219935 -0.524759 0.094770 -0.419065 -0.487948 0.108786 0.167493 -0.433169 -0.066440 -0.153397 0.221301 0.306151 -0.341899 0.355347 -0.089649 -0.038983 0.482716 -0.162149 -0.373049 -0.235239 -0.308238 -0.100558 0.029887 -0.039903 0.132774 -0.064892 0.483517 0.267492 0.068847 -0.166561 0.007596 -0.399215 0.057545 0.044405 -0.152832 -0.176725 -0.199017 -0.117379 -0.187746 -0.286926 0.232818 0.023338 0.068749 -0.393174 0.009699 -0.097399 0.079875 0.519120 -0.211875 0.157524 -0.107830 -0.058936 0.264242 0.385732 -0.004062 0.542218 -0.082073 0.069924 0.076529 -0.078095 -0.209722 -0.016092 -0.267507 0.120326 0.168198 0.198724 0.253852 0.043861 -0.276407 -0.235781 0.467593 0.109665 -0.636260 0.232278 0.048424 -0.312299 -0.438388 0.565298 -0.286902 0.178278 -0.083230 0.036448 0.857740 -0.260113 0.364329 -0.439271 0.298766 0.121919 -0.048255 -0.350306 0.118043 -0.559818 -0.184653 -0.197860 -0.232486 -0.341194 0.007173 0.357247 0.256503 0.158226 0.312232 0.175230 -0.199259
2 0.284421 -0.432650 -0.413487 -0.125953 -0.071010 -0.499501 -0.208371 0.194480 0.300586 0.207571 -0.557731 -0.021054 -0.030392 -0.387663 0.006615 -0.656604 -0.192504 -0.093062 -0.083907 -0.201179 0.296539 0.147812 -0.177345 -0.058058 -0.262591 0.230055 0.169053 -0.094178 0.084325 -0.165014 0.308974 -0.267330 -0.501192 -0.575952 -0.047252 0.294011 -0.296069 -0.277975 -0.223837 -0.129354 0.058967 0.539591 0.312603 -0.096212 -0.479990 0.132488 0.179778 -0.271653 -0.042780 0.412048 -0.327170 0.124423 -0.138997 0.175055 -0.414161 -0.255221 -0.079423 0.124415 0.173979 0.038777 -0.219181 -0.063972 -0.347888 -0.312123 -0.206704 0.177222 -0.503278 0.303026 -0.092880 -0.130656 -0.164444 0.081352 0.358497 -0.275173 0.223302 -0.062710 0.021532 0.116017 -0.146323 -0.617426 0.156570 0.045776 0.342964 0.106988 0.209247 0.279888 0.688480 -0.021720 -0.264857 -0.088605 0.333282 0.051449 -0.222259 0.110027 -0.513118 0.336351 0.496752 -0.374267 0.586134 -0.173186 -0.322992 -0.199704 0.472819 -0.137887 -0.225284 -0.044603 0.003412 0.235813 0.048487 0.209960 0.081073 0.197673 -0.019214 0.023061 0.299612 0.080139 -0.269905 0.418811 -0.118957 0.023519 -0.229904 -0.237298 -0.177634 -0.569056 -0.307267 0.325906 -0.118507 -0.269675
277 0.197160 0.151839 -0.489144 0.299755 -0.066273 -0.092871 0.084786 0.102396 0.341353 0.111873 0.030469 -0.073969 0.371715 -0.258304 -0.291262 -0.113239 -0.021529 0.280954 0.040601 -0.081705 -0.067058 -0.118453 0.345914 -0.013035 0.589297 0.088133 -0.291824 0.441783 -0.227789 -0.147275 -0.004649 0.238612 0.134931 -0.311082 -0.217721 0.191554 -0.313731 -0.147910 0.187394 0.236877 0.111996 0.253482 -0.049106 -0.195904 -0.349788 -0.091757 0.032602 0.204103 0.019941 0.078681 0.190777 -0.131490 0.270924 -0.221458 -0.369600 -0.105076 0.103264 -0.189205 0.081118 -0.055989 -0.252136 0.268185 -0.244987 -0.306047 -0.407726 0.113340 0.161834 0.425345 -0.268337 0.285699 0.065871 0.075360 0.410238 -0.226337 -0.138011 -0.504420 -0.135990 0.095455 -0.000932 -0.297303 0.182320 -0.115824 0.065532 0.361005 0.526548 0.217645 0.398407 -0.170673 -0.168466 -0.085951 0.077287 0.094345 0.186060 -0.146774 -0.415807 -0.251954 0.035101 -0.339374 0.035461 0.083337 0.003621 0.011937 0.036479 -0.131068 -0.045034 -0.124125 0.331187 0.681104 0.250744 0.640269 -0.240083 0.435467 0.180301 -0.005275 -0.432462 -0.157573 -0.238174 0.121307 0.014632 0.115930 0.167049 0.195284 -0.217992 -0.243923 0.069889 0.066587 -0.119384 -0.169114
284 0.271744 -0.432513 -0.403046 -0.131575 -0.069954 -0.489700 -0.211751 0.172552 0.300106 0.195290 -0.543471 -0.028560 -0.036740 -0.365392 0.008352 -0.623218 -0.189805 -0.089855 -0.084053 -0.185258 0.290494 0.138158 -0.183450 -0.056201 -0.269915 0.213539 0.170746 -0.098705 0.077559 -0.174595 0.309659 -0.256683 -0.474345 -0.558150 -0.040907 0.290025 -0.285631 -0.263831 -0.220001 -0.127976 0.051380 0.529151 0.294053 -0.101541 -0.470887 0.121312 0.197150 -0.265274 -0.045192 0.408800 -0.326662 0.127417 -0.145294 0.155375 -0.407901 -0.251750 -0.086376 0.129726 0.162327 0.036559 -0.215298 -0.081405 -0.325165 -0.298770 -0.203309 0.164015 -0.506111 0.290362 -0.089273 -0.134505 -0.170182 0.077395 0.347583 -0.270840 0.217216 -0.057250 0.021233 0.109652 -0.144785 -0.614584 0.167086 0.050393 0.357492 0.105775 0.198289 0.273256 0.684826 -0.018972 -0.265562 -0.080589 0.323631 0.060368 -0.227038 0.123412 -0.506632 0.341557 0.492709 -0.380579 0.584035 -0.164528 -0.325343 -0.199374 0.473821 -0.126923 -0.239304 -0.042498 0.006634 0.241362 0.040885 0.206431 0.084788 0.203498 -0.022533 0.033553 0.294661 0.089604 -0.250053 0.412347 -0.110757 0.040963 -0.224811 -0.224658 -0.176439 -0.555232 -0.305793 0.334360 -0.122355 -0.267327
314 0.261820 -0.433319 -0.406657 -0.128467 -0.068524 -0.482510 -0.228414 0.159530 0.297303 0.204106 -0.553452 -0.032606 -0.030363 -0.373478 0.002197 -0.634170 -0.197922 -0.084093 -0.095605 -0.180479 0.298892 0.141898 -0.183840 -0.057365 -0.297049 0.226315 0.179779 -0.108077 0.056037 -0.189914 0.322250 -0.277554 -0.475892 -0.573302 -0.027332 0.309143 -0.315687 -0.270662 -0.238199 -0.125610 0.039318 0.549521 0.298349 -0.098149 -0.481003 0.136164 0.192062 -0.262589 -0.027800 0.425966 -0.341327 0.125679 -0.160545 0.166804 -0.424982 -0.256781 -0.101186 0.130236 0.168287 0.041606 -0.214653 -0.085490 -0.334923 -0.309820 -0.212303 0.164661 -0.525524 0.285331 -0.095768 -0.144646 -0.190747 0.071122 0.345217 -0.272372 0.227457 -0.056087 0.013545 0.102423 -0.133113 -0.614210 0.156808 0.046116 0.353922 0.129362 0.196818 0.275793 0.682645 -0.028889 -0.269053 -0.095958 0.327213 0.060528 -0.234749 0.125426 -0.511450 0.353118 0.470945 -0.394657 0.598827 -0.165915 -0.337495 -0.191449 0.471426 -0.133920 -0.247497 -0.055701 0.036710 0.246916 0.044621 0.207396 0.076835 0.201043 -0.012577 0.044409 0.305021 0.098282 -0.246486 0.416893 -0.104052 0.058120 -0.239037 -0.218693 -0.187248 -0.557631 -0.290031 0.347910 -0.126088 -0.276901
