309 128
279 0.029908 0.208442 -0.198932 0.036254 0.114842 0.110644 0.311336 -0.026574 0.425306 0.093292 0.293513 -0.114682 0.374033 0.072909 -0.223863 -0.287220 0.032576 0.196475 -0.053330 0.292233 0.158916 -0.020308 0.508923 -0.129801 0.176478 0.114386 -0.257258 0.409709 -0.234313 -0.220944 0.032764 0.133727 0.150493 -0.425379 -0.092185 0.157270 -0.416890 -0.205065 0.156977 0.044819 -0.080197 0.291361 0.185287 -0.178010 0.062203 -0.000826 0.038477 0.255317 0.441006 0.161113 0.161612 -0.196328 0.286070 0.096563 -0.253018 -0.164738 -0.016783 -0.012465 0.076925 0.145464 -0.398861 -0.019905 0.044675 -0.395992 -0.412599 -0.252810 -0.080722 0.012841 -0.297743 0.246344 0.206926 0.156141 0.482819 -0.230458 0.085837 -0.424517 0.017010 -0.129883 0.209954 -0.050347 -0.103687 -0.024091 0.202165 0.251242 0.354879 0.044214 0.267586 -0.247769 0.141482 0.082231 0.109774 0.162995 0.094871 -0.218685 -0.239533 -0.104857 -0.126024 -0.423939 0.071653 0.171132 -0.138071 0.310574 -0.044079 -0.247006 -0.156569 -0.264450 0.746482 0.515061 0.241043 0.323964 -0.133707 0.166933 0.099229 0.173161 -0.392185 0.168597 -0.164090 0.177047 0.148374 0.163763 0.087118 -0.095255 -0.039997 -0.046142 0.395045 0.050895 0.027101 -0.183811
28 -0.117346 0.124748 0.189094 -0.084875 0.562168 0.149632 0.505332 -0.171145 -0.041546 0.049803 0.291970 0.032539 0.250300 -0.057233 -0.260651 -0.159403 0.228987 0.038909 -0.064175 0.357542 0.354798 -0.132405 0.765251 -0.390687 -0.210074 0.239947 -0.100167 -0.008587 0.120923 -0.072670 0.177309 -0.153346 -0.156870 -0.092525 0.275391 -0.229126 0.150585 -0.113625 0.587650 0.107320 -0.140365 -0.017152 -0.011282 -0.341035 -0.151088 0.170968 -0.156223 -0.195975 0.355878 -0.121812 0.267320 -0.097218 0.715036 0.376763 0.371834 0.064308 -0.196255 -0.360221 0.173700 0.206953 -0.063110 -0.796521 0.013574 0.073185 0.085320 -0.045624 0.063394 -0.165491 -0.115932 0.057438 0.115171 0.265326 0.637193 -0.325046 0.591638 -0.457289 0.570142 0.282253 0.334686 0.376943 -0.340504 -0.153123 0.111327 -0.437802 0.007015 0.042994 -0.254148 -0.247388 0.271160 0.444128 0.261515 0.002685 0.345336 -0.146331 -0.040074 -0.133302 -0.310675 -0.204567 0.157540 0.183644 -0.633905 0.104011 0.211609 -0.478578 0.502956 0.194578 0.204218 0.082878 -0.002671 -0.568699 -0.086614 -0.395944 -0.219354 0.072990 -0.061843 -0.062366 -0.372016 0.020482 -0.213110 -0.300044 -0.419849 -0.204758 -0.024497 0.104677 0.191619 -0.242743 0.199146 -0.355657
90 -0.035571 -0.168127 -0.133588 -0.592280 0.329023 -0.198895 0.267711 0.186040 0.272220 -0.029786 -0.245338 -0.315573 0.085957 -0.109019 -0.240523 -0.258791 0.297711 -0.011646 -0.259958 0.385281 0.595860 -0.427818 0.158055 0.027413 -0.708109 0.268609 -0.449387 0.283504 -0.152046 -0.385921 0.290130 -0.226762 -0.287834 -0.075573 -0.335768 0.512982 0.132083 0.032952 0.006519 -0.271268 0.080752 0.416141 0.218394 -0.153253 0.015716 -0.190336 0.049974 0.280334 0.302512 0.052758 -0.030809 0.241774 0.051544 0.241065 -0.088603 -0.166554 -0.026683 0.138491 0.208814 -0.059744 -0.398218 -0.572555 0.092057 -0.237556 -0.087913 -0.144089 -0.401758 -0.430918 -0.212794 0.079328 0.175986 -0.117757 0.504066 -0.171291 -0.057501 -0.176347 0.124602 -0.121401 0.237253 0.255122 0.008658 -0.055227 0.381965 -0.230913 -0.112957 -0.557957 -0.269711 -0.068308 0.476090 0.228951 0.137201 0.413963 0.138626 -0.250613 0.104963 0.539040 -0.115943 -0.368807 0.177508 0.253383 -0.409234 -0.321520 0.472189 -0.148631 -0.027292 -0.135891 -0.119210 0.210185 -0.584162 0.025496 0.124947 -0.145957 0.184018 0.442324 0.108463 0.391414 -0.372681 0.118413 0.224698 -0.035775 -0.281680 -0.413635 0.590189 0.652317 0.295590 0.231967 0.228753 -0.381299
26 -0.108922 0.121476 0.159462 -0.113111 0.680510 0.193469 0.571474 -0.182018 -0.025922 0.025905 0.338539 0.019238 0.235786 -0.058335 -0.248591 -0.175696 0.246388 0.021046 -0.114249 0.346255 0.390287 -0.142580 0.763264 -0.387149 -0.198977 0.241999 -0.093420 -0.063796 0.120531 -0.051718 0.174548 -0.130896 -0.116762 -0.088499 0.310380 -0.249639 0.169560 -0.134372 0.605798 0.096122 -0.144569 -0.021647 -0.051514 -0.377618 -0.132009 0.194299 -0.126970 -0.188315 0.361148 -0.071562 0.266998 -0.066170 0.685879 0.398702 0.371009 0.042283 -0.187207 -0.332849 0.180444 0.183265 -0.076000 -0.757235 -0.017596 0.084356 0.091409 -0.030648 0.078192 -0.151250 -0.101739 0.072539 0.094885 0.250269 0.611529 -0.304087 0.581048 -0.453568 0.542415 0.264488 0.338300 0.341031 -0.339793 -0.133373 0.073647 -0.408430 -0.004385 0.028141 -0.242499 -0.259892 0.255639 0.452786 0.245314 -0.004607 0.332606 -0.130349 -0.047431 -0.143597 -0.310770 -0.220693 0.149671 0.181759 -0.608177 0.108032 0.196978 -0.483739 0.444926 0.207101 0.183081 0.071648 -0.011486 -0.559688 -0.119110 -0.392671 -0.196034 0.062868 -0.072448 -0.039372 -0.303158 0.019030 -0.219690 -0.272466 -0.408354 -0.170660 -0.037281 0.066080 0.184415 -0.196171 0.212001 -0.351240
230 -0.029301 -0.124861 -0.117454 -0.397402 0.311208 -0.154840 0.214561 0.165430 0.244987 -0.032114 -0.219678 -0.286959 0.046213 -0.088033 -0.228738 -0.235661 0.289949 -0.029467 -0.267111 0.315882 0.560394 -0.422249 0.096221 0.066754 -0.671882 0.244334 -0.409809 0.210294 -0.155255 -0.320494 0.229666 -0.176822 -0.240304 -0.030728 -0.337778 0.423451 0.126136 -0.019329 0.002830 -0.278546 0.080677 0.404283 0.158541 -0.123437 0.005912 -0.182878 0.040306 0.285513 0.317020 0.041124 0.013894 0.247452 0.066178 0.278342 -0.065893 -0.185919 -0.046062 0.152457 0.238333 -0.074548 -0.387516 -0.586463 0.099852 -0.241239 -0.083588 -0.162537 -0.383336 -0.427811 -0.197440 0.061029 0.202684 -0.092263 0.484320 -0.171459 -0.004150 -0.180231 0.126747 -0.123339 0.300005 0.261750 0.035543 -0.046129 0.370402 -0.281607 -0.148573 -0.602092 -0.282202 -0.030941 0.467908 0.290197 0.123675 0.433224 0.097451 -0.259293 0.108538 0.520288 -0.133113 -0.422782 0.219834 0.260162 -0.429033 -0.305616 0.486895 -0.142796 -0.054088 -0.166906 -0.083542 0.213633 -0.581862 -0.010541 0.086171 -0.198261 0.153999 0.426155 0.146152 0.440090 -0.323465 0.052145 0.194160 -0.029189 -0.277306 -0.394935 0.586303 0.673561 0.349443 0.266042 0.257469 -0.399029
57 -0.013672 0.061719 -0.221835 -0.068784 0.155552 0.030408 0.311821 -0.026784 0.429212 0.079646 0.251726 -0.067403 0.319386 0.071463 -0.248807 -0.332874 0.081211 0.162137 -0.024212 0.229284 0.169343 -0.039997 0.552483 -0.143973 0.179375 0.115604 -0.329763 0.477871 -0.188995 -0.236214 -0.064932 0.147030 0.121289 -0.378027 -0.132951 0.258685 -0.413486 -0.227919 0.117936 0.068376 -0.029762 0.336136 0.145757 -0.148229 0.083974 0.027781 0.021586 0.228387 0.384097 0.065682 0.219623 -0.223125 0.290646 0.044767 -0.214807 -0.126365 0.038502 0.012229 0.032080 0.114956 -0.385313 0.085830 -0.006124 -0.368008 -0.426055 -0.270878 -0.031091 0.022720 -0.256878 0.257834 0.175061 0.144086 0.572894 -0.300091 0.144127 -0.463768 0.036150 -0.061574 0.254332 -0.094223 -0.118098 -0.073388 0.269835 0.211596 0.392061 0.052331 0.280255 -0.180107 0.162910 0.170274 0.112365 0.217592 -0.025905 -0.259403 -0.304097 -0.167136 0.024313 -0.431126 0.199073 0.160046 -0.136711 0.190040 -0.085110 -0.292397 -0.058311 -0.174110 0.691453 0.586984 0.294514 0.399990 -0.167089 0.170600 0.047644 0.184438 -0.381123 0.075969 -0.081692 0.200282 0.071928 0.129045 0.103930 -0.171369 -0.037318 -0.110142 0.363703 0.100379 0.000399 -0.179519
132 -0.056398 -0.103384 0.006606 -0.226359 0.310261 -0.190782 0.167688 0.129484 0.318473 0.217760 -0.182392 -0.132148 0.169927 -0.325508 -0.187327 -0.565055 -0.044460 -0.109718 0.007315 0.050347 0.426823 0.096268 0.179617 -0.105198 -0.527381 0.201813 0.349783 -0.059870 0.301915 -0.059777 0.270091 -0.406669 -0.371683 -0.473693 0.158067 0.349745 -0.368430 -0.069069 -0.210943 -0.135127 -0.063000 0.428022 0.321835 -0.116532 0.088877 0.303900 0.178021 -0.166597 0.511069 0.034462 -0.368509 0.173173 0.068085 0.295899 -0.067881 -0.332949 -0.073492 -0.172279 0.254081 0.170760 -0.409586 -0.478275 -0.487823 -0.103846 -0.141793 -0.316861 -0.671341 -0.017476 0.011327 -0.140604 -0.033784 0.035686 0.229612 -0.456726 0.518497 -0.161987 0.106466 -0.036079 -0.105533 -0.052497 -0.503287 0.023744 0.011252 0.026064 0.169362 0.309138 0.186987 -0.175449 0.190755 0.182568 0.517361 0.046688 0.004857 -0.066174 -0.285108 0.013186 0.092734 -0.183118 0.431935 -0.158075 -0.973405 0.483959 0.329520 -0.656544 -0.090621 -0.033630 0.342211 -0.288754 -0.362188 -0.209673 0.052988 -0.339117 0.132644 0.171192 0.427153 0.253179 -0.079908 0.451277 0.098039 0.151064 -0.431915 -0.156662 -0.169566 -0.440664 0.086850 0.198120 0.004346 -0.492423
157 -0.248035 0.074845 -0.295042 0.153378 -0.031455 0.300849 -0.064157 -0.395642 0.200135 0.181838 0.233499 -0.475297 0.076125 0.097469 -0.240550 -0.495171 -0.069572 0.328843 -0.229761 0.711688 0.047550 0.095946 0.483706 0.208353 -0.511820 0.566482 0.201048 -0.360883 0.055588 -0.253294 0.496190 -0.346687 0.522028 0.163700 -0.275366 0.056362 -0.568842 -0.360226 0.102156 0.017977 -0.108731 0.450943 0.121746 -0.148866 -0.706878 0.288747 -0.266365 0.162261 0.732201 0.250753 -0.262500 -0.270615 -0.010408 0.348155 -0.167048 -0.463850 -0.348385 -0.040784 0.395077 0.014808 -0.013132 -0.944811 0.091275 -0.210455 -0.354342 -0.114759 -0.815432 -0.477460 -0.402168 -0.249894 0.190629 0.471482 0.292279 -0.109641 0.407312 -0.162250 0.502134 -0.057065 0.742435 -0.021176 0.039804 -0.208504 0.461184 0.230488 -0.059058 -0.261312 -0.270488 -0.071952 0.231518 0.129228 0.034261 0.371646 -0.110739 -0.293202 -0.379954 0.079806 -0.636240 -0.787637 0.129067 0.388536 -0.055259 0.723379 0.063540 0.174995 -0.196515 -0.100701 0.573657 -0.152890 -0.049251 -1.025751 -0.365494 -0.718165 -0.034921 0.647021 0.437804 0.396599 0.375537 0.187920 -0.011236 0.280039 -0.165285 -0.402869 -0.422123 0.223241 0.680631 -0.138429 -0.123102 -0.323798
3 -0.046353 -0.145030 0.016467 -0.246949 0.300358 -0.192886 0.185618 0.141194 0.321568 0.205607 -0.187640 -0.164658 0.177832 -0.356382 -0.204655 -0.587150 -0.047624 -0.098629 -0.005803 0.038442 0.421711 0.095211 0.175426 -0.113208 -0.522155 0.198356 0.335854 -0.064079 0.300794 -0.063504 0.262328 -0.404409 -0.364472 -0.480223 0.122489 0.367639 -0.386032 -0.038976 -0.245801 -0.141428 -0.046327 0.441347 0.327347 -0.101850 0.059947 0.292199 0.207873 -0.180520 0.504770 0.079052 -0.353389 0.156202 0.045112 0.293737 -0.092015 -0.363953 -0.061978 -0.166361 0.268184 0.175577 -0.409670 -0.476240 -0.503032 -0.104098 -0.149476 -0.329203 -0.704475 -0.019410 0.004578 -0.168018 -0.017999 0.036379 0.225529 -0.444066 0.516683 -0.176312 0.119051 -0.057296 -0.124146 -0.077455 -0.471818 0.018953 0.052338 -0.004800 0.192332 0.291514 0.203693 -0.155071 0.167361 0.175491 0.502301 0.097787 -0.016994 -0.045270 -0.308688 0.030171 0.091750 -0.207648 0.402872 -0.134547 -0.927087 0.450411 0.337811 -0.605770 -0.113872 -0.029204 0.309802 -0.263730 -0.354332 -0.202132 0.052389 -0.301158 0.144980 0.174776 0.458685 0.261635 -0.072867 0.456982 0.110555 0.164520 -0.427048 -0.178775 -0.199005 -0.443391 0.077372 0.229645 0.007284 -0.511093
93 -0.019905 -0.093664 -0.092752 -0.468603 0.333291 -0.159665 0.269004 0.205857 0.263917 -0.016245 -0.224968 -0.307503 0.074800 -0.097451 -0.259968 -0.210257 0.290912 -0.010704 -0.282840 0.354677 0.570783 -0.397901 0.130788 0.037549 -0.651464 0.253828 -0.443994 0.269617 -0.125651 -0.345393 0.241607 -0.189411 -0.243289 -0.050672 -0.328075 0.453448 0.122502 0.010153 0.003318 -0.272053 0.076711 0.389405 0.167686 -0.151830 0.019669 -0.194394 0.036172 0.280018 0.314587 0.030489 0.020981 0.239498 0.080586 0.262688 -0.039102 -0.180676 -0.011692 0.119045 0.240268 -0.085983 -0.387428 -0.536164 0.103069 -0.252404 -0.077527 -0.130115 -0.343957 -0.389527 -0.191073 0.067873 0.205480 -0.142693 0.506415 -0.188614 -0.020293 -0.184628 0.149175 -0.115652 0.279454 0.269195 0.014373 -0.080709 0.370014 -0.272276 -0.105686 -0.581612 -0.283493 -0.057504 0.463193 0.267052 0.157825 0.418167 0.134356 -0.249902 0.098204 0.516978 -0.123974 -0.404375 0.200466 0.264508 -0.415167 -0.310252 0.477096 -0.177402 -0.042369 -0.160244 -0.131163 0.230961 -0.587393 0.019132 0.088881 -0.188484 0.190508 0.414413 0.112888 0.428655 -0.380502 0.090579 0.230137 -0.030717 -0.278932 -0.391270 0.581332 0.691335 0.316644 0.228390 0.259429 -0.382107
299 0.033428 0.200270 -0.144052 0.040736 0.091538 0.133825 0.259056 0.013170 0.379308 0.055496 0.254351 -0.070538 0.418456 0.071640 -0.198580 -0.236405 0.052118 0.245904 -0.036982 0.263484 0.176128 -0.028002 0.480435 -0.129621 0.119634 0.152871 -0.249611 0.301264 -0.202265 -0.198478 0.053967 0.139096 0.170713 -0.441322 -0.133512 0.162686 -0.463055 -0.150278 0.155499 -0.007080 -0.060461 0.224876 0.202812 -0.135995 0.023261 0.059044 0.005172 0.281532 0.525448 0.170017 0.238828 -0.205480 0.256705 0.161113 -0.237641 -0.143809 -0.012293 -0.028695 0.039369 0.122063 -0.438592 -0.029940 0.035960 -0.371234 -0.385311 -0.146711 -0.087671 0.051467 -0.338955 0.296672 0.196306 0.261394 0.463367 -0.165674 0.129632 -0.410395 0.092950 -0.165992 0.204392 -0.036341 -0.103580 -0.057900 0.260046 0.331617 0.334814 0.066282 0.275227 -0.328589 0.157536 0.080724 0.116057 0.143415 0.094685 -0.170475 -0.242064 -0.003346 -0.143860 -0.481476 0.049272 0.202220 -0.127536 0.345271 -0.071391 -0.112830 -0.211651 -0.307097 0.775954 0.537964 0.225493 0.350046 -0.146367 0.101342 0.098038 0.076590 -0.385270 0.210372 -0.121797 0.233788 0.137218 0.237474 0.149143 -0.161406 -0.066466 -0.027779 0.427219 0.085032 -0.039316 -0.206953
161 -0.042750 -0.123025 0.012616 -0.228029 0.332790 -0.178263 0.172704 0.130892 0.313391 0.209595 -0.171186 -0.134747 0.181465 -0.331832 -0.202540 -0.570992 -0.041106 -0.095301 0.002061 0.045579 0.435870 0.081771 0.193201 -0.108212 -0.523508 0.192108 0.335889 -0.061849 0.292909 -0.054673 0.260019 -0.403224 -0.368232 -0.481827 0.149552 0.339393 -0.379117 -0.059068 -0.219979 -0.125005 -0.039418 0.432861 0.313391 -0.113306 0.083292 0.312688 0.182145 -0.179821 0.517838 0.056577 -0.365725 0.170161 0.078266 0.297562 -0.070670 -0.336274 -0.081047 -0.174166 0.269641 0.173375 -0.404908 -0.492064 -0.503852 -0.100019 -0.147883 -0.320843 -0.677966 -0.025060 0.007458 -0.147013 -0.029107 0.054106 0.228527 -0.466068 0.528242 -0.174550 0.111694 -0.043505 -0.112434 -0.059358 -0.503115 0.024228 0.029637 0.005762 0.168984 0.295464 0.185281 -0.169598 0.181559 0.195157 0.514039 0.065595 -0.010853 -0.064386 -0.292073 0.022807 0.097286 -0.190472 0.409751 -0.153812 -0.987967 0.478644 0.327152 -0.638613 -0.087119 -0.020161 0.334333 -0.288428 -0.377082 -0.217271 0.050682 -0.339979 0.133698 0.164067 0.446666 0.245483 -0.077114 0.447543 0.097487 0.152763 -0.429002 -0.156150 -0.193350 -0.450458 0.088329 0.216658 -0.001937 -0.522781
228 0.020295 0.276214 -0.178695 0.092801 0.047230 0.126460 0.280700 -0.000880 0.377397 0.091685 0.191495 -0.122267 0.449450 0.005409 -0.183458 -0.251609 0.007353 0.310964 -0.056777 0.270795 0.176438 0.057765 0.486869 -0.136994 0.137180 0.134133 -0.232412 0.352602 -0.194287 -0.201540 0.103026 0.145056 0.159743 -0.413896 -0.115087 0.178406 -0.402943 -0.121542 0.161528 0.047585 -0.012993 0.271494 0.178255 -0.110893 -0.003007 -0.002955 -0.013843 0.231543 0.460091 0.198408 0.233851 -0.212918 0.276786 0.124138 -0.267718 -0.127936 -0.030175 -0.011021 0.040789 0.095238 -0.377097 -0.016047 0.035931 -0.434475 -0.443861 -0.136115 -0.113543 0.024258 -0.355356 0.267768 0.194516 0.226500 0.564080 -0.189562 0.111534 -0.438248 0.077338 -0.096194 0.141782 -0.077383 -0.081607 -0.041068 0.289762 0.298674 0.345164 0.101968 0.332187 -0.260489 0.154610 0.043004 0.182567 0.155532 0.105336 -0.166842 -0.292067 -0.007313 -0.141247 -0.468969 0.044357 0.205005 -0.093954 0.250634 -0.006310 -0.082288 -0.180525 -0.285390 0.744454 0.535589 0.203415 0.355323 -0.070307 0.096016 0.048758 0.135250 -0.333573 0.166214 -0.206590 0.273770 0.166777 0.165545 0.118160 -0.144448 -0.050751 -0.044924 0.372471 0.084707 -0.025878 -0.216909
252 0.039636 0.119868 -0.031586 0.177253 0.156936 0.137727 0.351839 0.018284 0.449180 0.043324 0.144095 -0.014078 0.515771 0.022849 -0.020896 -0.139260 0.085972 0.243695 -0.007426 0.286723 0.236077 0.085776 0.603835 0.076141 0.049059 0.128658 -0.168515 0.279502 -0.227871 -0.187039 -0.088811 -0.064579 0.073724 -0.507192 -0.238094 0.184461 -0.207735 -0.211891 0.198351 -0.029759 0.002827 0.150573 0.312679 0.145040 0.119757 0.168376 -0.194556 0.341245 0.556516 -0.038338 0.383891 -0.208778 0.143354 0.136679 -0.216016 -0.035495 0.081331 0.021630 0.038784 0.080632 -0.287106 -0.056229 -0.017579 -0.394068 -0.359199 -0.087009 -0.248322 -0.016491 -0.376121 0.249175 0.251441 0.245122 0.489205 -0.100402 0.198707 -0.419483 0.144856 -0.159878 -0.025377 -0.071603 -0.243591 -0.021336 0.441133 0.369407 0.317868 0.026475 0.222994 -0.358541 0.287845 0.070462 0.132553 0.213092 0.192193 -0.159202 -0.227340 0.016558 0.054584 -0.499050 0.038736 0.123070 -0.103716 0.180721 -0.019017 0.168141 -0.230823 -0.176450 0.789068 0.598196 0.166054 0.411181 -0.109154 -0.014432 -0.023105 0.074107 -0.254339 0.139576 -0.039457 0.356083 0.183673 0.191279 0.174916 -0.386358 0.012366 -0.162870 0.428586 0.153365 -0.115648 -0.167628
7 0.019604 0.127229 -0.231596 -0.047398 0.172043 0.093328 0.283625 0.014726 0.426358 0.038440 0.272616 -0.051094 0.375429 0.087861 -0.206667 -0.280734 0.062227 0.218282 -0.061090 0.226713 0.182488 -0.078970 0.516874 -0.124262 0.186878 0.113557 -0.310432 0.359742 -0.219540 -0.199726 -0.000871 0.195069 0.173180 -0.445840 -0.153213 0.198529 -0.453934 -0.214126 0.164746 0.015617 -0.049300 0.297407 0.170301 -0.127391 0.043309 0.060216 0.035381 0.279236 0.475325 0.149307 0.235357 -0.198068 0.278837 0.141610 -0.248105 -0.140166 0.005140 -0.031035 0.059311 0.127348 -0.422209 0.020810 -0.000223 -0.354081 -0.395197 -0.210074 -0.035897 0.057628 -0.289258 0.300208 0.172675 0.256879 0.460102 -0.213074 0.122508 -0.426719 0.053828 -0.133950 0.240018 -0.075796 -0.102166 -0.062839 0.214880 0.312291 0.338014 0.048528 0.258197 -0.258892 0.160828 0.146474 0.101046 0.176438 0.026314 -0.240569 -0.244381 -0.102256 -0.053683 -0.484089 0.073763 0.168281 -0.167429 0.299093 -0.113788 -0.200655 -0.143865 -0.236846 0.721669 0.510487 0.264889 0.316596 -0.180084 0.157913 0.075635 0.086128 -0.388721 0.152859 -0.080598 0.163172 0.031243 0.199190 0.123137 -0.120280 -0.049194 -0.083962 0.366974 0.117386 -0.015967 -0.182220
278 0.043477 0.270630 -0.164092 0.146868 0.030564 0.114174 0.277713 -0.009708 0.334018 0.094176 0.174844 -0.152274 0.428128 -0.047274 -0.216247 -0.321263 -0.018481 0.313184 -0.035533 0.297261 0.194456 0.100064 0.514539 -0.183002 0.131414 0.125825 -0.197948 0.382963 -0.207620 -0.234396 0.082483 0.113245 0.152982 -0.449133 -0.065207 0.153347 -0.382436 -0.120309 0.123325 0.077016 -0.058163 0.328547 0.174110 -0.143135 0.020656 -0.030433 0.000586 0.186734 0.420485 0.210871 0.157200 -0.180729 0.305340 0.096853 -0.246513 -0.171094 -0.059356 0.014690 0.030610 0.085064 -0.380796 0.014941 0.050352 -0.455465 -0.459914 -0.164292 -0.154359 0.017246 -0.347963 0.181241 0.207332 0.138738 0.539993 -0.236994 0.103658 -0.413062 0.017048 -0.063389 0.119824 -0.078923 -0.059216 -0.003384 0.244138 0.250565 0.357712 0.095118 0.332999 -0.238881 0.104048 -0.005629 0.207669 0.115567 0.138110 -0.173471 -0.297686 -0.042771 -0.162749 -0.443447 0.042826 0.184915 -0.091894 0.290230 0.045790 -0.177893 -0.194011 -0.285307 0.713008 0.508712 0.181838 0.368513 -0.051482 0.112681 0.078843 0.163509 -0.322841 0.118943 -0.240368 0.284398 0.229028 0.151699 0.078048 -0.044879 -0.067935 -0.066068 0.342176 0.037157 0.006303 -0.211342
234 0.023030 0.175663 -0.177036 0.071724 0.180615 0.098204 0.344453 -0.039579 0.431677 0.081670 0.284012 -0.057826 0.345750 0.052507 -0.204858 -0.298498 0.051989 0.159243 -0.013441 0.289161 0.203043 0.021512 0.604034 -0.079061 0.140074 0.122985 -0.198874 0.411015 -0.247436 -0.232527 -0.055868 0.049922 0.130597 -0.487653 -0.093028 0.172141 -0.324157 -0.258651 0.164147 0.066151 -0.071676 0.286204 0.239942 -0.103712 0.134379 0.068457 -0.030476 0.248663 0.436903 0.062329 0.207584 -0.183681 0.297034 0.072855 -0.189204 -0.137363 0.016818 0.021421 0.066373 0.122375 -0.388466 -0.005941 0.009878 -0.383530 -0.398222 -0.268648 -0.119595 0.015831 -0.296876 0.202020 0.239044 0.120090 0.460599 -0.263361 0.141015 -0.434000 0.011941 -0.094526 0.182389 -0.037906 -0.183236 -0.004570 0.221168 0.268065 0.373205 0.058524 0.243192 -0.252596 0.165884 0.099545 0.121093 0.144933 0.103442 -0.242047 -0.246170 -0.194217 -0.031982 -0.423497 0.110486 0.134156 -0.161968 0.288309 -0.065363 -0.266147 -0.127244 -0.187684 0.774055 0.538253 0.260667 0.349863 -0.150793 0.142961 0.086331 0.187990 -0.384938 0.122599 -0.086354 0.236613 0.165981 0.159998 0.080682 -0.120926 -0.034857 -0.153891 0.406774 0.045885 -0.008296 -0.151347
45 -0.056175 0.156504 -0.170878 -0.138200 0.096900 0.153726 0.215519 0.083780 0.441745 0.033687 0.223521 -0.084856 0.402798 0.111802 -0.166946 -0.200965 0.083669 0.303895 -0.105535 0.196741 0.155135 -0.137021 0.385686 -0.204177 0.136170 0.142259 -0.422836 0.272072 -0.203137 -0.252736 0.067599 0.277385 0.244969 -0.285554 -0.210858 0.297139 -0.565844 -0.114488 0.171869 -0.054802 0.049717 0.315856 0.074709 -0.170662 -0.075930 0.020900 0.054490 0.339039 0.561767 0.238404 0.337174 -0.304267 0.276996 0.192945 -0.247064 -0.148802 0.032373 -0.017974 0.031470 0.053971 -0.441347 0.026794 0.042006 -0.386317 -0.392866 -0.051167 -0.011444 0.053943 -0.385691 0.393824 0.073633 0.354185 0.632484 -0.112280 0.150036 -0.426272 0.191884 -0.148518 0.297898 -0.029678 0.004598 -0.179518 0.325090 0.340528 0.301148 -0.016046 0.325100 -0.341340 0.236337 0.170427 0.098281 0.215007 -0.089218 -0.205010 -0.260886 0.077502 -0.126626 -0.603005 0.093322 0.267852 -0.044949 0.233787 -0.141890 -0.022731 -0.159336 -0.321520 0.682032 0.639191 0.222412 0.338211 -0.227348 0.064451 0.064632 0.021116 -0.376093 0.165028 -0.037266 0.184181 -0.040482 0.291009 0.236704 -0.209196 -0.011144 0.084829 0.378526 0.165276 -0.016283 -0.205128
135 -0.019648 0.085116 -0.255587 -0.032749 0.191705 0.034232 0.350574 -0.026014 0.451826 0.087769 0.254309 -0.071322 0.304706 0.055658 -0.232345 -0.319379 0.087735 0.153501 -0.026131 0.239756 0.182094 -0.023748 0.606204 -0.095845 0.198267 0.094235 -0.312381 0.486450 -0.224478 -0.243461 -0.111901 0.097070 0.120755 -0.404006 -0.139014 0.246482 -0.349333 -0.275069 0.145241 0.098337 -0.013953 0.371188 0.161416 -0.102706 0.124376 0.036906 -0.037294 0.235158 0.376324 0.017131 0.237700 -0.207801 0.313464 0.044413 -0.195791 -0.121806 0.036785 0.038682 0.047150 0.097237 -0.343084 0.066804 -0.010602 -0.378988 -0.442533 -0.277597 -0.058568 0.018001 -0.255591 0.224776 0.184980 0.116408 0.567692 -0.309040 0.135165 -0.461593 0.016318 -0.021239 0.224111 -0.103942 -0.135790 -0.062970 0.250885 0.198891 0.385764 0.024364 0.250932 -0.164678 0.199627 0.163727 0.105858 0.216386 -0.017364 -0.305367 -0.301897 -0.215498 0.063076 -0.441288 0.185794 0.133083 -0.154773 0.165074 -0.079941 -0.308058 -0.030440 -0.135681 0.677573 0.573949 0.287476 0.368675 -0.177321 0.147628 0.034487 0.202466 -0.369036 0.037717 -0.083389 0.202946 0.076232 0.101583 0.079237 -0.162048 -0.002337 -0.142590 0.353725 0.099379 -0.008553 -0.151859
273 -0.165853 -0.336145 -0.269491 -0.426644 0.478273 -0.069885 0.139048 0.469329 -0.021709 -0.184137 -0.374229 -0.049591 0.172458 -0.097175 -0.171949 -0.460354 -0.036385 0.503188 -0.252940 -0.355158 0.185048 -0.313196 0.187993 0.005433 -0.168877 0.371325 -0.070399 -0.321820 0.378693 0.134485 0.149557 0.153849 0.124307 -0.196020 -0.223839 0.118664 -0.228755 -0.000831 0.443452 -0.080136 0.501496 0.719172 -0.105830 0.339956 -0.038028 0.206059 -0.272986 0.006343 0.406973 0.259227 0.347359 -0.085444 0.625246 0.823495 0.078470 -0.216345 -0.352249 0.098293 0.289224 -0.197443 -0.221124 -0.448543 -0.622365 -0.215317 -0.194158 0.464687 -0.227550 -0.013014 -0.229307 0.288529 0.082215 0.748869 1.052057 -0.292754 0.194151 -0.774496 0.814848 0.428874 0.017060 -0.585326 -0.102805 -0.542317 0.487855 0.052805 -0.109964 0.037808 0.271772 -0.460089 0.285076 0.714521 0.271915 0.693372 -0.431047 -0.463947 -0.566228 0.219332 0.162270 -0.956046 -0.220377 0.078695 -0.775527 -0.061636 0.185246 -0.105470 0.165217 0.271346 0.439742 0.117820 -0.386014 -0.385858 -0.237481 -0.384929 -0.384243 -0.079407 0.312315 0.034488 -0.101337 0.317140 -0.509413 0.010752 -0.210912 -0.457783 -0.145082 -0.117404 -0.346124 0.765208 -0.052913 -0.483053
204 -0.394962 0.561286 0.380336 -0.108323 -0.141707 0.229537 0.073704 0.081355 0.274849 0.152169 -0.270127 -0.471943 0.252427 -0.298931 -0.553298 0.017103 0.269275 0.366438 -0.258182 0.525237 0.194204 0.465331 0.118020 -0.247832 -0.759218 0.693070 0.122730 0.118396 0.094535 -0.547421 0.785550 -0.104635 0.312738 -0.394825 -0.045073 0.667145 -0.396479 0.319322 0.344471 -0.277173 -0.118451 0.381608 0.151168 -0.370649 0.033942 0.037976 -0.045352 -0.252320 0.237556 0.086932 -0.176155 -0.081441 0.171565 0.183431 0.335604 -0.329311 0.463617 -0.204536 0.539764 -0.146041 -0.185648 -0.327096 -0.160067 -0.371622 0.252928 0.081401 -0.266532 -0.056072 -0.296315 -0.076071 -0.196227 -0.074647 0.904051 0.024120 0.358572 -0.364745 0.656820 0.385925 0.233388 -0.062002 0.003001 -0.540345 0.384433 0.025500 0.042475 0.488153 -0.065524 -0.924316 0.280196 0.302658 0.304357 0.312281 -0.182525 0.004968 -0.308290 0.135435 -0.128177 -0.528096 0.223131 0.530865 0.002122 -0.170729 0.254093 -0.457953 -0.099219 -0.133373 -0.142109 0.130779 0.221825 -0.552843 -0.324588 -0.266514 0.289194 0.208167 -0.038009 0.327075 -0.377201 0.810817 0.044006 0.244099 -0.378403 -0.210713 -0.285538 0.404983 -0.091983 0.244242 0.353566 -0.281459
274 -0.022356 -0.118941 -0.109149 -0.532626 0.368603 -0.179188 0.232938 0.255545 0.264545 -0.069075 -0.226018 -0.261224 -0.004388 -0.121289 -0.205145 -0.300020 0.305964 -0.038638 -0.344754 0.320969 0.572114 -0.452976 0.079645 0.044355 -0.708483 0.253238 -0.482781 0.172672 -0.120954 -0.378111 0.231826 -0.127686 -0.236091 -0.058820 -0.302252 0.435739 0.151388 -0.021663 -0.028503 -0.276436 0.062338 0.394235 0.168717 -0.121202 0.017844 -0.168825 0.083146 0.243453 0.311787 0.057312 0.024019 0.257152 0.060846 0.263908 -0.045042 -0.140996 -0.074682 0.205012 0.212958 -0.090510 -0.394874 -0.542175 0.066234 -0.225817 -0.063471 -0.133121 -0.397227 -0.470097 -0.202796 0.063859 0.244767 -0.153181 0.492030 -0.189563 -0.007821 -0.162386 0.134371 -0.087562 0.279887 0.262615 0.037633 -0.051082 0.306295 -0.212173 -0.142144 -0.574047 -0.266916 -0.070789 0.451495 0.216416 0.099069 0.450267 0.083339 -0.312936 0.070105 0.477531 -0.143175 -0.399369 0.235931 0.246294 -0.414549 -0.290108 0.472883 -0.195837 -0.050617 -0.123490 -0.040907 0.232603 -0.570813 -0.017204 0.013995 -0.197479 0.169904 0.380237 0.072782 0.438217 -0.334210 0.018188 0.199421 -0.035942 -0.287994 -0.394239 0.573452 0.647878 0.264072 0.244706 0.284913 -0.390336
127 -0.148243 0.202549 0.182005 -0.081073 0.628044 0.176803 0.517615 -0.177446 -0.032910 0.014984 0.359246 0.028479 0.217667 -0.051777 -0.242110 -0.144984 0.250490 0.057709 -0.102085 0.336936 0.353469 -0.160206 0.760689 -0.383191 -0.167145 0.245149 -0.103574 -0.059535 0.100802 -0.049387 0.180615 -0.102026 -0.065419 -0.043701 0.287318 -0.248684 0.175240 -0.138989 0.599592 0.118015 -0.131741 -0.046656 -0.070829 -0.356433 -0.152412 0.154975 -0.121408 -0.175546 0.361001 -0.115380 0.290675 -0.143170 0.668962 0.418758 0.359176 0.034026 -0.187430 -0.292824 0.183555 0.157712 -0.070612 -0.749840 0.004530 0.087706 0.087044 0.002111 0.117111 -0.142911 -0.126652 0.095989 0.106026 0.265136 0.633075 -0.274998 0.571268 -0.470825 0.579028 0.258644 0.388262 0.354331 -0.285030 -0.149570 0.079185 -0.417648 -0.012860 -0.026548 -0.253547 -0.263871 0.260460 0.432703 0.192758 0.022912 0.341736 -0.164258 -0.038333 -0.150358 -0.332642 -0.252140 0.131501 0.232090 -0.566903 0.114309 0.195638 -0.427222 0.461852 0.195460 0.141250 0.066455 0.005527 -0.584073 -0.144076 -0.388841 -0.204546 0.079606 -0.097628 -0.039436 -0.309322 -0.001624 -0.251780 -0.286492 -0.375286 -0.191116 -0.032621 0.131256 0.187800 -0.201929 0.196327 -0.316685
25 -0.004659 -0.032724 -0.239550 -0.123089 0.226710 -0.012875 0.356208 -0.007817 0.468596 0.066131 0.255971 -0.058430 0.318158 0.047047 -0.240962 -0.376613 0.085197 0.124098 -0.015198 0.199560 0.202306 -0.119374 0.634827 -0.165663 0.224374 0.049375 -0.401425 0.509050 -0.198549 -0.257254 -0.147871 0.140613 0.039713 -0.395958 -0.176104 0.264953 -0.408628 -0.246493 0.124604 0.076451 -0.022002 0.379894 0.114799 -0.141046 0.114983 0.053052 0.016201 0.259546 0.370096 0.024233 0.240568 -0.215924 0.355262 0.055214 -0.205049 -0.105819 0.041719 0.001645 0.015865 0.147629 -0.372098 0.098230 -0.021189 -0.363478 -0.427640 -0.274770 -0.025737 0.036987 -0.229284 0.254466 0.163789 0.113030 0.595834 -0.346078 0.153463 -0.478285 0.005133 -0.039100 0.246597 -0.125826 -0.143046 -0.078407 0.253657 0.131061 0.406617 -0.000301 0.262909 -0.145484 0.163148 0.200662 0.099462 0.215662 -0.020877 -0.300112 -0.316764 -0.192232 0.103594 -0.454596 0.237503 0.134355 -0.212138 0.161262 -0.082663 -0.339541 0.015797 -0.144345 0.675854 0.633045 0.298437 0.435579 -0.194556 0.199297 0.031598 0.175091 -0.386177 0.004308 -0.087944 0.191990 0.044478 0.091657 0.080896 -0.170843 0.000633 -0.141211 0.341720 0.122836 -0.003886 -0.190232
183 -0.036624 -0.117114 -0.114876 -0.462442 0.349033 -0.167489 0.209713 0.206611 0.254534 -0.060923 -0.208132 -0.292687 0.009931 -0.065300 -0.219184 -0.240808 0.314923 -0.037911 -0.283210 0.328543 0.544591 -0.433459 0.080033 0.053410 -0.667327 0.265375 -0.422348 0.194768 -0.166924 -0.359201 0.233957 -0.137716 -0.194660 -0.031282 -0.302012 0.414907 0.130275 -0.026137 0.007534 -0.271781 0.057221 0.381237 0.156033 -0.130793 0.029401 -0.170368 0.063414 0.271943 0.305488 0.054765 -0.006039 0.252892 0.061961 0.264482 -0.040173 -0.192263 -0.038716 0.168955 0.242329 -0.095298 -0.402508 -0.541634 0.088333 -0.237463 -0.071566 -0.164616 -0.350782 -0.396899 -0.202858 0.075310 0.185746 -0.113735 0.485251 -0.158639 -0.018214 -0.162089 0.121081 -0.117851 0.319551 0.285848 0.062941 -0.057046 0.324896 -0.220038 -0.163265 -0.579762 -0.288045 -0.082207 0.466133 0.287961 0.109068 0.429599 0.079953 -0.288106 0.111515 0.505209 -0.143667 -0.410148 0.216821 0.249364 -0.408694 -0.284718 0.469368 -0.190521 -0.045297 -0.157187 -0.084738 0.230259 -0.555275 -0.024283 0.044934 -0.170821 0.190576 0.401295 0.081501 0.436719 -0.319021 0.027262 0.175787 -0.020105 -0.272997 -0.359430 0.572875 0.678111 0.324268 0.253590 0.270376 -0.373610
242 0.004488 0.238000 -0.177268 0.080340 0.046843 0.121951 0.313238 0.010759 0.442003 0.130851 0.187157 -0.158926 0.460811 -0.033089 -0.204813 -0.313682 -0.007174 0.282809 -0.042330 0.287949 0.193680 0.080625 0.544749 -0.143472 0.148659 0.090071 -0.235489 0.418011 -0.208847 -0.269823 0.031665 0.090632 0.112473 -0.422424 -0.122335 0.219022 -0.421372 -0.148628 0.100108 0.052271 -0.034175 0.330052 0.190943 -0.129538 0.030487 -0.002447 -0.011256 0.238552 0.436124 0.172283 0.198210 -0.207997 0.270790 0.064645 -0.244405 -0.143802 -0.006747 -0.012237 0.035490 0.098001 -0.349867 0.033427 0.010025 -0.444822 -0.460696 -0.175717 -0.157422 0.030548 -0.336525 0.187570 0.191583 0.133335 0.551389 -0.233398 0.132633 -0.430357 0.048243 -0.076118 0.100297 -0.096860 -0.095621 -0.038766 0.297038 0.237413 0.385648 0.087534 0.328901 -0.217238 0.135669 0.048626 0.197730 0.154314 0.077512 -0.181983 -0.326014 -0.046343 -0.084064 -0.457804 0.085803 0.177246 -0.115445 0.236286 0.016335 -0.145228 -0.157546 -0.279307 0.716084 0.552315 0.216170 0.383521 -0.075818 0.120508 0.046793 0.169171 -0.285094 0.098127 -0.175151 0.305749 0.185928 0.169855 0.093252 -0.131421 -0.039859 -0.091670 0.365510 0.067958 -0.022470 -0.213584
116 -0.013335 0.266428 -0.254746 0.057548 0.094715 0.088687 0.370234 -0.008330 0.441698 0.141456 0.205871 -0.144001 0.438600 -0.019958 -0.232287 -0.322303 0.031085 0.277343 -0.037049 0.295900 0.216199 0.090601 0.537240 -0.194397 0.168011 0.086316 -0.304244 0.492315 -0.206028 -0.254537 0.038255 0.126106 0.117346 -0.398221 -0.083375 0.256447 -0.374162 -0.131239 0.114743 0.081552 -0.012344 0.351131 0.148079 -0.173776 0.031474 -0.055096 -0.000059 0.185722 0.364519 0.146918 0.205210 -0.199627 0.303767 0.054170 -0.239469 -0.117834 -0.010243 0.008259 0.015533 0.076641 -0.369519 0.068353 0.043728 -0.443500 -0.491082 -0.208278 -0.073237 0.011212 -0.303004 0.213896 0.165965 0.107241 0.628548 -0.266136 0.118517 -0.454044 0.037033 -0.031682 0.156267 -0.085294 -0.071590 -0.043848 0.280144 0.181966 0.375573 0.094908 0.323980 -0.161765 0.157100 0.059868 0.203835 0.167496 0.054107 -0.183805 -0.309959 -0.048824 -0.083006 -0.397964 0.139187 0.184934 -0.125978 0.146563 0.032908 -0.216590 -0.101060 -0.235434 0.640574 0.549432 0.205295 0.410170 -0.042507 0.127071 0.024668 0.191847 -0.314953 0.063523 -0.227290 0.271429 0.167331 0.112772 0.081897 -0.124528 -0.001882 -0.068711 0.314081 0.065574 0.004732 -0.211034
38 -0.050969 -0.117801 0.008990 -0.209883 0.307560 -0.181371 0.162737 0.113003 0.292937 0.202903 -0.162169 -0.122769 0.177848 -0.324387 -0.185480 -0.546811 -0.040788 -0.086735 0.007884 0.051097 0.410845 0.097674 0.196909 -0.103260 -0.506637 0.196024 0.349344 -0.072724 0.293529 -0.050985 0.258999 -0.398559 -0.354439 -0.464235 0.150292 0.324100 -0.365079 -0.077310 -0.194714 -0.123875 -0.049007 0.415745 0.302019 -0.104282 0.065473 0.305096 0.167491 -0.180780 0.496909 0.041286 -0.346012 0.153296 0.074478 0.297793 -0.064514 -0.315722 -0.077687 -0.170896 0.251393 0.165090 -0.379277 -0.485311 -0.483994 -0.102512 -0.141324 -0.297559 -0.647432 -0.025561 0.007326 -0.143946 -0.024671 0.068853 0.229618 -0.452599 0.512789 -0.167231 0.134115 -0.015449 -0.099517 -0.066685 -0.482847 0.014969 0.034583 0.007810 0.157677 0.297721 0.185434 -0.171155 0.172085 0.187635 0.495139 0.057390 -0.011226 -0.059584 -0.298103 0.012174 0.087968 -0.192116 0.399179 -0.140604 -0.948662 0.462780 0.320870 -0.610199 -0.075694 -0.019351 0.329513 -0.278500 -0.352836 -0.223015 0.046311 -0.330996 0.109282 0.160882 0.427890 0.227211 -0.082837 0.440912 0.081864 0.137576 -0.418120 -0.168419 -0.193570 -0.445554 0.076310 0.211863 -0.013325 -0.505021
79 -0.050758 -0.153047 -0.007682 -0.252480 0.325145 -0.200132 0.153034 0.151503 0.322062 0.207011 -0.178940 -0.144502 0.160097 -0.326249 -0.194731 -0.564093 -0.036750 -0.094331 0.010361 0.027158 0.408460 0.074665 0.156096 -0.094593 -0.507773 0.193460 0.348698 -0.076126 0.291495 -0.050716 0.252697 -0.374656 -0.334968 -0.482366 0.130981 0.338284 -0.376910 -0.053179 -0.238194 -0.135831 -0.029582 0.446782 0.302867 -0.083087 0.077397 0.304261 0.186427 -0.159695 0.502739 0.063219 -0.369784 0.161370 0.060952 0.297514 -0.089807 -0.353471 -0.066818 -0.146339 0.264598 0.153053 -0.415898 -0.469634 -0.509137 -0.110677 -0.156730 -0.311880 -0.680231 -0.013251 0.013137 -0.142707 -0.030888 0.067586 0.217268 -0.447110 0.500578 -0.162640 0.115218 -0.041248 -0.117833 -0.086202 -0.471077 0.019825 0.035247 0.032777 0.153669 0.283040 0.205418 -0.174376 0.177575 0.196853 0.499659 0.070371 -0.044107 -0.063807 -0.295030 0.026999 0.107344 -0.208000 0.397215 -0.149394 -0.950941 0.466954 0.308466 -0.608708 -0.102404 -0.014168 0.328120 -0.290456 -0.360714 -0.218610 0.038344 -0.324733 0.135543 0.154417 0.445849 0.248057 -0.048252 0.445921 0.081759 0.167118 -0.404510 -0.159129 -0.200703 -0.459673 0.064975 0.235439 -0.015834 -0.508191
202 0.050908 0.203334 -0.216215 0.017769 0.137243 0.091919 0.299756 -0.008668 0.378004 0.064266 0.252306 -0.057932 0.408407 0.048951 -0.182913 -0.255287 0.066518 0.220960 -0.033041 0.295913 0.201435 -0.020356 0.503649 -0.129264 0.135077 0.140289 -0.280511 0.382907 -0.225334 -0.185151 0.049112 0.162226 0.118873 -0.431469 -0.092755 0.168562 -0.391256 -0.173200 0.158350 0.040510 -0.033194 0.248875 0.202262 -0.139785 0.045092 0.038352 0.026380 0.255419 0.463497 0.164738 0.235217 -0.173693 0.275109 0.119191 -0.282461 -0.134539 -0.016916 -0.015337 0.032854 0.130887 -0.446245 -0.016514 0.049652 -0.368508 -0.416908 -0.235775 -0.036523 0.012390 -0.301141 0.310349 0.211818 0.217219 0.454574 -0.220716 0.105653 -0.421901 0.027524 -0.153656 0.190864 -0.021998 -0.113029 -0.012125 0.235119 0.305091 0.345873 0.059083 0.272544 -0.256483 0.172579 0.083072 0.152022 0.133539 0.109788 -0.183379 -0.215622 -0.048590 -0.118882 -0.412672 0.079927 0.183882 -0.155445 0.282961 -0.045959 -0.190291 -0.159370 -0.268147 0.759641 0.526699 0.212410 0.354135 -0.103725 0.163052 0.073214 0.139385 -0.391169 0.192866 -0.167416 0.173858 0.144742 0.174606 0.096916 -0.124332 -0.023838 -0.046914 0.435361 0.090365 -0.009775 -0.199379
150 -0.056402 -0.207337 -0.148399 -0.504624 0.380604 -0.188932 0.192258 0.173273 0.244140 -0.094497 -0.215045 -0.298840 0.005091 -0.048515 -0.172700 -0.274374 0.333558 -0.041270 -0.228242 0.279843 0.507736 -0.487425 0.085193 0.061078 -0.663005 0.264536 -0.372542 0.146404 -0.201691 -0.334687 0.232888 -0.127050 -0.203350 -0.018741 -0.293304 0.392888 0.148075 -0.018220 0.051741 -0.277890 0.078583 0.392269 0.132911 -0.101628 0.057830 -0.149029 0.034624 0.291489 0.288251 0.068957 -0.021255 0.260091 0.057424 0.295492 -0.075251 -0.205310 -0.082776 0.174540 0.224924 -0.090943 -0.419817 -0.594472 0.062451 -0.226663 -0.078781 -0.151386 -0.360763 -0.414028 -0.215498 0.110150 0.125477 -0.025905 0.517539 -0.142915 -0.037975 -0.183253 0.123949 -0.101591 0.290678 0.238321 0.070343 -0.043444 0.375484 -0.223393 -0.228739 -0.570881 -0.272233 -0.090014 0.481867 0.354282 0.085097 0.441895 0.050378 -0.281642 0.126281 0.548107 -0.104844 -0.427847 0.190384 0.233410 -0.448632 -0.330126 0.481466 -0.149238 -0.000977 -0.115797 -0.055536 0.227650 -0.551565 -0.026361 0.076956 -0.137999 0.131710 0.396843 0.111575 0.406928 -0.299209 0.025946 0.112340 -0.040937 -0.285427 -0.363270 0.589370 0.635534 0.292273 0.335388 0.251952 -0.376728
300 -0.004726 -0.085445 -0.100287 -0.480919 0.341952 -0.164677 0.233365 0.242418 0.269096 -0.044300 -0.214707 -0.273368 0.016509 -0.117420 -0.241012 -0.249631 0.295667 -0.039257 -0.335000 0.343190 0.577174 -0.418296 0.071318 0.047020 -0.685211 0.243989 -0.483364 0.223530 -0.125162 -0.358093 0.218660 -0.141306 -0.227715 -0.051248 -0.324316 0.446243 0.132365 -0.021402 -0.029167 -0.278692 0.053408 0.385921 0.173218 -0.138640 0.012745 -0.183777 0.073928 0.263628 0.314320 0.036173 0.019400 0.249037 0.067577 0.257608 -0.028879 -0.153718 -0.038385 0.170711 0.221490 -0.088100 -0.386583 -0.523458 0.092063 -0.234263 -0.066528 -0.146255 -0.360465 -0.434831 -0.189274 0.052888 0.242772 -0.168715 0.473413 -0.186994 -0.015931 -0.145567 0.129377 -0.109222 0.290249 0.280192 0.028713 -0.055480 0.310120 -0.239424 -0.113116 -0.591850 -0.273540 -0.057595 0.452283 0.216691 0.119190 0.433599 0.101633 -0.295689 0.090532 0.488234 -0.147643 -0.396031 0.245763 0.252171 -0.393673 -0.295468 0.476853 -0.199436 -0.061803 -0.167864 -0.076006 0.233195 -0.579655 0.010398 0.038729 -0.200159 0.195292 0.389519 0.083931 0.445436 -0.359432 0.028273 0.223837 -0.030295 -0.274789 -0.390606 0.585951 0.688262 0.295863 0.211952 0.280890 -0.388318
13 0.036068 0.272797 -0.210843 0.132721 0.055637 0.110573 0.311324 -0.014198 0.405476 0.126801 0.193987 -0.155757 0.437201 -0.047627 -0.204974 -0.326245 -0.019092 0.305598 -0.031671 0.312317 0.194575 0.099883 0.543466 -0.153229 0.150570 0.116643 -0.208605 0.428781 -0.215860 -0.246791 0.036019 0.116239 0.138413 -0.448107 -0.094421 0.175837 -0.379197 -0.137401 0.132728 0.093558 -0.037089 0.361512 0.181771 -0.124259 0.048528 -0.004951 -0.031020 0.205463 0.404114 0.182610 0.176130 -0.188701 0.315387 0.082040 -0.255107 -0.162309 -0.048872 0.028329 0.041263 0.072593 -0.354319 0.031336 0.031681 -0.467233 -0.469452 -0.198356 -0.149397 0.019861 -0.333076 0.186265 0.199379 0.131897 0.571721 -0.255987 0.110675 -0.448274 0.015660 -0.053490 0.116686 -0.103478 -0.078977 -0.016312 0.258507 0.238598 0.362168 0.092201 0.330231 -0.226116 0.126291 0.022377 0.216077 0.137339 0.099576 -0.212919 -0.323003 -0.078833 -0.105524 -0.449884 0.062507 0.175804 -0.100350 0.249447 0.028213 -0.192471 -0.154000 -0.259116 0.725188 0.524059 0.210368 0.368276 -0.061262 0.128540 0.054818 0.192324 -0.336321 0.093617 -0.228564 0.283472 0.212232 0.139057 0.081772 -0.066857 -0.039960 -0.086134 0.338544 0.062887 0.008587 -0.194831
83 -0.061315 0.174442 -0.127996 -0.105868 0.055923 0.172582 0.236777 0.090024 0.435558 0.064458 0.191080 -0.090192 0.453595 0.059091 -0.133138 -0.166647 0.063145 0.330005 -0.095996 0.178338 0.157284 -0.090699 0.363148 -0.201557 0.133007 0.129707 -0.406142 0.253730 -0.173089 -0.247669 0.083516 0.258469 0.214309 -0.262567 -0.219122 0.294772 -0.544488 -0.078057 0.163652 -0.059112 0.084871 0.297633 0.070692 -0.142828 -0.111967 0.014201 0.012909 0.326242 0.574048 0.227108 0.380747 -0.323153 0.258779 0.207888 -0.257115 -0.107925 0.032367 -0.035375 0.003351 0.037424 -0.401110 0.023521 0.029353 -0.400186 -0.417184 0.001698 -0.022101 0.062494 -0.391971 0.391066 0.057919 0.360432 0.681145 -0.082363 0.157124 -0.436426 0.230080 -0.129026 0.225074 -0.047077 -0.000307 -0.188744 0.385428 0.313510 0.301040 -0.002965 0.345408 -0.332103 0.253377 0.153102 0.132166 0.210649 -0.067674 -0.175047 -0.280117 0.144561 -0.125821 -0.588612 0.088233 0.255091 -0.027987 0.186753 -0.106123 0.071910 -0.166243 -0.331799 0.647836 0.647790 0.186209 0.364929 -0.177447 0.013510 0.017982 -0.008094 -0.317160 0.153176 -0.077410 0.229923 -0.015269 0.263946 0.234177 -0.268247 -0.005649 0.080137 0.361195 0.176455 -0.041233 -0.222118
223 -0.108508 0.161813 0.177752 -0.066827 0.653036 0.221594 0.531055 -0.184325 -0.016262 -0.013192 0.357971 0.023101 0.184385 -0.026013 -0.264008 -0.161463 0.253604 0.016579 -0.130967 0.334522 0.377617 -0.161024 0.738924 -0.387760 -0.166254 0.264242 -0.098126 -0.078528 0.100825 -0.068135 0.155845 -0.102485 -0.077167 -0.058364 0.312937 -0.259294 0.176266 -0.130577 0.613731 0.092836 -0.143930 -0.019218 -0.075408 -0.378837 -0.134025 0.173984 -0.089535 -0.164743 0.367049 -0.067290 0.277608 -0.095009 0.706049 0.415751 0.401789 0.009055 -0.181461 -0.301319 0.197383 0.166660 -0.101689 -0.745351 0.021419 0.087611 0.096853 -0.035463 0.098463 -0.154559 -0.132664 0.092713 0.115200 0.263006 0.629492 -0.280761 0.593411 -0.468110 0.560468 0.234166 0.380995 0.393594 -0.299618 -0.148876 0.045672 -0.392208 -0.017258 -0.003462 -0.269534 -0.251794 0.258447 0.474957 0.211258 0.021147 0.328895 -0.158901 -0.029241 -0.157651 -0.368479 -0.249446 0.111693 0.223576 -0.570499 0.137588 0.184360 -0.495060 0.439010 0.206419 0.163537 0.079046 -0.004799 -0.602221 -0.143291 -0.397205 -0.161276 0.068495 -0.115265 -0.020510 -0.270501 -0.039927 -0.241539 -0.228810 -0.403393 -0.136978 -0.042521 0.144908 0.195439 -0.223083 0.231328 -0.309775
33 -0.017825 -0.099590 -0.094000 -0.486180 0.348761 -0.170509 0.245957 0.222022 0.263658 -0.032586 -0.217265 -0.281224 0.043258 -0.113972 -0.231334 -0.253112 0.283704 -0.020710 -0.309947 0.354633 0.582394 -0.417413 0.124217 0.033821 -0.692262 0.248610 -0.463828 0.231213 -0.126693 -0.367241 0.236587 -0.153866 -0.247436 -0.057657 -0.308631 0.438399 0.125348 -0.018844 -0.030151 -0.261575 0.058118 0.386886 0.188986 -0.152097 0.012160 -0.168877 0.066953 0.250457 0.308204 0.039059 0.021192 0.250225 0.063086 0.240761 -0.056109 -0.137239 -0.045276 0.160065 0.226289 -0.075279 -0.381147 -0.534561 0.095738 -0.234947 -0.073749 -0.154276 -0.363131 -0.429781 -0.186390 0.056886 0.230656 -0.156579 0.479836 -0.185664 -0.008231 -0.156664 0.127331 -0.098646 0.298372 0.279268 0.027978 -0.053735 0.313855 -0.234225 -0.115918 -0.562064 -0.276848 -0.058010 0.453305 0.218142 0.131299 0.417359 0.109766 -0.276573 0.086728 0.481804 -0.148315 -0.386065 0.235600 0.255462 -0.411285 -0.273183 0.453423 -0.188287 -0.050856 -0.151840 -0.065597 0.224326 -0.558580 -0.005841 0.046840 -0.191678 0.190697 0.389778 0.076983 0.421675 -0.351111 0.046497 0.213926 -0.034936 -0.271268 -0.386972 0.563641 0.641495 0.314633 0.199949 0.256695 -0.384671
250 0.000454 0.233334 -0.197100 0.041552 0.047984 0.114721 0.272323 0.008082 0.396546 0.115976 0.199631 -0.128625 0.433196 0.001667 -0.204029 -0.297782 0.012196 0.298612 -0.040254 0.267600 0.182161 0.031629 0.485922 -0.182092 0.143138 0.115201 -0.284501 0.381520 -0.195041 -0.244059 0.062091 0.165774 0.152718 -0.379637 -0.113933 0.225537 -0.457978 -0.136087 0.133586 0.044597 -0.017376 0.328527 0.158719 -0.157436 -0.018505 -0.008091 0.000444 0.242066 0.434166 0.192795 0.213331 -0.220805 0.279981 0.110797 -0.257369 -0.145274 -0.040880 -0.006570 0.021193 0.080084 -0.376632 0.016329 0.022574 -0.420021 -0.455712 -0.153516 -0.090559 0.036147 -0.320406 0.249344 0.154381 0.208846 0.574105 -0.222496 0.121822 -0.424384 0.081993 -0.068136 0.180623 -0.086374 -0.061095 -0.064730 0.269200 0.248561 0.342564 0.077008 0.334376 -0.225884 0.149326 0.075176 0.170670 0.152345 0.042252 -0.195054 -0.294562 -0.004620 -0.116276 -0.441707 0.096732 0.188838 -0.091664 0.234397 -0.018112 -0.143969 -0.150788 -0.273369 0.685356 0.519124 0.195263 0.353218 -0.088729 0.100958 0.032700 0.126966 -0.315600 0.128258 -0.188739 0.238531 0.133710 0.170384 0.115785 -0.124961 -0.034495 -0.037871 0.330110 0.072371 -0.026261 -0.212544
108 0.018895 0.232306 -0.239644 -0.009522 0.180421 0.100202 0.302475 0.000724 0.371842 0.077883 0.291268 -0.055150 0.385371 0.086412 -0.220925 -0.272434 0.050207 0.216656 -0.032022 0.273449 0.199245 -0.028115 0.524174 -0.115910 0.159372 0.144994 -0.241620 0.374399 -0.222992 -0.163717 0.041238 0.167241 0.157783 -0.474040 -0.081733 0.151124 -0.419670 -0.214840 0.189981 0.046856 -0.035169 0.239872 0.226565 -0.157225 0.071278 0.050442 0.015127 0.265900 0.480720 0.152852 0.223689 -0.173699 0.308853 0.166997 -0.265766 -0.143870 -0.032561 -0.022977 0.044691 0.132997 -0.473420 -0.031662 0.019705 -0.369970 -0.427946 -0.241137 -0.018938 0.046632 -0.297243 0.309077 0.227749 0.253994 0.428554 -0.237999 0.086760 -0.426208 0.035346 -0.147123 0.231450 -0.034009 -0.150557 -0.022462 0.187540 0.344326 0.346702 0.089779 0.284557 -0.298580 0.158154 0.094371 0.139954 0.123427 0.085640 -0.212400 -0.225218 -0.100801 -0.122172 -0.423059 0.070448 0.166389 -0.196099 0.342000 -0.079212 -0.241065 -0.168226 -0.274666 0.808947 0.491489 0.233804 0.342501 -0.136561 0.163778 0.090341 0.118157 -0.437653 0.214311 -0.170031 0.202029 0.132581 0.185111 0.108916 -0.118005 -0.040801 -0.089789 0.429086 0.086771 -0.018677 -0.204408
134 -0.038744 -0.149704 0.000158 -0.229773 0.321138 -0.191219 0.174413 0.148739 0.337536 0.194116 -0.185355 -0.145712 0.150536 -0.338585 -0.199554 -0.585763 -0.050667 -0.103985 -0.011054 0.025184 0.428335 0.087923 0.163781 -0.123011 -0.526839 0.205403 0.349779 -0.088802 0.305556 -0.071930 0.269741 -0.394704 -0.347066 -0.504068 0.151392 0.349562 -0.374827 -0.054865 -0.243107 -0.142315 -0.045250 0.442961 0.294699 -0.088127 0.086050 0.308223 0.201196 -0.179535 0.505982 0.077543 -0.356929 0.161612 0.070064 0.300066 -0.073336 -0.365150 -0.066216 -0.141967 0.279468 0.151446 -0.410144 -0.468449 -0.511652 -0.097496 -0.141353 -0.310500 -0.689451 0.001998 0.013528 -0.160282 -0.042100 0.046773 0.221440 -0.443917 0.516312 -0.167754 0.105143 -0.049763 -0.130140 -0.075303 -0.482707 0.012709 0.015418 0.022532 0.180130 0.302668 0.192443 -0.165944 0.171026 0.191478 0.495128 0.080515 -0.027936 -0.048469 -0.295742 0.014763 0.100642 -0.207480 0.398692 -0.148095 -0.930767 0.475332 0.320110 -0.626168 -0.113402 -0.019664 0.321769 -0.286754 -0.352991 -0.227644 0.038516 -0.317137 0.139623 0.155978 0.442972 0.238716 -0.034546 0.434949 0.089934 0.161333 -0.407307 -0.142451 -0.202834 -0.443922 0.062979 0.244610 0.003503 -0.494685
6 -0.051525 -0.135180 0.007374 -0.234407 0.297782 -0.186900 0.155543 0.147251 0.320082 0.201487 -0.181510 -0.158421 0.146002 -0.330395 -0.180804 -0.574558 -0.049527 -0.107200 0.006810 0.029739 0.405262 0.086867 0.147632 -0.107209 -0.515581 0.200394 0.356814 -0.087524 0.289799 -0.054878 0.267973 -0.389285 -0.330007 -0.472427 0.141789 0.360210 -0.384022 -0.054058 -0.249344 -0.153478 -0.058725 0.443426 0.323359 -0.092242 0.071680 0.312540 0.203074 -0.175310 0.513417 0.067040 -0.380550 0.172103 0.034482 0.302235 -0.080473 -0.366348 -0.062808 -0.155806 0.270778 0.149798 -0.411697 -0.450021 -0.507213 -0.101890 -0.151832 -0.329477 -0.697498 -0.009576 -0.000204 -0.162857 -0.040139 0.045759 0.212266 -0.427958 0.510091 -0.158451 0.106035 -0.040333 -0.108236 -0.073814 -0.475453 0.025581 0.028945 0.050761 0.176816 0.293413 0.207642 -0.182041 0.173278 0.173061 0.504876 0.079412 -0.034535 -0.058881 -0.300853 0.022971 0.094516 -0.204339 0.416721 -0.154696 -0.928165 0.469129 0.322426 -0.627618 -0.118803 -0.021949 0.332776 -0.271760 -0.338042 -0.217760 0.038874 -0.312389 0.140061 0.167978 0.435068 0.260067 -0.041860 0.449375 0.089606 0.169960 -0.423502 -0.157065 -0.191062 -0.465165 0.067850 0.240192 0.008953 -0.504008
18 -0.143807 0.201052 0.169795 -0.102483 0.676990 0.196260 0.548156 -0.186087 -0.014145 0.005682 0.383066 0.029344 0.224088 -0.038121 -0.259671 -0.160034 0.259089 0.055531 -0.127032 0.360061 0.377923 -0.171568 0.786055 -0.390054 -0.170470 0.263761 -0.128969 -0.061765 0.092933 -0.061198 0.185906 -0.092416 -0.054366 -0.047118 0.289896 -0.259533 0.176571 -0.139535 0.611792 0.123873 -0.144093 -0.033756 -0.073848 -0.369884 -0.149839 0.161838 -0.125552 -0.164927 0.364403 -0.101917 0.297390 -0.138100 0.684771 0.424923 0.367747 0.029538 -0.184506 -0.294999 0.189780 0.156746 -0.077528 -0.768002 0.017532 0.087130 0.091085 -0.008412 0.120256 -0.159888 -0.124786 0.106683 0.113005 0.269020 0.655602 -0.296015 0.585773 -0.481549 0.582774 0.261841 0.412190 0.378262 -0.291241 -0.144765 0.087370 -0.423352 -0.024101 -0.027544 -0.263904 -0.270595 0.269218 0.456478 0.197108 0.025601 0.344357 -0.178766 -0.033775 -0.153141 -0.350081 -0.256898 0.136411 0.233748 -0.571275 0.120767 0.189188 -0.439030 0.464609 0.190289 0.154771 0.079480 0.004076 -0.595326 -0.153184 -0.393512 -0.199559 0.085451 -0.115071 -0.035059 -0.309775 -0.014954 -0.238170 -0.286609 -0.375412 -0.198733 -0.026512 0.140006 0.211003 -0.204505 0.201903 -0.330130
284 -0.047645 -0.137235 0.005640 -0.248436 0.316173 -0.195369 0.179951 0.144978 0.347084 0.196903 -0.191425 -0.156990 0.163058 -0.344403 -0.205493 -0.595892 -0.046661 -0.104518 -0.012747 0.045700 0.431886 0.105792 0.169401 -0.122969 -0.543898 0.217496 0.358079 -0.079970 0.298327 -0.085179 0.283622 -0.393194 -0.349126 -0.509966 0.144019 0.383836 -0.384735 -0.056581 -0.231073 -0.157478 -0.065231 0.450104 0.321361 -0.100710 0.090560 0.310474 0.214602 -0.184326 0.522711 0.066119 -0.366135 0.175326 0.054903 0.300202 -0.077521 -0.371654 -0.047590 -0.159212 0.280831 0.156387 -0.429751 -0.474980 -0.518175 -0.107331 -0.148468 -0.330202 -0.710857 -0.005587 0.001341 -0.159858 -0.035162 0.035331 0.243898 -0.462467 0.527184 -0.183606 0.112946 -0.043540 -0.125163 -0.071589 -0.489462 0.008920 0.030803 0.029067 0.192601 0.319511 0.206753 -0.188402 0.183147 0.194944 0.517103 0.089754 -0.026309 -0.054408 -0.312752 0.012867 0.100450 -0.222658 0.421460 -0.140861 -0.964005 0.480371 0.346741 -0.659088 -0.119966 -0.030453 0.337064 -0.265174 -0.353042 -0.220369 0.039480 -0.318286 0.145027 0.176467 0.435299 0.267419 -0.058773 0.477527 0.101606 0.177504 -0.438539 -0.153321 -0.204964 -0.458024 0.070727 0.251712 0.016005 -0.514056
80 0.267480 -0.521610 -0.099189 0.214613 0.344878 -0.017749 0.773004 -0.116656 0.481580 -0.398855 0.199258 -0.081386 0.444785 -0.397324 -0.380057 -0.788477 0.061388 0.104152 -0.415062 -0.009483 0.411379 -0.309067 0.781857 -0.531137 -0.260037 0.201308 -0.452563 -0.331982 0.230061 -0.420869 0.033111 -0.305590 -0.370245 -0.391371 -0.245502 0.143507 -0.104479 0.271515 -0.100172 0.059601 -0.202856 0.079956 -0.206732 0.038343 -0.333783 -0.007977 0.410707 -0.246614 0.529006 0.472309 0.443967 -0.202907 0.334387 -0.099598 -0.034753 -0.589022 -0.216872 -0.245143 0.134538 0.342148 -0.182874 -0.633162 0.011692 0.224159 -0.034471 -0.259010 -0.640566 -0.303766 -0.237215 0.014941 0.527171 -0.055758 0.551530 -0.496696 0.582615 -0.864543 0.320801 -0.478957 -0.453820 0.051824 -0.304013 -0.197672 0.374565 -0.794906 0.759548 -0.226149 -0.068404 0.531028 -0.030755 0.511384 0.227280 0.971811 0.617752 0.125072 -0.410199 -0.143755 -0.283822 -0.746483 -0.056996 0.436472 -0.382926 0.459070 0.643535 -0.004373 -0.208567 -0.046901 0.189144 0.485693 -0.282978 -0.098485 -0.017928 0.077687 0.130275 0.351957 0.552800 0.379488 0.181089 -0.227327 0.175434 0.168271 -0.414609 -0.249697 -0.419459 0.253244 0.292532 0.210189 0.326853 -0.638286
58 -0.083167 0.157032 -0.167799 -0.174998 0.024385 0.174734 0.202514 0.131961 0.430025 0.038481 0.171815 -0.136944 0.456975 0.082623 -0.164033 -0.202709 0.047957 0.386369 -0.135343 0.146316 0.126913 -0.137907 0.322214 -0.252448 0.139284 0.124698 -0.476713 0.232514 -0.155828 -0.268899 0.116641 0.311471 0.271534 -0.217782 -0.245761 0.328328 -0.636241 -0.047463 0.154015 -0.061654 0.105892 0.356105 0.010947 -0.183820 -0.169886 -0.010417 0.048669 0.338447 0.576673 0.281206 0.370654 -0.358517 0.293689 0.216794 -0.270346 -0.131839 0.015950 -0.034850 0.017894 0.027824 -0.410346 0.039798 0.037309 -0.424988 -0.423009 0.046115 -0.015663 0.055959 -0.406622 0.412780 0.022042 0.375374 0.731694 -0.072848 0.131215 -0.451644 0.248544 -0.124316 0.274202 -0.092247 0.062278 -0.246397 0.399522 0.315592 0.306103 -0.012086 0.380022 -0.348629 0.235523 0.167313 0.106991 0.246705 -0.137369 -0.174861 -0.327835 0.180345 -0.158248 -0.673496 0.079637 0.298236 0.015575 0.189121 -0.100046 0.088726 -0.193034 -0.357144 0.622111 0.674027 0.184960 0.353497 -0.214146 0.012658 0.030445 -0.019711 -0.313887 0.154486 -0.069986 0.224661 -0.062890 0.297864 0.268245 -0.247467 -0.033035 0.140605 0.341988 0.196574 -0.028540 -0.241980
253 0.021423 0.290919 -0.232587 0.173418 0.066429 0.091353 0.353882 -0.045474 0.422194 0.163934 0.192361 -0.167683 0.420204 -0.060072 -0.225239 -0.364920 -0.005860 0.267945 -0.014032 0.340937 0.212163 0.150670 0.602865 -0.132397 0.157330 0.104926 -0.194940 0.486824 -0.220823 -0.265260 0.012816 0.059355 0.104803 -0.433666 -0.063758 0.191497 -0.319999 -0.173219 0.109511 0.128509 -0.036534 0.369745 0.205108 -0.130208 0.076581 -0.029582 -0.058507 0.180723 0.356763 0.117551 0.153954 -0.179485 0.301835 0.027671 -0.228412 -0.145540 -0.024980 0.050624 0.039502 0.073652 -0.326588 0.040212 0.029998 -0.465987 -0.509131 -0.248647 -0.167362 0.011100 -0.321959 0.146978 0.222377 0.052373 0.594756 -0.300802 0.117630 -0.449849 -0.016512 -0.014771 0.105069 -0.094657 -0.107091 0.016786 0.256405 0.198650 0.382791 0.100658 0.315358 -0.156174 0.139264 0.012738 0.217888 0.137124 0.110869 -0.221702 -0.335015 -0.121092 -0.070521 -0.383631 0.123764 0.152144 -0.112113 0.199253 0.056592 -0.239467 -0.107085 -0.210778 0.693238 0.519458 0.212897 0.386463 -0.035219 0.118429 0.039798 0.250352 -0.311450 0.059436 -0.239099 0.290848 0.253046 0.089620 0.050734 -0.071583 -0.027982 -0.128114 0.336812 0.018228 0.005871 -0.183555
200 -0.094165 0.176224 -0.183579 -0.182594 0.048220 0.169709 0.205361 0.118067 0.432677 0.034611 0.190914 -0.137243 0.426254 0.115579 -0.174877 -0.186493 0.079654 0.381419 -0.144109 0.173794 0.141707 -0.154856 0.323685 -0.229560 0.143964 0.149613 -0.495966 0.260128 -0.180818 -0.265721 0.118951 0.338614 0.301404 -0.189457 -0.250993 0.323253 -0.605546 -0.068516 0.184871 -0.059783 0.121930 0.367938 0.009307 -0.194236 -0.159067 -0.034797 0.029522 0.345924 0.568024 0.279822 0.384188 -0.351521 0.302285 0.229250 -0.257139 -0.131821 0.021959 -0.011002 0.032461 0.003840 -0.426034 0.046075 0.062748 -0.424136 -0.435316 0.026309 0.011960 0.054419 -0.415814 0.427686 0.027299 0.388261 0.754178 -0.064872 0.115895 -0.459983 0.261672 -0.119922 0.327683 -0.058592 0.098047 -0.237727 0.400781 0.317958 0.279321 -0.048710 0.351009 -0.337626 0.262226 0.195959 0.095678 0.267490 -0.153381 -0.216007 -0.308141 0.164007 -0.163841 -0.669847 0.065028 0.317860 0.020752 0.161814 -0.119535 0.064521 -0.151997 -0.348923 0.620593 0.674087 0.189426 0.327441 -0.220969 0.008608 0.029796 0.007932 -0.350241 0.165117 -0.065086 0.188434 -0.079223 0.287142 0.268432 -0.246877 0.002012 0.173268 0.347454 0.194515 -0.015597 -0.225166
173 0.022375 0.302870 -0.221798 0.131256 0.030097 0.100545 0.332103 -0.008157 0.424606 0.136316 0.176642 -0.170201 0.432782 -0.057576 -0.203960 -0.325589 -0.000682 0.314434 -0.038968 0.297523 0.197050 0.113812 0.513093 -0.186828 0.158998 0.122899 -0.254363 0.438620 -0.188030 -0.245050 0.071608 0.126866 0.130164 -0.389928 -0.087753 0.230327 -0.363494 -0.095809 0.097322 0.109395 -0.003392 0.370054 0.131030 -0.142080 0.018812 -0.053655 -0.018790 0.174103 0.378565 0.175956 0.202623 -0.208815 0.309299 0.052074 -0.246326 -0.135927 -0.025140 0.038464 0.024187 0.050348 -0.346347 0.057689 0.055102 -0.462113 -0.497655 -0.177333 -0.121206 0.024547 -0.337497 0.210962 0.172891 0.098841 0.648399 -0.248256 0.121637 -0.456179 0.032913 -0.034621 0.118781 -0.083843 -0.054366 -0.035335 0.290845 0.197632 0.380429 0.093836 0.343266 -0.175545 0.146392 0.020752 0.229157 0.167465 0.072443 -0.184662 -0.345661 -0.042303 -0.113936 -0.434730 0.099881 0.197351 -0.085665 0.171006 0.057974 -0.171514 -0.120258 -0.253465 0.654294 0.561043 0.198742 0.398984 -0.027625 0.098057 0.048869 0.196223 -0.307995 0.079482 -0.241672 0.281631 0.206326 0.132460 0.078185 -0.078282 -0.036033 -0.053572 0.319877 0.068613 0.015428 -0.205703
241 0.009547 0.191942 -0.248633 -0.006758 0.092327 0.072645 0.274537 -0.024792 0.375915 0.100898 0.246242 -0.129086 0.372164 0.026832 -0.261037 -0.319729 0.018987 0.223135 -0.035392 0.253297 0.154692 -0.001153 0.528010 -0.154686 0.199690 0.107765 -0.262367 0.424003 -0.193630 -0.220008 0.005604 0.145174 0.143048 -0.400562 -0.091613 0.178997 -0.471066 -0.214007 0.139950 0.096935 -0.039420 0.342025 0.164219 -0.183719 0.032761 -0.005675 0.011029 0.248360 0.422107 0.157504 0.180306 -0.202273 0.331340 0.089383 -0.242598 -0.161949 -0.039147 -0.023122 0.045595 0.131589 -0.385053 0.018955 0.009460 -0.398448 -0.450351 -0.238890 -0.059698 0.050712 -0.284046 0.237409 0.197622 0.170166 0.509133 -0.286621 0.090213 -0.433294 0.029881 -0.065678 0.218445 -0.102519 -0.090922 -0.056650 0.199421 0.251345 0.380339 0.074326 0.310065 -0.207328 0.125198 0.102221 0.142296 0.144511 0.035423 -0.251888 -0.318269 -0.146939 -0.093577 -0.445125 0.104692 0.166170 -0.139352 0.302399 -0.063709 -0.286734 -0.123769 -0.250403 0.728626 0.509091 0.263760 0.338127 -0.153692 0.171634 0.066510 0.175875 -0.375284 0.118931 -0.175319 0.208535 0.130403 0.149201 0.073906 -0.093385 -0.066023 -0.104795 0.384880 0.054155 -0.012786 -0.209895
307 -0.135052 0.183574 0.167960 -0.087530 0.650984 0.188201 0.526791 -0.182777 -0.010098 -0.004835 0.354928 0.030103 0.209551 -0.020158 -0.256260 -0.156473 0.248226 0.043150 -0.125094 0.333266 0.357045 -0.172485 0.758941 -0.385979 -0.167145 0.266050 -0.135301 -0.064912 0.099183 -0.074898 0.178621 -0.084277 -0.044566 -0.053723 0.279591 -0.250248 0.165427 -0.123831 0.605402 0.106527 -0.131852 -0.040081 -0.082812 -0.347242 -0.142772 0.159275 -0.118235 -0.173114 0.353291 -0.078864 0.311184 -0.115215 0.684802 0.416647 0.376536 0.023743 -0.177926 -0.290515 0.191398 0.156607 -0.093670 -0.743264 0.012863 0.088188 0.100072 -0.010659 0.112395 -0.140800 -0.132904 0.112609 0.102998 0.262548 0.658778 -0.275914 0.567626 -0.486836 0.570879 0.257296 0.395963 0.380323 -0.281359 -0.158777 0.078446 -0.421676 -0.019351 -0.035759 -0.261487 -0.274805 0.263869 0.470312 0.184988 0.043359 0.331233 -0.163112 -0.028475 -0.157205 -0.343046 -0.271270 0.127089 0.237618 -0.558078 0.111760 0.187715 -0.455446 0.441444 0.192735 0.145443 0.090355 0.015872 -0.593706 -0.148332 -0.376480 -0.182646 0.087215 -0.131020 -0.020061 -0.286395 -0.007724 -0.258048 -0.258966 -0.373617 -0.167656 -0.027625 0.138214 0.186045 -0.192174 0.214569 -0.316158
5 -0.095944 0.164598 -0.116277 0.064384 0.525525 0.378685 0.066136 -0.151097 0.555333 -0.229120 0.414187 -0.195999 -0.311893 0.313891 -0.543050 -0.537115 0.191992 -0.096527 -0.413101 0.320598 0.315750 -0.161957 0.270061 -0.277380 -0.358958 0.573165 0.013325 -0.499166 -0.114883 -0.473962 0.157973 0.059864 0.715988 -0.338031 0.173110 0.051076 -0.482229 -0.168463 -0.083791 -0.149082 -0.232690 0.469497 -0.099302 -0.244465 -0.025937 0.332959 0.353787 0.002755 0.763219 0.432231 -0.143305 0.052664 0.386077 0.340759 0.339121 -0.972178 0.148094 0.075300 0.636514 -0.173719 -0.677491 -0.494735 -0.105560 0.096549 -0.141425 -0.487645 -0.385922 0.067570 -0.324179 -0.039264 0.122553 0.140179 0.235737 -0.195916 0.648017 -0.510067 0.173915 -0.354923 0.575363 0.470349 -0.052857 -0.155478 -0.259098 0.309027 0.102854 -0.212756 -0.273941 -0.356696 0.214766 0.547879 0.105326 0.390245 -0.181475 -0.335983 -0.112221 -0.370848 -0.707726 -0.720406 0.084678 0.342961 -0.384872 1.076199 -0.099902 -0.859937 -0.338317 -0.037922 0.344323 0.033305 0.073703 -1.028975 -0.675963 -0.412186 0.538849 0.251261 -0.114519 0.537584 0.720152 -0.116738 -0.188062 0.679477 -0.199423 0.399503 -0.515149 0.152895 0.396290 0.098600 0.291658 -0.064703
165 -0.115470 0.195653 -0.101643 0.082261 0.506246 0.401764 0.025164 -0.148659 0.537473 -0.235926 0.417964 -0.210604 -0.321101 0.322919 -0.566350 -0.536486 0.194136 -0.071631 -0.403790 0.296715 0.295982 -0.172323 0.270659 -0.290903 -0.374125 0.600609 0.046790 -0.507943 -0.118570 -0.450463 0.179208 0.074842 0.759276 -0.326084 0.166089 0.049205 -0.509551 -0.188887 -0.088093 -0.152643 -0.247273 0.468689 -0.084324 -0.236938 -0.027507 0.340900 0.362490 0.003430 0.759513 0.462970 -0.150581 0.016588 0.371157 0.355376 0.333241 -0.969284 0.127909 0.098984 0.629490 -0.166686 -0.673432 -0.482780 -0.129298 0.097986 -0.124044 -0.491401 -0.415907 0.065001 -0.327054 -0.026433 0.141112 0.167202 0.245837 -0.188260 0.653096 -0.503150 0.190360 -0.348023 0.594074 0.491779 -0.030835 -0.176131 -0.274170 0.331022 0.106880 -0.177920 -0.278044 -0.360560 0.205077 0.558148 0.080261 0.404713 -0.217200 -0.341211 -0.093901 -0.395363 -0.705177 -0.707765 0.040429 0.321855 -0.358062 1.114133 -0.102958 -0.834020 -0.308156 -0.017842 0.369309 0.009870 0.089435 -1.064032 -0.687142 -0.425023 0.549309 0.261898 -0.106661 0.545404 0.748871 -0.141992 -0.220283 0.698661 -0.184800 0.409533 -0.564478 0.166282 0.409721 0.086822 0.288162 -0.076792
233 -0.167267 -0.317552 -0.240320 -0.401420 0.463514 -0.053728 0.138282 0.453445 -0.015298 -0.184219 -0.366444 -0.050429 0.164473 -0.088883 -0.185985 -0.443531 -0.019841 0.507912 -0.256575 -0.329516 0.187275 -0.287270 0.188106 -0.005469 -0.167620 0.397090 -0.065639 -0.326296 0.377247 0.120418 0.165521 0.149583 0.148764 -0.198630 -0.219950 0.123985 -0.234462 0.015569 0.458585 -0.080286 0.482349 0.705802 -0.105622 0.316975 -0.041405 0.199023 -0.271741 -0.004441 0.405236 0.261813 0.350081 -0.094838 0.634743 0.811196 0.114660 -0.216578 -0.318844 0.084672 0.312103 -0.206284 -0.220800 -0.447660 -0.609140 -0.208620 -0.168780 0.462953 -0.209424 -0.000176 -0.230825 0.274607 0.077655 0.727611 1.060515 -0.289080 0.205063 -0.782553 0.828052 0.433419 0.022946 -0.572388 -0.099199 -0.556191 0.480633 0.043200 -0.109258 0.052670 0.254615 -0.488146 0.285177 0.722066 0.269312 0.692440 -0.426607 -0.459896 -0.560468 0.199827 0.147487 -0.957033 -0.218663 0.096010 -0.749985 -0.054314 0.174199 -0.114753 0.159002 0.263588 0.409652 0.116065 -0.366998 -0.407757 -0.247343 -0.377919 -0.358585 -0.075080 0.297433 0.037642 -0.098178 0.328650 -0.513828 0.025961 -0.214755 -0.445828 -0.158677 -0.097372 -0.344089 0.748043 -0.027564 -0.468701
50 -0.055906 -0.125932 -0.016852 -0.222951 0.338172 -0.183509 0.163617 0.134241 0.312154 0.202851 -0.157297 -0.122164 0.158667 -0.308435 -0.194711 -0.554769 -0.028354 -0.087996 0.008059 0.035441 0.418225 0.069568 0.172513 -0.096773 -0.496164 0.192493 0.334528 -0.071205 0.288344 -0.049759 0.240707 -0.380595 -0.341493 -0.468405 0.156404 0.323856 -0.377275 -0.069992 -0.217219 -0.115721 -0.032939 0.435929 0.285070 -0.100341 0.084162 0.303824 0.178854 -0.170145 0.503108 0.049599 -0.356099 0.169806 0.087646 0.289503 -0.066933 -0.333218 -0.080128 -0.149903 0.260167 0.155908 -0.398707 -0.477103 -0.488865 -0.094882 -0.149339 -0.314392 -0.652450 -0.018202 0.016311 -0.130264 -0.025278 0.071993 0.217797 -0.450247 0.504595 -0.168897 0.103087 -0.036469 -0.093203 -0.053952 -0.491729 0.026799 0.011546 0.030199 0.153166 0.274422 0.174708 -0.157568 0.173941 0.205271 0.489264 0.060671 -0.025374 -0.075084 -0.281606 0.009167 0.091546 -0.196002 0.396942 -0.153513 -0.972601 0.489675 0.301678 -0.617321 -0.071662 -0.014423 0.330360 -0.296747 -0.368314 -0.224586 0.042186 -0.344101 0.130253 0.157188 0.424087 0.239499 -0.057241 0.423652 0.084607 0.163050 -0.400872 -0.139530 -0.193248 -0.444363 0.083299 0.209723 -0.011510 -0.499695
288 -0.162714 -0.317038 -0.257768 -0.410060 0.457104 -0.063447 0.123613 0.462244 -0.004905 -0.182286 -0.366829 -0.059510 0.155449 -0.079610 -0.177435 -0.455118 -0.029066 0.501164 -0.255909 -0.328304 0.192722 -0.293576 0.178004 0.008396 -0.173928 0.397590 -0.061585 -0.325266 0.362549 0.119662 0.168434 0.150199 0.146839 -0.202499 -0.222301 0.125056 -0.235846 0.014778 0.447951 -0.079759 0.486383 0.720655 -0.101191 0.317017 -0.039153 0.197367 -0.270394 0.001391 0.397999 0.265034 0.337167 -0.092944 0.614328 0.810686 0.098637 -0.214868 -0.319235 0.083958 0.312597 -0.204181 -0.222964 -0.445696 -0.610817 -0.228100 -0.173318 0.455198 -0.235108 -0.015585 -0.227086 0.277748 0.080613 0.740988 1.060087 -0.292130 0.193807 -0.777728 0.819027 0.432295 0.021001 -0.579056 -0.102274 -0.549112 0.486586 0.063283 -0.124112 0.048970 0.263360 -0.489701 0.289849 0.717132 0.257901 0.698095 -0.437339 -0.465363 -0.561275 0.204563 0.144266 -0.954605 -0.203168 0.095004 -0.751545 -0.049322 0.178396 -0.104707 0.150440 0.267637 0.413479 0.106199 -0.367914 -0.414434 -0.242996 -0.390347 -0.366666 -0.072144 0.307815 0.035878 -0.084858 0.327308 -0.512169 0.015440 -0.198980 -0.459254 -0.143513 -0.101948 -0.344905 0.756032 -0.041332 -0.477224
47 0.023416 0.345423 -0.233547 0.161690 0.104049 0.139829 0.362492 -0.020376 0.458091 0.124110 0.209483 -0.121521 0.471127 -0.022221 -0.148719 -0.204829 0.037521 0.270079 -0.035640 0.354146 0.224861 0.139012 0.521504 -0.083374 0.110503 0.145237 -0.213148 0.412243 -0.229219 -0.219842 0.063273 0.072811 0.148347 -0.453228 -0.105685 0.210308 -0.290090 -0.146596 0.137871 0.049194 -0.007488 0.284452 0.203534 -0.076881 0.055754 0.008765 -0.068922 0.233050 0.413346 0.124038 0.239904 -0.170494 0.234708 0.066255 -0.239179 -0.087817 -0.000397 0.016259 0.043608 0.059438 -0.350083 -0.000647 0.053502 -0.433612 -0.430822 -0.180083 -0.121026 -0.005226 -0.347024 0.236692 0.194777 0.137021 0.553381 -0.159170 0.111721 -0.431554 0.042211 -0.098074 0.103804 -0.044876 -0.116978 -0.026669 0.299341 0.275974 0.341401 0.088531 0.266750 -0.242408 0.200263 0.007087 0.183795 0.162619 0.135651 -0.153644 -0.254989 -0.027934 -0.123830 -0.416553 0.051725 0.185549 -0.093807 0.193822 0.017033 -0.079086 -0.194922 -0.234750 0.701156 0.548261 0.174372 0.380828 -0.034304 0.071919 0.045210 0.172042 -0.336443 0.154453 -0.214350 0.275764 0.207228 0.153255 0.089883 -0.164140 -0.018288 -0.063230 0.374065 0.070585 -0.024291 -0.181741
35 -0.033391 0.111503 -0.288300 -0.069545 0.175675 0.026060 0.329307 -0.023024 0.429684 0.107647 0.247338 -0.096829 0.276922 0.035734 -0.273421 -0.338629 0.085454 0.165383 -0.031210 0.233343 0.176838 -0.026595 0.559789 -0.149759 0.207881 0.102642 -0.334214 0.516092 -0.205582 -0.261037 -0.091931 0.144851 0.120317 -0.354517 -0.117570 0.263341 -0.377714 -0.249955 0.135881 0.106407 -0.009999 0.424105 0.119424 -0.171678 0.106312 -0.013092 -0.011874 0.204885 0.326254 0.036666 0.219727 -0.218376 0.352126 0.027080 -0.173886 -0.129442 0.042984 0.038154 0.042231 0.073161 -0.354238 0.100994 -0.008720 -0.390728 -0.448534 -0.277456 -0.015330 0.036593 -0.246871 0.234323 0.154838 0.093321 0.638578 -0.335488 0.126519 -0.484714 0.020558 0.021500 0.261475 -0.101582 -0.101210 -0.096653 0.241132 0.160235 0.385418 0.035554 0.273115 -0.154821 0.175179 0.178564 0.122898 0.202274 -0.070137 -0.316100 -0.325505 -0.220320 0.043845 -0.429021 0.214718 0.157964 -0.135082 0.131314 -0.070923 -0.367576 0.012695 -0.137466 0.618468 0.584403 0.297456 0.380652 -0.178478 0.161130 0.046337 0.205499 -0.385226 0.019327 -0.117660 0.195600 0.060477 0.087320 0.074626 -0.126827 -0.003134 -0.107117 0.317937 0.092485 0.029819 -0.157660
52 -0.076331 0.192994 -0.195462 -0.183034 0.094014 0.167080 0.219543 0.090113 0.392090 0.021728 0.233635 -0.095247 0.409484 0.140186 -0.200948 -0.203014 0.075418 0.347767 -0.135955 0.174202 0.145652 -0.165927 0.347405 -0.234443 0.170453 0.165772 -0.452144 0.272684 -0.167957 -0.221039 0.126216 0.339689 0.303753 -0.229113 -0.202062 0.265271 -0.587925 -0.094251 0.214991 -0.035294 0.099350 0.328102 0.027333 -0.192212 -0.131034 -0.020569 0.049648 0.336840 0.559341 0.276067 0.365929 -0.327094 0.326964 0.245769 -0.250386 -0.128371 -0.000054 -0.030933 0.039515 0.037249 -0.458935 0.015105 0.050170 -0.395412 -0.434433 -0.017187 0.062759 0.067901 -0.401852 0.451982 0.062719 0.409125 0.692890 -0.085702 0.103954 -0.465539 0.232863 -0.141949 0.343135 -0.041292 0.058433 -0.208035 0.332054 0.337430 0.287699 -0.024771 0.338322 -0.329557 0.234770 0.199637 0.092475 0.241316 -0.106165 -0.219785 -0.279198 0.097188 -0.190664 -0.617936 0.043641 0.294000 -0.042703 0.239127 -0.141805 -0.005520 -0.149787 -0.329119 0.670368 0.621115 0.196297 0.308103 -0.222638 0.039578 0.041775 0.003669 -0.395488 0.197225 -0.095008 0.159345 -0.085237 0.265756 0.232444 -0.210421 -0.028463 0.127970 0.368321 0.175768 -0.010064 -0.229519
30 -0.079410 0.095130 0.223100 -0.036146 0.623829 0.290996 0.549712 -0.206621 0.009053 -0.012046 0.337237 0.024940 0.144358 0.012674 -0.286694 -0.161357 0.247570 0.001789 -0.143350 0.351181 0.371711 -0.117236 0.689741 -0.407558 -0.181604 0.240354 -0.075290 -0.069083 0.045416 -0.123999 0.118754 -0.133209 -0.119579 -0.073854 0.315208 -0.249476 0.154727 -0.094977 0.606272 0.060905 -0.149373 0.034819 -0.050342 -0.391977 -0.089662 0.193559 -0.097552 -0.172888 0.381440 -0.019694 0.270756 -0.017371 0.764827 0.378152 0.413929 0.012016 -0.173429 -0.363855 0.223270 0.151036 -0.118270 -0.711246 0.041189 0.061514 0.100190 -0.099270 0.052428 -0.155362 -0.128934 0.035564 0.145129 0.226960 0.636161 -0.298104 0.586798 -0.467442 0.532312 0.238730 0.360380 0.435678 -0.317660 -0.141909 0.027738 -0.400539 0.000079 0.020847 -0.311661 -0.257060 0.267373 0.520270 0.260059 -0.020457 0.291341 -0.128275 -0.021536 -0.128885 -0.385326 -0.220298 0.079615 0.213604 -0.544728 0.122077 0.153982 -0.551908 0.460937 0.175789 0.209953 0.123824 -0.010255 -0.616457 -0.134126 -0.386711 -0.124206 0.019732 -0.135193 -0.020701 -0.285630 -0.051859 -0.235407 -0.190721 -0.456195 -0.099466 -0.018768 0.169674 0.207567 -0.230397 0.294945 -0.307959
291 0.274523 -0.545627 -0.109020 0.207831 0.366600 -0.030280 0.772281 -0.119358 0.481462 -0.414834 0.213928 -0.063795 0.421367 -0.384237 -0.371350 -0.804485 0.061310 0.092780 -0.421726 -0.036504 0.410329 -0.333576 0.778427 -0.534788 -0.248213 0.190316 -0.449398 -0.352037 0.228223 -0.407937 0.003254 -0.302168 -0.370089 -0.384236 -0.234187 0.124268 -0.104946 0.259109 -0.108111 0.055788 -0.193943 0.094088 -0.219614 0.058202 -0.334579 -0.006196 0.409932 -0.235575 0.529539 0.481523 0.451619 -0.190762 0.350233 -0.084687 -0.043691 -0.591134 -0.226734 -0.221553 0.136317 0.341332 -0.196101 -0.635626 0.001403 0.238139 -0.050389 -0.269599 -0.634052 -0.299312 -0.236049 0.025999 0.534216 -0.046688 0.538630 -0.502591 0.591627 -0.867943 0.315870 -0.487390 -0.451664 0.058856 -0.304090 -0.193981 0.358279 -0.782879 0.754304 -0.252592 -0.073200 0.552144 -0.032945 0.526618 0.222528 0.980287 0.606963 0.110359 -0.397211 -0.151390 -0.288531 -0.747976 -0.073850 0.415006 -0.399889 0.477534 0.631549 -0.005295 -0.207013 -0.031938 0.194933 0.479432 -0.298381 -0.112566 -0.020983 0.076507 0.131887 0.349596 0.557947 0.377065 0.207832 -0.263017 0.159580 0.177745 -0.408319 -0.232045 -0.422944 0.235805 0.293792 0.217614 0.326066 -0.631468
75 -0.010266 -0.066999 -0.074371 -0.462060 0.337436 -0.147876 0.268948 0.219866 0.263748 -0.022921 -0.228050 -0.291535 0.067604 -0.123150 -0.260666 -0.208220 0.279719 -0.007974 -0.304468 0.351078 0.590711 -0.396663 0.107061 0.028773 -0.671364 0.240859 -0.471186 0.270270 -0.113602 -0.349218 0.225528 -0.151901 -0.252940 -0.061700 -0.315565 0.452623 0.120297 -0.000302 -0.017355 -0.270498 0.073285 0.374838 0.184682 -0.160130 0.023598 -0.187781 0.067191 0.260260 0.310632 0.020144 0.051160 0.240247 0.081141 0.244842 -0.023701 -0.133216 -0.011270 0.135572 0.238768 -0.085213 -0.381674 -0.515309 0.114557 -0.254190 -0.065444 -0.141216 -0.326790 -0.411271 -0.174919 0.060484 0.241616 -0.175758 0.500967 -0.194113 -0.006630 -0.177966 0.140962 -0.085480 0.289495 0.276851 0.020579 -0.063260 0.331135 -0.276055 -0.093544 -0.575948 -0.275965 -0.052983 0.453870 0.233322 0.146571 0.425166 0.120515 -0.261677 0.080024 0.488960 -0.135237 -0.385312 0.238226 0.283675 -0.413349 -0.305372 0.470389 -0.191135 -0.058522 -0.173706 -0.103968 0.231471 -0.579613 0.016334 0.069395 -0.194689 0.195381 0.392189 0.084718 0.432703 -0.393872 0.075626 0.226251 -0.030608 -0.278462 -0.408769 0.590224 0.681982 0.325592 0.208499 0.266914 -0.394993
82 -0.047104 -0.169488 -0.113426 -0.469168 0.391717 -0.186912 0.193458 0.209696 0.259043 -0.122020 -0.199609 -0.269133 -0.051681 -0.065466 -0.161749 -0.308059 0.350180 -0.071691 -0.295823 0.282493 0.513796 -0.501612 0.058308 0.033652 -0.698037 0.260207 -0.406460 0.086565 -0.197197 -0.387352 0.233011 -0.083431 -0.188586 -0.040936 -0.264569 0.389888 0.169272 -0.024089 0.021589 -0.283628 0.047279 0.369000 0.118944 -0.105159 0.058690 -0.140231 0.094174 0.244580 0.275086 0.088324 -0.014346 0.274166 0.047431 0.266603 -0.050861 -0.196556 -0.085471 0.225855 0.221607 -0.093788 -0.422043 -0.572948 0.057589 -0.196353 -0.046366 -0.156003 -0.384923 -0.440986 -0.226219 0.090620 0.156842 -0.081130 0.503287 -0.139531 -0.007192 -0.169231 0.113962 -0.094013 0.302241 0.271312 0.089577 -0.044652 0.307330 -0.187657 -0.225459 -0.546354 -0.270277 -0.108965 0.461774 0.301033 0.056505 0.451740 0.039141 -0.305824 0.111480 0.495122 -0.144496 -0.424348 0.218855 0.231687 -0.416489 -0.293678 0.475590 -0.198610 -0.024660 -0.098340 -0.017004 0.239168 -0.513465 -0.054076 0.004616 -0.137757 0.156270 0.367776 0.057999 0.415901 -0.266869 -0.030584 0.113289 -0.027083 -0.294843 -0.329847 0.551610 0.619682 0.255358 0.305584 0.291715 -0.360220
184 -0.054342 -0.120522 -0.001894 -0.228677 0.329167 -0.182783 0.163244 0.126551 0.298291 0.196507 -0.157779 -0.116001 0.161433 -0.321036 -0.193894 -0.556235 -0.037839 -0.095364 -0.000851 0.040217 0.418764 0.086162 0.193220 -0.108922 -0.504580 0.199449 0.343665 -0.077577 0.297611 -0.050788 0.252306 -0.384302 -0.349043 -0.472985 0.158632 0.317667 -0.359026 -0.078875 -0.194811 -0.126594 -0.044254 0.420376 0.294464 -0.100458 0.081355 0.306665 0.174206 -0.174723 0.501436 0.046945 -0.340326 0.156314 0.088439 0.306952 -0.049485 -0.319086 -0.083475 -0.157041 0.259622 0.151658 -0.390344 -0.476469 -0.486126 -0.090648 -0.141823 -0.296013 -0.644175 -0.019695 0.016000 -0.137694 -0.022281 0.066805 0.244534 -0.458661 0.521197 -0.173486 0.123249 -0.018542 -0.099544 -0.062813 -0.488038 0.012305 0.016727 0.016527 0.155912 0.295268 0.176689 -0.171496 0.172262 0.199257 0.500678 0.064649 -0.013177 -0.068997 -0.288918 0.005136 0.087984 -0.188187 0.397108 -0.140417 -0.963810 0.473641 0.315452 -0.625611 -0.070382 -0.004678 0.330654 -0.282687 -0.358518 -0.226096 0.049403 -0.330218 0.117986 0.154519 0.418995 0.235845 -0.078182 0.437386 0.080899 0.143016 -0.415274 -0.157570 -0.183632 -0.450687 0.066235 0.225976 -0.004449 -0.507822
194 0.274323 -0.520148 -0.107885 0.209292 0.356877 -0.014784 0.759784 -0.122265 0.494380 -0.401771 0.217356 -0.075579 0.426351 -0.385999 -0.381586 -0.800935 0.071701 0.086097 -0.413600 -0.008167 0.421874 -0.329405 0.778573 -0.535354 -0.262575 0.205746 -0.453092 -0.336531 0.215531 -0.421105 0.017746 -0.308492 -0.359467 -0.391306 -0.239572 0.134909 -0.107628 0.249114 -0.116266 0.055201 -0.204664 0.089432 -0.200464 0.038717 -0.330666 -0.004373 0.415850 -0.229693 0.536338 0.482856 0.434267 -0.192855 0.338926 -0.087044 -0.043673 -0.602986 -0.218245 -0.225036 0.144474 0.335914 -0.213293 -0.633042 0.008824 0.229160 -0.043479 -0.281605 -0.642289 -0.307577 -0.239433 0.024338 0.528310 -0.057434 0.534053 -0.501184 0.587645 -0.857129 0.305326 -0.499685 -0.433443 0.077696 -0.300318 -0.188297 0.358068 -0.778027 0.749807 -0.246157 -0.081080 0.534766 -0.029174 0.516624 0.219851 0.967224 0.605637 0.109747 -0.395137 -0.142367 -0.307963 -0.740220 -0.054993 0.424235 -0.396451 0.481278 0.635498 -0.019650 -0.214394 -0.049974 0.196663 0.485398 -0.291145 -0.114268 -0.027464 0.074200 0.145866 0.359333 0.543709 0.390845 0.196138 -0.244568 0.171628 0.183783 -0.407967 -0.230769 -0.416274 0.252434 0.319035 0.209019 0.328224 -0.633290
78 -0.059527 -0.113684 0.006621 -0.211749 0.317974 -0.185617 0.171386 0.122237 0.309620 0.208631 -0.172224 -0.136173 0.167641 -0.332569 -0.185947 -0.551594 -0.039791 -0.095317 0.005347 0.042741 0.411448 0.101392 0.181407 -0.108283 -0.511977 0.201663 0.361581 -0.078242 0.306962 -0.055804 0.268542 -0.397530 -0.352241 -0.479366 0.158016 0.337629 -0.370680 -0.058034 -0.209977 -0.119377 -0.054687 0.422106 0.295584 -0.105614 0.077480 0.303369 0.178159 -0.186471 0.493810 0.048415 -0.360130 0.166254 0.068790 0.279905 -0.060807 -0.329056 -0.069634 -0.173501 0.260881 0.167756 -0.383364 -0.477879 -0.486592 -0.088613 -0.127745 -0.308681 -0.666580 -0.015586 0.018495 -0.149926 -0.026815 0.053854 0.221274 -0.445813 0.517642 -0.165690 0.115262 -0.029173 -0.114461 -0.060519 -0.491897 0.017046 0.018767 0.012366 0.168455 0.310438 0.179981 -0.159101 0.165618 0.185113 0.495638 0.054225 -0.011801 -0.046489 -0.290941 0.002259 0.090263 -0.188038 0.404627 -0.150150 -0.949051 0.472962 0.314098 -0.615287 -0.082638 -0.021314 0.317808 -0.300308 -0.350172 -0.233265 0.052287 -0.332740 0.117328 0.155020 0.433844 0.229884 -0.069254 0.445975 0.092910 0.152041 -0.419360 -0.153636 -0.207675 -0.449727 0.075821 0.208533 -0.000496 -0.499480
262 -0.033589 -0.097630 -0.106071 -0.449044 0.336753 -0.142235 0.177026 0.221998 0.255815 -0.072063 -0.181071 -0.258406 -0.030453 -0.072810 -0.208713 -0.267980 0.323013 -0.055780 -0.289971 0.299517 0.511899 -0.423429 0.038473 0.047150 -0.643212 0.267299 -0.407549 0.149916 -0.160660 -0.345317 0.214946 -0.102179 -0.152299 -0.032832 -0.290030 0.395912 0.119035 -0.035589 -0.009861 -0.263937 0.043511 0.373942 0.137051 -0.112460 0.039711 -0.158708 0.079218 0.244912 0.296875 0.075749 -0.031016 0.239719 0.052205 0.267345 -0.022130 -0.192491 -0.047251 0.196241 0.229889 -0.117735 -0.403430 -0.523155 0.065539 -0.212132 -0.051462 -0.166737 -0.346673 -0.422719 -0.209944 0.073760 0.185972 -0.112957 0.465830 -0.146579 -0.003631 -0.142199 0.122168 -0.116338 0.297557 0.269862 0.063041 -0.058775 0.281115 -0.182923 -0.156734 -0.553511 -0.269482 -0.104044 0.446958 0.263901 0.080827 0.432995 0.048722 -0.296692 0.105768 0.475775 -0.146824 -0.405242 0.233544 0.240329 -0.377742 -0.264118 0.449891 -0.205700 -0.044384 -0.137291 -0.056461 0.227966 -0.513880 -0.043129 -0.002566 -0.162631 0.186606 0.376898 0.062813 0.441935 -0.285189 -0.007271 0.160603 -0.008572 -0.280892 -0.333857 0.549519 0.656124 0.271454 0.269012 0.291144 -0.365413
286 -0.264098 -0.152474 -0.301203 0.058415 0.029172 0.166206 0.039902 -0.324554 0.089277 0.178068 0.046847 -0.420156 0.146607 0.084242 -0.133242 -0.446444 -0.005270 0.362420 -0.135173 0.649196 0.000955 0.096505 0.504651 0.250848 -0.529794 0.498195 0.206859 -0.370115 0.126760 -0.215042 0.498509 -0.392693 0.411914 0.283683 -0.264039 -0.041219 -0.467821 -0.202161 0.194693 0.001258 -0.009155 0.442316 0.059101 -0.129885 -0.740284 0.228316 -0.373834 0.159127 0.635445 0.270585 -0.151005 -0.253190 -0.016491 0.406305 -0.133117 -0.383682 -0.381376 -0.079622 0.328219 0.052244 0.098761 -1.024791 0.069666 -0.244381 -0.249498 -0.034155 -0.717844 -0.579062 -0.332188 -0.214255 0.190481 0.630039 0.328059 -0.047563 0.377504 -0.278573 0.674273 0.130774 0.673037 -0.132248 0.029417 -0.233723 0.643206 0.060245 -0.129340 -0.236337 -0.289939 -0.138407 0.254033 0.279861 0.023760 0.388911 -0.138939 -0.233973 -0.532113 0.193889 -0.505389 -0.821308 0.130864 0.388668 -0.112272 0.414050 0.086317 0.366473 -0.205692 -0.071181 0.500289 -0.085383 -0.207062 -0.984350 -0.312140 -0.655484 -0.122495 0.620363 0.595346 0.332316 0.272530 0.265575 -0.059794 0.180252 -0.221639 -0.509783 -0.432699 0.171044 0.522284 -0.090685 -0.102471 -0.389314
159 -0.369234 0.537143 0.365123 -0.104963 -0.135015 0.223155 0.085556 0.078580 0.262153 0.161953 -0.263142 -0.475724 0.278447 -0.295477 -0.554404 0.015920 0.275690 0.369327 -0.247404 0.541058 0.205355 0.462871 0.145942 -0.246844 -0.746142 0.691045 0.122742 0.147758 0.080581 -0.531101 0.778135 -0.117608 0.298730 -0.394733 -0.045227 0.653785 -0.385782 0.305367 0.353166 -0.274429 -0.108602 0.383908 0.175404 -0.383167 0.027547 0.043794 -0.060694 -0.243386 0.241185 0.068254 -0.187113 -0.088213 0.184389 0.178060 0.328865 -0.310676 0.459298 -0.219228 0.531219 -0.139585 -0.184080 -0.341994 -0.145532 -0.379546 0.250773 0.072569 -0.266043 -0.048734 -0.285718 -0.078197 -0.193013 -0.069195 0.897444 0.022821 0.348363 -0.355140 0.644003 0.393107 0.235846 -0.070623 -0.010165 -0.532924 0.374973 0.028130 0.038138 0.487800 -0.060473 -0.912324 0.289595 0.302125 0.302950 0.295083 -0.169800 -0.000023 -0.307955 0.138590 -0.128074 -0.502705 0.229429 0.520738 -0.008152 -0.170160 0.250567 -0.461821 -0.077443 -0.135482 -0.119303 0.123783 0.224118 -0.528704 -0.304263 -0.259000 0.259312 0.198839 -0.038864 0.306301 -0.399658 0.809689 0.041719 0.215622 -0.363460 -0.227604 -0.269048 0.394622 -0.083980 0.210880 0.327796 -0.292527
53 -0.127636 0.182350 0.180387 -0.074303 0.586712 0.202947 0.508254 -0.165925 -0.040987 0.000229 0.327470 0.032263 0.200587 -0.043766 -0.264480 -0.135012 0.246186 0.085007 -0.102141 0.350528 0.344402 -0.141962 0.730814 -0.382174 -0.185790 0.214273 -0.095976 -0.052455 0.077919 -0.100652 0.163527 -0.100744 -0.091414 -0.050604 0.260150 -0.245424 0.181095 -0.121713 0.597013 0.104052 -0.135685 -0.018753 -0.063595 -0.355212 -0.169572 0.138768 -0.122458 -0.154581 0.346013 -0.091058 0.292958 -0.131741 0.701633 0.416699 0.370485 0.035056 -0.184484 -0.324702 0.181079 0.153737 -0.072823 -0.742978 0.038841 0.058538 0.080319 -0.007719 0.121827 -0.172286 -0.156885 0.048512 0.136234 0.265932 0.648094 -0.270404 0.566785 -0.478625 0.579183 0.243709 0.370037 0.354816 -0.280501 -0.159890 0.095109 -0.409385 0.003109 -0.016453 -0.270870 -0.254642 0.288525 0.439104 0.212235 0.026326 0.344806 -0.159532 -0.037672 -0.123543 -0.329039 -0.251558 0.112415 0.223326 -0.534902 0.108810 0.182617 -0.410897 0.487768 0.186417 0.157374 0.087463 0.019867 -0.585856 -0.137642 -0.363523 -0.191426 0.061730 -0.106528 -0.046515 -0.308258 -0.010062 -0.218343 -0.265353 -0.382226 -0.213628 -0.026979 0.168412 0.208763 -0.215899 0.221836 -0.328814
298 -0.125726 0.188754 0.204862 -0.075046 0.600998 0.198124 0.536622 -0.190103 -0.057702 0.045048 0.340850 0.025843 0.210292 -0.058042 -0.260666 -0.143386 0.230840 0.061681 -0.065483 0.349856 0.344474 -0.120919 0.731987 -0.389851 -0.215859 0.207540 -0.060836 -0.048340 0.093191 -0.080340 0.182153 -0.143710 -0.120985 -0.066400 0.298207 -0.239341 0.157398 -0.126486 0.563668 0.112065 -0.159933 -0.021114 -0.026375 -0.366494 -0.148879 0.169656 -0.125880 -0.191487 0.355972 -0.112309 0.260693 -0.117055 0.694044 0.408610 0.380713 0.043762 -0.182706 -0.349683 0.194108 0.162109 -0.069127 -0.765112 0.000982 0.088444 0.080348 -0.032080 0.088956 -0.166572 -0.114425 0.026094 0.113910 0.247464 0.623932 -0.312615 0.588735 -0.466018 0.574401 0.269078 0.358518 0.378157 -0.325913 -0.149813 0.076787 -0.426806 0.008994 0.023166 -0.267776 -0.272384 0.275812 0.420812 0.248482 -0.003562 0.344385 -0.145963 -0.035011 -0.143183 -0.313925 -0.210270 0.145972 0.197567 -0.598865 0.135254 0.199859 -0.471500 0.503872 0.181880 0.174053 0.052287 0.005851 -0.595769 -0.118851 -0.390555 -0.193495 0.066376 -0.068281 -0.057763 -0.339104 0.025404 -0.213120 -0.291320 -0.415891 -0.217940 -0.037902 0.124111 0.209142 -0.235539 0.211797 -0.338355
120 -0.052510 -0.124389 -0.002196 -0.211958 0.332512 -0.190749 0.183649 0.142722 0.329882 0.217451 -0.171063 -0.145621 0.162251 -0.326325 -0.184387 -0.576345 -0.041126 -0.101753 0.013667 0.040805 0.424712 0.089106 0.184344 -0.111734 -0.517863 0.204186 0.361901 -0.076069 0.304640 -0.048850 0.266128 -0.401839 -0.348615 -0.484357 0.159016 0.341169 -0.382686 -0.068534 -0.225458 -0.130959 -0.056039 0.440364 0.305524 -0.098242 0.078535 0.311827 0.180342 -0.172934 0.505756 0.055057 -0.369930 0.168051 0.076116 0.304194 -0.068664 -0.343467 -0.072994 -0.161278 0.267671 0.161917 -0.401904 -0.473857 -0.505940 -0.105604 -0.145837 -0.313782 -0.671621 -0.001018 0.014417 -0.147653 -0.033687 0.069622 0.219126 -0.448684 0.517268 -0.162389 0.119218 -0.025825 -0.102014 -0.070015 -0.493423 0.024281 0.018936 0.038253 0.158840 0.301918 0.188379 -0.167173 0.176385 0.186625 0.500391 0.047398 -0.023919 -0.063741 -0.301852 0.009071 0.089481 -0.193325 0.412701 -0.161183 -0.952685 0.486111 0.308227 -0.628300 -0.083554 -0.015188 0.334891 -0.289927 -0.337021 -0.230374 0.033497 -0.338315 0.116963 0.151226 0.430526 0.223621 -0.054411 0.444860 0.082867 0.149920 -0.417481 -0.160400 -0.195963 -0.466770 0.079460 0.208899 -0.005375 -0.496055
281 -0.071341 -0.209005 -0.146252 -0.498585 0.399522 -0.200581 0.179909 0.179613 0.253157 -0.142747 -0.187489 -0.280479 -0.055630 -0.027324 -0.144493 -0.315270 0.373328 -0.073433 -0.248248 0.272384 0.470959 -0.502934 0.062233 0.032343 -0.673939 0.272700 -0.362686 0.068449 -0.223335 -0.385047 0.244489 -0.094189 -0.170168 -0.030610 -0.248799 0.372694 0.172228 -0.020771 0.050713 -0.280324 0.044654 0.372145 0.097184 -0.096914 0.072430 -0.124534 0.074459 0.246551 0.262206 0.104336 -0.059911 0.274536 0.046368 0.276895 -0.060642 -0.232646 -0.096630 0.219739 0.218857 -0.099567 -0.433789 -0.587527 0.042184 -0.181734 -0.049640 -0.152590 -0.388432 -0.424628 -0.241428 0.116372 0.105594 -0.021144 0.513572 -0.121359 -0.019967 -0.177205 0.113352 -0.109200 0.293199 0.260197 0.103289 -0.050115 0.336006 -0.160368 -0.246444 -0.533801 -0.261963 -0.117679 0.456600 0.352446 0.039968 0.442053 0.028968 -0.296611 0.124609 0.517623 -0.124769 -0.432444 0.177120 0.211606 -0.416199 -0.302603 0.466347 -0.176864 0.002784 -0.077338 -0.034206 0.229160 -0.492702 -0.073016 0.019747 -0.112319 0.146422 0.374670 0.070804 0.398377 -0.235244 -0.019416 0.078797 -0.028306 -0.289993 -0.302997 0.533156 0.599565 0.229404 0.337897 0.273394 -0.335458
306 -0.027662 -0.089858 -0.090352 -0.539145 0.375892 -0.156244 0.283405 0.231924 0.261231 -0.039129 -0.252376 -0.296275 0.091605 -0.095672 -0.262227 -0.190306 0.280961 0.008964 -0.293586 0.306986 0.590632 -0.422073 0.123608 0.028332 -0.635305 0.243140 -0.463452 0.287797 -0.122846 -0.325593 0.215448 -0.137657 -0.267035 -0.079124 -0.305948 0.435591 0.125583 0.003587 -0.016819 -0.266261 0.108498 0.381361 0.178042 -0.158490 0.048268 -0.187561 0.064958 0.262747 0.319851 0.019635 0.074965 0.249240 0.110651 0.259475 -0.021934 -0.138353 -0.012080 0.118708 0.242562 -0.083851 -0.403735 -0.491299 0.094424 -0.262823 -0.065869 -0.116989 -0.291271 -0.364902 -0.164880 0.087429 0.235292 -0.165002 0.535879 -0.207412 -0.005294 -0.214536 0.142659 -0.092784 0.292337 0.271068 0.021173 -0.078547 0.355883 -0.300913 -0.086190 -0.595187 -0.271112 -0.036967 0.461293 0.291063 0.150785 0.423230 0.126971 -0.249834 0.097564 0.508105 -0.110368 -0.394536 0.216136 0.287468 -0.457673 -0.313743 0.475064 -0.200418 -0.039038 -0.156837 -0.134432 0.248822 -0.595783 0.034306 0.080957 -0.192990 0.188814 0.376251 0.073882 0.433146 -0.411029 0.066979 0.207468 -0.046227 -0.259462 -0.405889 0.601332 0.690156 0.311229 0.242553 0.260497 -0.396828
101 0.022921 0.179980 -0.145456 0.027647 0.109274 0.115778 0.264757 0.006135 0.357943 0.066256 0.247040 -0.087616 0.400279 0.039603 -0.193545 -0.268114 0.016469 0.274752 -0.026743 0.253395 0.179228 -0.017582 0.505665 -0.148452 0.128005 0.116755 -0.231239 0.343832 -0.207676 -0.217466 0.028956 0.138814 0.132244 -0.433792 -0.131481 0.140238 -0.446133 -0.156124 0.186521 0.017310 -0.050951 0.274896 0.190284 -0.124738 0.027385 0.048620 0.001066 0.248936 0.467662 0.173548 0.212300 -0.198990 0.300681 0.130098 -0.206716 -0.136770 -0.034670 -0.013188 0.032341 0.121342 -0.398530 -0.023389 0.010722 -0.401514 -0.363532 -0.150752 -0.122891 0.029925 -0.333151 0.243532 0.194184 0.233364 0.467555 -0.203156 0.121062 -0.382667 0.053724 -0.121524 0.198186 -0.070760 -0.097847 -0.051782 0.239098 0.308042 0.333796 0.067522 0.300035 -0.302119 0.145471 0.069386 0.151643 0.100269 0.107002 -0.179364 -0.252935 -0.047537 -0.108890 -0.487242 0.063860 0.175939 -0.147594 0.325156 -0.043459 -0.152615 -0.155220 -0.282181 0.750239 0.520999 0.216477 0.339348 -0.154172 0.127214 0.083880 0.103793 -0.346307 0.126471 -0.147706 0.259685 0.142739 0.197456 0.126908 -0.122613 -0.049915 -0.069864 0.381858 0.056531 -0.032765 -0.208256
189 -0.001698 0.074163 -0.252714 -0.028713 0.208256 0.031457 0.337278 -0.026373 0.437939 0.084218 0.250236 -0.050089 0.333003 0.042822 -0.219828 -0.297468 0.079602 0.143622 -0.012922 0.241825 0.190692 -0.031624 0.634737 -0.092511 0.195936 0.088530 -0.320983 0.487612 -0.214104 -0.243964 -0.123377 0.104231 0.083399 -0.437827 -0.164494 0.226998 -0.342694 -0.280917 0.158126 0.065603 -0.024767 0.345868 0.190672 -0.097123 0.117072 0.068382 -0.044968 0.267935 0.372937 -0.004787 0.254305 -0.204626 0.317973 0.047343 -0.195882 -0.092717 0.040971 0.006749 0.026839 0.114945 -0.344093 0.058491 -0.024990 -0.368623 -0.416262 -0.260160 -0.050997 0.030319 -0.243176 0.241430 0.191431 0.138269 0.547079 -0.309617 0.136002 -0.465362 0.014158 -0.037702 0.217827 -0.114023 -0.168851 -0.074764 0.263036 0.197922 0.385099 0.028702 0.236854 -0.183816 0.188815 0.166276 0.094692 0.190995 0.013191 -0.293619 -0.286046 -0.204065 0.081570 -0.444948 0.183951 0.134290 -0.168041 0.169474 -0.077617 -0.271583 -0.037525 -0.145723 0.691419 0.570710 0.292544 0.396989 -0.177568 0.158945 0.032134 0.178484 -0.382883 0.052345 -0.104119 0.221441 0.083966 0.099518 0.089687 -0.197675 0.001804 -0.149469 0.366563 0.105812 -0.025976 -0.161806
186 -0.068444 -0.175597 -0.109555 -0.458863 0.402109 -0.209556 0.244591 0.142959 0.251344 -0.048614 -0.218943 -0.345720 0.091300 -0.036224 -0.210427 -0.200298 0.376398 -0.034284 -0.173663 0.340426 0.551292 -0.455939 0.143662 0.027858 -0.656068 0.290354 -0.356165 0.243568 -0.244614 -0.362794 0.272644 -0.179320 -0.254290 -0.034350 -0.288717 0.427083 0.161237 0.020951 0.126055 -0.287675 0.059121 0.374949 0.152173 -0.166077 0.084975 -0.162425 -0.003233 0.304551 0.293710 0.029542 -0.035219 0.262252 0.092904 0.296570 -0.049511 -0.226680 -0.019687 0.091134 0.247776 -0.074145 -0.440530 -0.611729 0.081429 -0.260239 -0.069293 -0.164177 -0.302058 -0.327297 -0.206511 0.120779 0.061452 -0.026176 0.585130 -0.134078 -0.035013 -0.195248 0.136024 -0.113186 0.315937 0.291215 0.061444 -0.059605 0.416339 -0.271042 -0.226316 -0.549066 -0.286290 -0.139571 0.529247 0.420758 0.144875 0.392760 0.120177 -0.243881 0.178531 0.602899 -0.084479 -0.421148 0.189968 0.241391 -0.484869 -0.378835 0.523849 -0.179435 0.038873 -0.163090 -0.141619 0.261637 -0.549639 0.017124 0.142226 -0.107724 0.174388 0.432337 0.099542 0.404090 -0.398325 0.096042 0.131234 -0.068498 -0.287525 -0.365932 0.629716 0.688224 0.342941 0.321891 0.257961 -0.382001
267 -0.051625 -0.118887 -0.004507 -0.222491 0.318354 -0.187448 0.167019 0.132511 0.318094 0.211942 -0.176291 -0.132364 0.162612 -0.320660 -0.190768 -0.562585 -0.037064 -0.087473 0.001945 0.036232 0.425966 0.091474 0.184599 -0.101116 -0.517623 0.202128 0.354131 -0.079068 0.301764 -0.059177 0.265737 -0.399341 -0.338287 -0.478301 0.155025 0.342820 -0.381907 -0.064439 -0.217297 -0.124915 -0.046232 0.443577 0.296458 -0.099516 0.074292 0.308319 0.175837 -0.177408 0.500819 0.052810 -0.362053 0.165581 0.082801 0.300588 -0.059828 -0.334587 -0.064986 -0.157919 0.273322 0.161005 -0.402900 -0.474665 -0.500170 -0.100023 -0.149704 -0.309186 -0.669023 -0.005246 0.007012 -0.148312 -0.027817 0.065489 0.222991 -0.441411 0.514719 -0.169512 0.128788 -0.031615 -0.107213 -0.073634 -0.478437 0.009132 0.025618 0.026126 0.161721 0.299909 0.190334 -0.172976 0.174250 0.186262 0.494348 0.065517 -0.020857 -0.058576 -0.291926 0.007456 0.094780 -0.199445 0.395614 -0.150373 -0.944111 0.478351 0.303110 -0.617189 -0.088506 -0.022198 0.325662 -0.293357 -0.344986 -0.235140 0.034153 -0.335273 0.122220 0.151444 0.434214 0.231121 -0.052724 0.434657 0.083723 0.156050 -0.415462 -0.147263 -0.206130 -0.445864 0.077674 0.215463 -0.009459 -0.492006
41 -0.016294 -0.072607 -0.069197 -0.463334 0.338417 -0.169246 0.273109 0.240719 0.260127 -0.039499 -0.220191 -0.253705 0.035031 -0.158077 -0.225855 -0.260797 0.286542 -0.025744 -0.352080 0.361631 0.589933 -0.418246 0.106881 0.028609 -0.697367 0.239934 -0.511520 0.229474 -0.097527 -0.372498 0.232332 -0.140356 -0.278815 -0.072769 -0.310896 0.462136 0.143698 -0.017488 -0.042196 -0.268408 0.060086 0.371043 0.186359 -0.151633 -0.006086 -0.183701 0.093537 0.236474 0.316748 0.023234 0.051739 0.233164 0.065495 0.230723 -0.034515 -0.108947 -0.052633 0.180769 0.206128 -0.071687 -0.357396 -0.521437 0.097967 -0.230685 -0.057125 -0.135726 -0.393707 -0.477605 -0.187143 0.047640 0.281776 -0.195053 0.487721 -0.204768 0.005059 -0.165837 0.153506 -0.080499 0.268575 0.272684 0.010361 -0.054975 0.311482 -0.254511 -0.076047 -0.568667 -0.264106 -0.045268 0.435393 0.163762 0.118465 0.429187 0.128203 -0.293219 0.041261 0.463820 -0.160563 -0.371337 0.267837 0.274338 -0.398050 -0.290710 0.477998 -0.198414 -0.054102 -0.141939 -0.034888 0.233032 -0.559990 0.020841 0.031161 -0.205875 0.159909 0.381117 0.062244 0.426162 -0.378248 0.047183 0.245544 -0.052486 -0.293975 -0.430993 0.566919 0.648740 0.280361 0.184314 0.277364 -0.408519
63 -0.375551 0.542092 0.374066 -0.113431 -0.146512 0.234208 0.070980 0.084010 0.251323 0.163033 -0.277218 -0.479601 0.266864 -0.297300 -0.554217 0.033441 0.272321 0.371534 -0.258584 0.531852 0.191234 0.476815 0.110560 -0.238955 -0.754486 0.695619 0.127414 0.137546 0.091341 -0.533511 0.791352 -0.117647 0.311643 -0.388902 -0.049261 0.660016 -0.384065 0.326543 0.354195 -0.272575 -0.104464 0.386949 0.163121 -0.381785 0.032695 0.039876 -0.064044 -0.258048 0.224944 0.073351 -0.192564 -0.087479 0.172814 0.174765 0.341310 -0.307521 0.471199 -0.223488 0.535732 -0.145521 -0.168081 -0.330225 -0.154957 -0.376970 0.266260 0.095050 -0.257160 -0.045005 -0.285882 -0.076640 -0.207175 -0.070657 0.890673 0.037906 0.343939 -0.352037 0.653381 0.410374 0.225831 -0.072654 0.006627 -0.544355 0.378178 0.025557 0.028135 0.496139 -0.059184 -0.923623 0.282071 0.293894 0.301172 0.296703 -0.184794 0.006064 -0.308273 0.143448 -0.120668 -0.502978 0.221609 0.525698 0.015412 -0.184243 0.247673 -0.448245 -0.081721 -0.129509 -0.150781 0.112162 0.234812 -0.538798 -0.308451 -0.258152 0.263507 0.187153 -0.036784 0.309284 -0.398069 0.815906 0.038846 0.218657 -0.367817 -0.217418 -0.279033 0.402838 -0.104683 0.220031 0.341236 -0.280417
145 -0.054805 -0.148672 -0.010168 -0.220985 0.322983 -0.183622 0.165779 0.140950 0.315208 0.178932 -0.176898 -0.133899 0.152415 -0.327698 -0.193117 -0.552198 -0.045563 -0.083327 -0.011285 0.013293 0.406041 0.076681 0.175392 -0.118490 -0.495275 0.197884 0.346821 -0.091670 0.315004 -0.057955 0.263930 -0.384630 -0.341832 -0.482326 0.141760 0.333267 -0.354859 -0.034342 -0.216355 -0.116410 -0.040111 0.415588 0.258093 -0.077062 0.079009 0.299307 0.179534 -0.184216 0.486345 0.064183 -0.342898 0.153544 0.077424 0.277968 -0.058179 -0.341977 -0.076055 -0.156135 0.266749 0.145733 -0.374903 -0.457740 -0.480699 -0.078712 -0.133324 -0.293294 -0.651376 -0.004593 0.018391 -0.145308 -0.035255 0.054036 0.231896 -0.437870 0.514102 -0.174804 0.122269 -0.037323 -0.135732 -0.076002 -0.481071 0.006911 0.021989 0.006415 0.179373 0.286891 0.179323 -0.147897 0.149937 0.202403 0.488578 0.088127 -0.015860 -0.043722 -0.293737 0.015731 0.099674 -0.200485 0.382871 -0.126200 -0.931109 0.469796 0.307035 -0.598771 -0.093894 -0.017877 0.311860 -0.285110 -0.353637 -0.229495 0.053109 -0.321810 0.112226 0.148196 0.444084 0.222908 -0.047440 0.431526 0.086509 0.151894 -0.410858 -0.140844 -0.209723 -0.437779 0.054179 0.245053 0.003663 -0.512678
158 0.000344 0.168634 -0.193535 -0.005874 0.091246 0.107422 0.255525 0.023889 0.373807 0.059719 0.241253 -0.105100 0.382007 0.047816 -0.211485 -0.279829 0.010352 0.273399 -0.051449 0.216159 0.151374 -0.044769 0.483419 -0.179961 0.184241 0.099899 -0.273108 0.335412 -0.182187 -0.206801 0.013762 0.180439 0.184931 -0.389286 -0.134853 0.162299 -0.481573 -0.157394 0.155829 0.047670 -0.007441 0.315300 0.133435 -0.143972 -0.000903 0.022265 0.009647 0.249945 0.469254 0.193161 0.227176 -0.229032 0.328863 0.149093 -0.221429 -0.157714 -0.038375 -0.009160 0.038301 0.095427 -0.395812 0.017835 0.016485 -0.390945 -0.422142 -0.139859 -0.076168 0.067718 -0.321082 0.266017 0.157514 0.244823 0.522735 -0.210846 0.111552 -0.418331 0.078239 -0.106267 0.212406 -0.094201 -0.050801 -0.075955 0.236111 0.270506 0.346298 0.051279 0.315258 -0.262502 0.137521 0.103666 0.133112 0.153892 0.024518 -0.220488 -0.296310 -0.069471 -0.103037 -0.510552 0.051428 0.183699 -0.125882 0.309358 -0.065707 -0.167977 -0.146474 -0.273595 0.718014 0.520597 0.226774 0.320190 -0.162541 0.108689 0.065510 0.095937 -0.351670 0.112711 -0.118813 0.221904 0.079549 0.197797 0.136340 -0.109845 -0.068212 -0.062410 0.357021 0.093253 -0.026853 -0.203084
143 -0.057246 -0.197160 -0.134377 -0.500906 0.403768 -0.205199 0.226142 0.168335 0.252454 -0.065022 -0.221745 -0.310816 0.047949 -0.050217 -0.191257 -0.263498 0.353886 -0.042634 -0.201600 0.312118 0.511113 -0.464711 0.124914 0.048432 -0.661732 0.273521 -0.365784 0.186510 -0.214053 -0.353877 0.254691 -0.159478 -0.235763 -0.026768 -0.283914 0.404451 0.158352 -0.000614 0.092425 -0.274355 0.058735 0.381552 0.134104 -0.137434 0.067030 -0.144359 0.010689 0.291218 0.269190 0.045143 -0.033465 0.263447 0.065679 0.296417 -0.071220 -0.202371 -0.062525 0.131310 0.214036 -0.081361 -0.419933 -0.600555 0.063696 -0.229708 -0.076347 -0.153396 -0.335094 -0.380411 -0.217358 0.111449 0.090274 -0.021484 0.539639 -0.141948 -0.037013 -0.173159 0.131017 -0.084892 0.287951 0.253036 0.057038 -0.049973 0.378890 -0.220689 -0.226166 -0.544282 -0.273024 -0.117648 0.488024 0.366057 0.116223 0.399015 0.078063 -0.254114 0.139274 0.562505 -0.085659 -0.412180 0.182550 0.213978 -0.459008 -0.358911 0.489577 -0.166248 0.032222 -0.125675 -0.087697 0.237455 -0.539112 -0.000735 0.104661 -0.121623 0.134616 0.401231 0.099005 0.381859 -0.351991 0.061371 0.115014 -0.057628 -0.297781 -0.352150 0.595569 0.622854 0.289688 0.314403 0.252801 -0.367877
232 -0.031387 -0.111088 -0.108265 -0.488634 0.337221 -0.169875 0.235252 0.225403 0.267413 -0.068029 -0.210259 -0.286689 0.008929 -0.097865 -0.219882 -0.269193 0.316258 -0.042057 -0.308239 0.332318 0.541731 -0.425966 0.080099 0.037324 -0.683454 0.262505 -0.444154 0.182449 -0.143811 -0.377864 0.247806 -0.142535 -0.202655 -0.053209 -0.307300 0.439473 0.123767 -0.007400 -0.005474 -0.281670 0.049831 0.381212 0.155553 -0.122898 0.022244 -0.169746 0.076391 0.254338 0.304005 0.061409 -0.004798 0.244277 0.058480 0.259634 -0.044298 -0.186100 -0.043154 0.175790 0.235480 -0.090007 -0.400999 -0.540696 0.074361 -0.226643 -0.056398 -0.142116 -0.383873 -0.433556 -0.209941 0.071565 0.213012 -0.138383 0.490226 -0.170717 -0.011394 -0.168645 0.133935 -0.114281 0.276778 0.266409 0.043918 -0.074329 0.337291 -0.212027 -0.137357 -0.560497 -0.267248 -0.078806 0.445476 0.258769 0.113061 0.444198 0.092208 -0.288686 0.079282 0.486260 -0.141088 -0.417242 0.224957 0.252381 -0.395731 -0.290266 0.480102 -0.187227 -0.054224 -0.141296 -0.076431 0.230217 -0.555112 -0.019518 0.038082 -0.176944 0.188652 0.400317 0.092702 0.446413 -0.324418 0.039991 0.199217 -0.013146 -0.293367 -0.373050 0.557672 0.674091 0.287470 0.250584 0.281136 -0.385550
